svm_type c_svc
kernel_type polynomial
degree 3
gamma 0.03125
coef0 0
nr_class 12
total_sv 1765
rho 0.999835 0.999719 1.00029 1.00164 -0.999929 0.984232 0.983182 0.999694 1.00054 0.940406 1.00075 0.999938 1.00041 0.946676 -1.00008 -0.998624 -0.998371 0.958925 1.01453 -0.994333 1.00874 -1.00033 -0.999606 -1.00008 -1.00001 -0.999878 -1.00051 -0.861819 -0.998215 -0.998872 -0.996725 -0.999672 -0.999669 -0.999545 -0.97391 0.987277 -0.99541 -0.978345 -0.999562 -0.999427 -1.00002 0.839104 1.01106 -0.996405 -0.873015 1.00113 0.999973 0.999808 1.00083 0.999257 1.00013 0.995741 0.999509 1.00134 -0.919513 1.00128 0.999338 1.00136 -0.980632 1.00171 1.03463 -0.986396 -0.917975 -1.00063 -1.00185 0.998997
label 1 2 3 4 5 6 7 8 9 10 11 12
nr_sv 25 101 656 223 106 6 32 53 134 295 30 104
SV
5 5 5 5 3.751308831816031 5 5 5 5 5 5 174:-0.509887 178:-0.849005 181:-1 182:-1 183:-1 186:-1 187:-0.680168 190:-1 
5 5 5 5 0 5 5 5 5 5 5 174:-0.844087 178:-0.939408 181:-1 182:-1 183:-1 186:-1 187:-0.680168 190:-1 
5 5 5 5 0 5 5 5 5 5 5 174:-0.828348 178:-0.869167 181:-1 182:-1 183:-1 186:-1 187:-0.680168 190:-1 
5 5 5 5 0 5 5 5 5 5 5 174:-0.769967 178:-0.66777 181:-1 182:-1 183:-1 186:-1 187:-0.680168 190:-1 
5 5 5 5 0 5 5 5 5 5 5 174:-0.892273 178:-0.855347 181:-1 182:-1 183:-1 186:-1 187:-0.680168 190:-1 
5 5 5 5 3.440744633203821 5 5 5 5 5 5 174:-0.557057 178:-0.179622 181:0.835753 182:-1 183:0.835753 186:-0.837267 187:-0.699357 190:-0.0869289 
5 5 5 5 0.7286283210920041 5 5 5 5 5 5 174:-0.861687 178:-0.571365 181:-1 182:-1 183:-1 186:-1 187:-0.680168 190:-1 
5 5 5 5 1.353777996356658 5 5 5 5 5 5 174:-0.490787 178:-0.0522015 181:0.771221 182:-1 183:0.771221 186:-0.758859 187:-0.700669 190:0.0291774 
5 5 5 5 0.1930865962190976 5 5 5 5 5 5 174:-0.770528 178:-0.5948 181:-1 182:-1 183:-1 186:-1 187:-0.680168 190:-1 
5 5 5 5 0 5 5 5 5 5 5 174:-0.958307 178:-0.945359 181:-1 182:-1 183:-1 186:-1 187:-0.680168 190:-1 
5 5 5 5 5 5 5 5 5 5 5 174:-0.677685 178:-0.516396 181:-1 182:-1 183:-1 186:-1 187:-0.680168 190:-1 
5 5 5 5 0 5 5 5 5 5 5 174:-0.437092 178:-0.247652 181:0.84786 182:-1 183:0.84786 186:-0.801671 187:-0.667277 190:0.0621974 
5 5 5 5 5 5 5 5 5 5 5 174:-0.833983 178:-0.459955 181:-1 182:-1 183:-1 186:-1 187:-0.680168 190:-1 
5 5 5 5 5 5 5 5 5 5 5 174:-0.20724 178:0.250368 181:0.940783 182:-1 183:0.940783 186:-0.394392 187:-0.67978 190:0.541089 
5 5 5 5 0 5 5 5 5 5 5 174:-0.755294 178:-0.497341 181:-0.00763344 182:-1 183:-0.00763344 186:-0.945713 187:-0.685948 190:-0.580198 
5 5 5 5 0 5 5 5 5 5 5 174:0.413855 178:0.0727591 181:0.922391 182:-1 183:0.922391 186:0.259869 187:-0.690848 190:0.270481 
5 5 5 5 4.239052725701343 5 5 5 5 5 5 174:0.154898 178:0.903233 181:0.95909 182:-1 183:0.95909 186:0.165083 187:-0.690705 190:0.515289 
5 5 5 5 0 5 5 5 5 5 5 174:0.284936 178:0.4027 181:0.947431 182:-1 183:0.947431 186:0.285907 187:-0.754827 190:0.596464 
5 5 5 5 0 5 5 5 5 5 5 174:-0.464466 178:-0.113553 181:0.944148 182:-1 183:0.944148 186:-0.741478 187:-0.691476 190:0.0995852 
5 5 5 5 0 5 5 5 5 5 5 174:-0.0220566 178:-0.115851 181:0.960432 182:-1 183:0.960432 186:-0.15405 187:-0.726027 190:0.556492 
5 5 5 5 0 5 5 5 5 5 5 174:0.0102805 178:-0.271029 181:0.92364 182:-1 183:0.92364 186:-0.310575 187:-0.679382 190:0.309526 
5 5 5 5 0 5 5 5 5 5 5 174:-0.15036 178:-0.12882 181:0.928283 182:-1 183:0.928283 186:-0.516493 187:-0.676796 190:0.376156 
5 5 5 5 1.293400895611047 5 5 5 5 5 5 174:-0.104795 178:0.155682 181:0.887679 182:-1 183:0.887679 186:-0.368073 187:-0.65752 190:0.525251 
5 5 5 5 0 5 5 5 5 5 5 174:-0.781987 178:-0.598108 181:-1 182:-1 183:-1 186:-1 187:-0.680168 190:-1 
5 5 5 5 0 5 5 5 5 5 5 174:0.075053 178:-0.200663 181:0.919172 182:-1 183:0.919172 186:-0.167043 187:-0.674437 190:0.568197 
-0 5 5 5 0 0 5 5 5 0 5 174:-0.6398 178:-0.445076 181:0.785603 182:-1 183:0.785603 186:-0.946812 187:-0.680134 190:-0.475291 
-0 5 5 5 0 0 5 5 5 0 5 174:-0.0662855 178:-0.33219 181:0.986446 182:-1 183:0.986446 186:-0.640048 187:-0.679723 190:0.203382 
-0 5 5 5 0 0 0 5 5 0 5 174:0.298658 178:0.27782 181:0.986446 182:-1 183:0.986446 186:0.187501 187:-0.679884 190:0.446617 
-0 5 5 5 0 3.829692261019194 0 5 5 0 5 174:-0.176274 178:-0.537651 181:0.897732 182:-1 183:0.897732 186:-0.796083 187:-0.680714 190:-0.105871 
-0 5 5 5 0 5 5 5 5 5 5 174:-0.11924 178:-0.360994 181:0.93815 182:-1 183:0.93815 186:-0.627525 187:-0.680502 190:0.293785 
-0 5 5 5 0 0 0 5 5 0 5 174:-0.11585 178:-0.276517 181:0.989797 182:-1 183:0.989797 186:-0.628094 187:-0.680433 190:0.183252 
-5 5 5 5 0 5 5 5 5 5 5 174:0.127764 178:-0.0179966 181:0.989797 182:-1 183:0.989797 186:-0.22831 187:-0.677276 190:0.590162 
-1.737289423799158 5 5 5 2.149622679105056 5 5 5 5 5 5 174:-0.966957 178:-0.908023 181:-1 182:-1 183:-1 186:-1 187:-0.680168 190:-1 
-0 5 5 5 1.397468218552727 0 5 5 5 5 5 174:-0.17448 178:0.536427 181:0.912627 182:-1 183:0.912627 186:-0.336281 187:-0.662203 190:0.648266 
-0 5 5 5 0 0 0 5 5 0 5 174:-0.332661 178:0.296835 181:0.976464 182:-1 183:0.976464 186:-0.598689 187:-0.676207 190:0.365492 
-0 5 5 5 0 0 0 5 5 0 5 174:-0.768617 178:-0.615343 181:-1 182:-1 183:-1 186:-1 187:-0.680168 190:-1 
-5 5 5 5 0 0 0 5 5 0 5 174:-0.773759 178:-0.546997 181:-1 182:-1 183:-1 186:-1 187:-0.680168 190:-1 
-0 5 5 5 0 0 0 5 5 0 5 174:-0.47329 178:-0.513295 181:0.983164 182:-1 183:0.983164 186:-0.899757 187:-0.67855 190:-0.330711 
-0 5 5 5 0 0 5 5 5 0 5 174:-0.508558 178:-0.325315 181:0.901692 182:-1 183:0.901692 186:-0.906598 187:-0.680514 190:-0.348909 
-0.9166784493477408 5 5 5 2.321037176494039 0 5 5 5 0 5 174:-0.612954 178:0.000699385 181:0.801468 182:-1 183:0.801468 186:-0.8427 187:-0.68659 190:-0.125323 
-0 5 5 5 2.830817726112802 5 5 5 5 0 5 174:0.0517013 178:0.384618 181:0.983164 182:-1 183:0.983164 186:-0.0583177 187:-0.681799 190:0.707279 
-0 5 5 5 0 0 5 5 5 0 5 174:-0.476554 178:0.31684 181:0.915844 182:-1 183:0.915844 186:-0.660849 187:-0.693714 190:0.3424 
-0 5 5 5 0 3.941092103214166 1.25946713176269 5 5 0 5 174:-0.708596 178:-0.653023 181:-1 182:-1 183:-1 186:-1 187:-0.680168 190:-1 
-5 5 5 5 0 0 0 5 5 0 5 174:-0.856127 178:-0.782502 181:-1 182:-1 183:-1 186:-1 187:-0.680168 190:-1 
-0 5 5 5 0 1.767840161591393 5 5 5 0 5 174:0.141073 178:0.338978 181:0.963199 182:-1 183:0.963199 186:0.120983 187:-0.684324 190:0.643512 
-4.354741387299195 5 5 5 0 0 5 5 5 0 5 174:-0.486623 178:-0.0919236 181:0.897786 182:-1 183:0.897786 186:-0.7728 187:-0.67914 190:0.0535784 
-0 5 5 5 0 0 0 5 5 0 5 174:-0.310406 178:-0.12818 181:0.983164 182:-1 183:0.983164 186:-0.746572 187:-0.688099 190:0.106443 
-0 5 5 5 0 0 0 5 5 0 5 174:-0.513697 178:-0.424467 181:0.888592 182:-1 183:0.888592 186:-0.903159 187:-0.68184 190:-0.35269 
-5 5 5 5 0 5 5 5 5 5 5 174:-0.215386 178:-0.164302 181:0.849442 182:-1 183:0.849442 186:-0.556591 187:-0.664105 190:0.425911 
-0 5 5 5 0 0 5 5 5 0 5 174:0.316757 178:0.312731 181:0.920824 182:-1 183:0.920824 186:0.2681 187:-0.679736 190:0.38493 
-2.297253035038598 5 5 5 0 5 5 5 5 4.813306867813727 5 174:-0.710464 178:-0.739479 181:-1 182:-1 183:-1 186:-1 187:-0.680168 190:-1 
-0 5 5 5 0 3.431828829793969 1.313234009482215 5 5 0 5 174:-0.614128 178:-0.543946 181:0.734934 182:-1 183:0.734934 186:-0.966027 187:-0.681318 190:-0.589276 
-0 5 5 5 0 2.212143984962212 5 5 5 0 5 174:-0.745708 178:-0.40713 181:-1 182:-1 183:-1 186:-1 187:-0.680168 190:-1 
-0 5 5 5 0 5 5 5 5 0 5 174:-0.673118 178:-0.22462 181:0.730394 182:-1 183:0.730394 186:-0.923852 187:-0.674505 190:-0.378751 
-0 5 5 5 0 0 2.516347822874087 5 5 0 5 174:-0.540004 178:-0.344418 181:0.909303 182:-1 183:0.909303 186:-0.91335 187:-0.680096 190:-0.338285 
-0 5 5 5 0 0 0.9059840101426779 5 5 0 5 174:-0.711445 178:-0.633643 181:-1 182:-1 183:-1 186:-1 187:-0.680168 190:-1 
-0 5 5 5 0 0 2.563547122121275 5 5 0 5 174:-0.655798 178:-0.513373 181:0.829236 182:-1 183:0.829236 186:-0.972915 187:-0.680675 190:-0.61557 
-0 5 5 5 1.714694915412388 0 0 5 5 0 5 174:-0.497714 178:0.361332 181:0.893917 182:-1 183:0.893917 186:-0.664709 187:-0.672026 190:0.298411 
-0 5 5 5 0 0 2.615661062628098 5 5 0 5 174:-0.641616 178:-0.314614 181:0.915515 182:-1 183:0.915515 186:-0.923984 187:-0.679878 190:-0.383773 
-0 5 5 5 0 5 5 5 5 5 5 174:-0.415369 178:-0.287349 181:0.463816 182:-1 183:0.463816 186:-0.860411 187:-0.686921 190:-0.280549 
-2.577957778695772 5 5 5 2.345179733554089 4.034362638154141 2.293961022954675 5 5 0 5 174:0.0634122 178:1 181:0.950781 182:-1 183:0.950781 186:0.0797962 187:-0.678259 190:0.53329 
-5 5 5 5 0 2.891709407051512 0.1275439184316134 5 5 0.3354257898746775 5 174:-0.982553 178:-0.914422 181:-1 182:-1 183:-1 186:-1 187:-0.680168 190:-1 
-0 5 5 5 0 0 5 5 5 0 5 174:-0.824518 178:-0.460586 181:0.716303 182:-1 183:0.716303 186:-0.974183 187:-0.67951 190:-0.658416 
-4.08332155065226 5 5 5 0 5 5 5 5 3.741461849470787 5 174:-0.296672 178:-0.301291 181:0.779158 182:-1 183:0.779158 186:-0.752397 187:-0.677873 190:-0.0491938 
-0 5 5 5 0 0 5 5 5 0 5 174:-0.718399 178:-0.364773 181:0.754757 182:-1 183:0.754757 186:-0.956116 187:-0.681646 190:-0.512184 
-5 5 5 5 0 0 0 5 5 0 5 174:-0.928476 178:-0.801378 181:-1 182:-1 183:-1 186:-1 187:-0.680168 190:-1 
-0 5 5 5 0 0 0 5 5 0 5 174:-0.332728 178:0.134608 181:0.93815 182:-1 183:0.93815 186:-0.630559 187:-0.674395 190:0.294225 
-0 5 5 5 0 0 5 5 5 5 5 174:-0.182828 178:0.285455 181:0.91673 182:-1 183:0.91673 186:-0.36317 187:-0.673727 190:0.638415 
-5 5 5 5 0 5 5 5 5 1.018188821300258 5 174:-0.538991 178:-0.524192 181:0.304422 182:-1 183:0.304422 186:-0.979566 187:-0.680651 190:-0.698382 
-0 5 5 5 0 0 0 5 5 0 5 174:-0.361073 178:-0.0820853 181:0.94109 182:-1 183:0.94109 186:-0.665605 187:-0.676539 190:0.199655 
-0 5 5 5 0 0 0 5 5 0 5 174:-0.904084 178:-0.789095 181:-1 182:-1 183:-1 186:-1 187:-0.680168 190:-1 
-0 5 5 5 0 0 0 5 5 0 5 174:-0.0480466 178:0.331154 181:0.966614 182:-1 183:0.966614 186:-0.246773 187:-0.673287 190:0.602164 
-5 5 5 5 0 0 0 5 5 0 5 174:-0.799443 178:-0.613497 181:-1 182:-1 183:-1 186:-1 187:-0.680168 190:-1 
-0 5 5 5 0 0 0 5 5 0 5 174:-0.853852 178:-0.767937 181:-1 182:-1 183:-1 186:-1 187:-0.680168 190:-1 
-0 5 5 5 0 0 0 5 5 0 5 174:-0.851488 178:-0.691805 181:-1 182:-1 183:-1 186:-1 187:-0.680168 190:-1 
-0 5 5 5 0 0 0 5 5 0 5 174:-0.859755 178:-0.655493 181:-1 182:-1 183:-1 186:-1 187:-0.680168 190:-1 
-5 5 5 5 0 5 5 5 5 0 5 174:-0.465508 178:-0.136332 181:0.847588 182:-1 183:0.847588 186:-0.765726 187:-0.688591 190:0.0816656 
-0 5 5 5 0 5 0 5 5 5 5 174:0.516302 178:0.180135 181:0.951502 182:-1 183:0.951502 186:0.51626 187:-0.679098 190:0.326226 
-0 5 5 5 0 0 5 5 5 3.305579524605642 5 174:0.264694 178:0.263628 181:0.957399 182:-1 183:0.957399 186:0.241533 187:-0.683228 190:0.560717 
-0 5 5 5 5 5 5 5 5 0 5 174:-0.724863 178:-0.401341 181:-1 182:-1 183:-1 186:-1 187:-0.680168 190:-1 
-0 5 5 5 0 1.211556487216107 5 5 5 5 5 174:-0.288835 178:0.216013 181:0.869109 182:-1 183:0.869109 186:-0.449536 187:-0.675223 190:0.378036 
-0 5 5 5 0 0 0.1758730233010529 5 5 0 5 174:-0.409278 178:-0.0630057 181:0.907025 182:-1 183:0.907025 186:-0.664055 187:-0.679699 190:0.294141 
-0 5 5 5 0 0 5 5 5 0 5 174:-0.265832 178:-0.122139 181:0.892476 182:-1 183:0.892476 186:-0.702133 187:-0.684656 190:0.183224 
-1.407765411104952 5 5 5 0 0 5 5 5 3.543051651954406 5 174:-0.453072 178:0.174665 181:0.85129 182:-1 183:0.85129 186:-0.630371 187:-0.691227 190:0.300605 
-5 5 5 5 0 0 0 5 5 0 5 174:-0.776402 178:-0.60814 181:-1 182:-1 183:-1 186:-1 187:-0.680168 190:-1 
-0 5 5 5 0 0 3.256889003169745 5 5 0 5 174:-0.376138 178:-0.283755 181:0.857182 182:-1 183:0.857182 186:-0.816847 187:-0.681496 190:-0.120465 
-0 5 5 5 0 0 0 5 5 0 5 174:0.349786 178:0.352917 181:0.963526 182:-1 183:0.963526 186:0.268103 187:-0.681518 190:0.438579 
-5 5 5 5 0 0 0 5 5 0 5 174:-0.221935 178:0.276677 181:0.951639 182:-1 183:0.951639 186:-0.367811 187:-0.675927 190:0.478848 
-5 5 5 5 0 0 5 5 5 5 5 174:-0.105128 178:0.188055 181:0.893125 182:-1 183:0.893125 186:-0.261504 187:-0.677694 190:0.52281 
-3.592234588895048 5 5 5 0 5 0 5 5 1.21131754098908 5 174:-0.149701 178:-0.223923 181:0.95 182:-1 183:0.95 186:-0.512508 187:-0.67655 190:0.230269 
-0 5 5 5 0 2.804350277951958 2.384338937371902 5 5 0 5 174:-0.234777 178:-0.394286 181:0.865568 182:-1 183:0.865568 186:-0.786911 187:-0.683501 190:-0.024273 
-2.060463657228643 5 5 5 5 5 5 5 5 0.636528327006745 5 174:-0.582548 178:-0.456201 181:-1 182:-1 183:-1 186:-1 187:-0.680168 190:-1 
-0 5 5 5 0 0 0 5 5 5 5 174:0.528394 178:0.15621 181:0.969764 182:-1 183:0.969764 186:0.433447 187:-0.682911 190:0.266833 
-0 5 5 5 0 1.04021759367359 0 5 5 5 5 174:0.648208 178:-0.0564747 181:0.966746 182:-1 183:0.966746 186:0.637293 187:-0.676935 190:-0.012268 
-0 5 5 5 0 0 0 5 5 5 5 174:0.549394 178:0.141818 181:0.950197 182:-1 183:0.950197 186:0.548316 187:-0.68247 190:0.180098 
-5 5 5 5 0 0.9656373618458589 0 5 5 0 5 174:-0.741453 178:-0.708704 181:-1 182:-1 183:-1 186:-1 187:-0.680168 190:-1 
-0 5 5 5 0 0 0 5 5 0 5 174:0.4617 178:0.343363 181:0.957399 182:-1 183:0.957399 186:0.416489 187:-0.680455 190:0.338109 
-0 5 5 5 0 0 0 5 5 5 5 174:0.521759 178:0.299396 181:0.938324 182:-1 183:0.938324 186:0.506849 187:-0.675243 190:0.439867 
-0 5 5 5 0 0 0 5 5 0 5 174:-0.310867 178:0.00541763 181:0.922524 182:-1 183:0.922524 186:-0.634191 187:-0.681423 190:0.272925 
-0 5 5 5 0 0 5 5 5 0 5 174:-0.370984 178:-0.257937 181:0.963786 182:-1 183:0.963786 186:-0.763014 187:-0.678262 190:0.0884144 
-5 5 5 5 2.60643976217428 5 5 5 5 5 5 174:-0.544059 178:-0.730317 181:-1 182:-1 183:-1 186:-1 187:-0.680168 190:-1 
-5 5 5 5 0 3.011132361652827 2.27495605359611 5 5 5 5 174:0.369186 178:0.223443 181:0.954049 182:-1 183:0.954049 186:0.437659 187:-0.672609 190:0.33258 
-0 5 5 5 0 0 5 5 5 5 5 174:0.0929525 178:0.144954 181:0.95683 182:-1 183:0.95683 186:-0.025153 187:-0.676869 190:0.5685 
-0 5 5 5 0 0 5 5 5 4.897340233073785 5 174:0.509507 178:0.357246 181:0.959849 182:-1 183:0.959849 186:0.420554 187:-0.674446 190:0.470317 
-0 5 5 5 0.1168005601310097 2.57654052048835 5 5 5 1.497799393910894 5 174:0.359526 178:0.406075 181:0.960048 182:-1 183:0.960048 186:0.22123 187:-0.672112 190:0.713741 
-0 5 5 5 1.219545155002841 5 5 5 5 5 5 174:-0.0169962 178:0.278065 181:0.692426 182:-1 183:0.692426 186:-0.437011 187:-0.71181 190:0.446467 
-0.185604140483396 5 5 5 0 5 3.377077915965176 5 5 5 5 174:0.349911 178:0.0996256 181:0.970158 182:-1 183:0.970158 186:0.136818 187:-0.679146 190:0.670567 
-5 5 5 5 0 5 5 5 5 5 5 174:-0.0229579 178:0.0138278 181:0.950781 182:-1 183:0.950781 186:-0.163363 187:-0.662896 190:0.623351 
-0.5150435285235799 5 5 5 0 0 1.764174855822648 5 5 0 5 174:0.421254 178:0.408155 181:0.917458 182:-1 183:0.917458 186:0.337027 187:-0.688295 190:0.460158 
-0 5 5 5 0 0 5 5 5 0 5 174:-0.269058 178:0.114545 181:0.966414 182:-1 183:0.966414 186:-0.463285 187:-0.680941 190:0.494218 
-0.5879274199923853 5 5 5 0 5 2.249983374168663 5 5 5 5 174:0.645568 178:-0.0816514 181:0.923072 182:-1 183:0.923072 186:0.670003 187:-0.682569 190:-0.0343447 
-0 5 5 5 0 0 5 5 5 0 5 174:-0.448745 178:-0.288742 181:0.874221 182:-1 183:0.874221 186:-0.864136 187:-0.68687 190:-0.140075 
-5 5 5 5 0 0 0 5 5 0 5 174:-0.400676 178:-0.234214 181:0.894915 182:-1 183:0.894915 186:-0.728697 187:-0.687224 190:0.152505 
-0 5 5 5 0 0 5 5 5 0 5 174:-0.389795 178:-0.262403 181:0.846736 182:-1 183:0.846736 186:-0.837168 187:-0.680455 190:-0.154956 
-0 5 5 5 0 5 0 5 5 5 5 174:0.641861 178:0.0966226 181:0.944653 182:-1 183:0.944653 186:0.5887 187:-0.681736 190:0.198259 
-1.271647048931658 5 5 5 0 5 5 5 5 5 5 174:0.331095 178:0.168966 181:0.862487 182:-1 183:0.862487 186:0.123522 187:-0.670577 190:0.61681 
-0 5 5 5 0 0.9804982880648538 5 5 5 5 5 174:-0.0533987 178:0.0162426 181:0.855962 182:-1 183:0.855962 186:-0.277208 187:-0.690763 190:0.49352 
-0 5 5 5 0.5039735110784791 5 5 5 5 0 5 174:-0.532906 178:0.100108 181:0.915636 182:-1 183:0.915636 186:-0.702197 187:-0.677958 190:0.243632 
-0 5 5 5 0 0 5 5 5 0 5 174:-0.42266 178:0.265245 181:0.935892 182:-1 183:0.935892 186:-0.608443 187:-0.684527 190:0.360213 
-4.412072580007615 5 5 5 0 0 0 5 5 0 5 174:-0.789404 178:-0.580884 181:-1 182:-1 183:-1 186:-1 187:-0.680168 190:-1 
-5 5 5 5 0 0.3013977233198675 0.1679706715808349 5 5 0 5 174:-0.847855 178:-0.825378 181:-1 182:-1 183:-1 186:-1 187:-0.680168 190:-1 
-5 5 5 5 0 0 0.7529900646265384 5 5 0 5 174:0.324479 178:0.334082 181:0.967688 182:-1 183:0.967688 186:0.205568 187:-0.679673 190:0.565748 
-0 5 5 5 0 5 5 5 5 5 5 174:0.195552 178:0.181533 181:0.966746 182:-1 183:0.966746 186:0.187306 187:-0.679012 190:0.584937 
-0 5 5 5 0 0 0 5 5 0 5 174:-0.551291 178:-0.401946 181:0.875305 182:-1 183:0.875305 186:-0.915666 187:-0.681222 190:-0.293949 
-0 5 5 5 0 0 0 5 5 0 5 174:-0.526261 178:-0.498844 181:0.869104 182:-1 183:0.869104 186:-0.939679 187:-0.680934 190:-0.440979 
-0 5 5 5 2.79442056238229 5 5 5 5 0 5 174:-0.397438 178:-0.127012 181:0.927088 182:-1 183:0.927088 186:-0.711372 187:-0.692238 190:0.205484 
-0 -0 0 0 0 0 0 5 0 0 0 174:-0.524007 178:-0.343568 181:0.601193 182:-1 183:0.601193 186:-0.914604 187:-0.680748 190:-0.379132 
-0 -5 0 0 0 0 0 0 0 0 0 174:-0.640842 178:-0.550192 181:0.744736 182:-1 183:0.744736 186:-0.96896 187:-0.681678 190:-0.58778 
-0 -0 0 0 0 0 0 0 5 0 5 174:-0.519974 178:-0.505222 181:-0.0972221 182:-1 183:-0.0972221 186:-0.980689 187:-0.680003 190:-0.763176 
-0 -0 0.712148249662609 0 0 0 0 0 0 0 0 174:-0.633721 178:-0.535493 181:0.752485 182:-1 183:0.752485 186:-0.957153 187:-0.680145 190:-0.511536 
-0 -0 0 0 0 0 0 0 5 0 0 174:-0.636448 178:-0.576348 181:-1 182:-1 183:-1 186:-1 187:-0.680168 190:-1 
-0 -0 0 0 0 0 0 0 5 0 0 174:-0.615417 178:-0.68959 181:-1 182:-1 183:-1 186:-1 187:-0.680168 190:-1 
-0 -5 0 0 0 0 0 0 0 0 0 174:-0.264707 178:0.142782 181:0.963331 182:-1 183:0.963331 186:-0.461188 187:-0.681853 190:0.510503 
-0 -0 0 0 0 0 0 0 5 0 0 174:-0.548961 178:-0.636406 181:-1 182:-1 183:-1 186:-1 187:-0.680168 190:-1 
-0 -0 0 0 0 0 0 0 5 0 0 174:-0.539478 178:-0.64885 181:-1 182:-1 183:-1 186:-1 187:-0.680168 190:-1 
-0 -5 5 0 0 0 0 0 5 0 0 174:0.0111449 178:0.0384199 181:0.943817 182:-1 183:0.943817 186:-0.143793 187:-0.680216 190:0.615612 
-0 -0 5 0 0 0 0 0 5 0 5 174:-0.283267 178:-0.0917295 181:0.866111 182:-1 183:0.866111 186:-0.579687 187:-0.681573 190:0.318455 
-0 -0 5 0 0 0 0 0 5 0 0 174:-0.176092 178:0.222656 181:0.898266 182:-1 183:0.898266 186:-0.419331 187:-0.675889 190:0.422181 
-5 -0 0 0 0 0 0 0 5 0 0 174:-0.0975204 178:0.162332 181:0.916654 182:-1 183:0.916654 186:-0.346842 187:-0.681939 190:0.525244 
-0 -0 0 0 0 0 0 0 5 0 5 174:-0.0616462 178:-0.103448 181:0.934981 182:-1 183:0.934981 186:-0.443757 187:-0.681589 190:0.42114 
-0 -0 5 0 0 0 0 0 5 0 0 174:-0.0975214 178:0.31785 181:0.921855 182:-1 183:0.921855 186:-0.245431 187:-0.674324 190:0.675118 
-0 -0 5 0 0 0 0 0 0 0 0 174:-0.726449 178:-0.300638 181:0.766308 182:-1 183:0.766308 186:-0.944159 187:-0.681978 190:-0.450471 
-0 -0 0 0 0 0 0 0 5 0 0 174:-0.398036 178:-0.666054 181:0.0212453 182:-1 183:0.0212453 186:-0.967088 187:-0.682166 190:-0.682919 
-0 -0 5 0 0 0 0 5 0 0 5 174:-0.204413 178:-0.470695 181:0.964768 182:-1 183:0.964768 186:-0.824682 187:-0.680294 190:-0.130543 
-0 -0 0 5 0 5 5 5 0 0 5 174:-0.195689 178:-0.368309 181:0.976397 182:-1 183:0.976397 186:-0.754167 187:-0.680427 190:0.0796621 
-0 -5 5 5 0 5 4.019242134252469 3.552206608369521 5 3.616878060807474 5 174:-0.0650357 178:-0.336669 181:0.937957 182:-1 183:0.937957 186:-0.573275 187:-0.679423 190:0.382727 
-0 -0 0 0 0 0 0 5 0 0 0 174:0.0942183 178:0.196906 181:0.970091 182:-1 183:0.970091 186:-0.108529 187:-0.676562 190:0.570545 
-0 -5 0 5 0 1.975395063551566 0 2.124718551367545 5 0 5 174:-0.553865 178:-0.516948 181:-1 182:-1 183:-1 186:-1 187:-0.680168 190:-1 
-0 -0 0 0 0 0 0 0 5 0 0 174:0.00534777 178:-0.304225 181:0.95 182:-1 183:0.95 186:-0.31611 187:-0.678502 190:0.369539 
-0 -0 0.4306186283599303 0 0 0 0 5 0 0 0 174:-0.711067 178:-0.487255 181:0.217285 182:-1 183:0.217285 186:-0.996227 187:-0.680143 190:-0.873934 
-0 -5 0 0 0 0 0 0 0 0 0 174:-0.653589 178:-0.247165 181:0.920824 182:-1 183:0.920824 186:-0.918073 187:-0.67994 190:-0.373143 
-0 -5 0 0 0 0 0 0 0 0 0 174:-0.896967 178:-0.790326 181:-1 182:-1 183:-1 186:-1 187:-0.680168 190:-1 
-0 -0 5 0 0 0 0 0 0 0 0 174:-0.467416 178:-0.150792 181:0.931273 182:-1 183:0.931273 186:-0.863054 187:-0.678888 190:-0.171663 
-0 -0 0 0 0 0 0 0 0 0 5 174:-0.151704 178:0.0870541 181:0.957638 182:-1 183:0.957638 186:-0.488479 187:-0.682955 190:0.474791 
-0 -0 5 5 0 5 5 5 5 5 0 174:0.262155 178:-0.05956 181:0.979747 182:-1 183:0.979747 186:0.0801443 187:-0.678054 190:0.655276 
-0 -0 0 0 0 0 5 0 0 0 0 174:-0.562266 178:0.165823 181:0.86012 182:-1 183:0.86012 186:-0.7664 187:-0.67848 190:0.0531768 
-0 -0 0.9359846534831415 0 0 0 0 0 0 0 0 174:-0.243609 178:0.0979649 181:0.963266 182:-1 183:0.963266 186:-0.426105 187:-0.685417 190:0.454336 
-0 -0 0 0 0 0 0 1.447793391630479 0 0 0 174:-0.285935 178:-0.0319785 181:0.911947 182:-1 183:0.911947 186:-0.561627 187:-0.682214 190:0.240202 
-0 -5 0 0 0 0 0 0 0 0 0 174:-0.711718 178:-0.27052 181:0.744386 182:-1 183:0.744386 186:-0.933865 187:-0.679957 190:-0.437731 
-0 -0 0 0 0 0 0 0 5 0 0 174:-0.595283 178:-0.659656 181:-1 182:-1 183:-1 186:-1 187:-0.680168 190:-1 
-0 -0 0 0 0 0 0 0 5 0 0 174:-0.407097 178:-0.511962 181:0.231061 182:-1 183:0.231061 186:-0.960904 187:-0.68212 190:-0.620072 
-0 -0 0 0 0 0 0 0 5 0 0 174:-0.559631 178:-0.700008 181:-1 182:-1 183:-1 186:-1 187:-0.680168 190:-1 
-0 -0 5 0 0 0 0 0 5 0 5 174:-0.99685 178:-0.990365 181:-1 182:-1 183:-1 186:-1 187:-0.680168 190:-1 
-0 -0 0 0 0 0 0 0 0 0 2.001017972815024 174:-0.794945 178:-0.497399 181:-1 182:-1 183:-1 186:-1 187:-0.680168 190:-1 
-0 -0 5 5 0.1797197537096573 0 0 0 0 0 0 174:-0.195078 178:0.105478 181:0.989797 182:-1 183:0.989797 186:-0.472885 187:-0.680483 190:0.479372 
-0 -0 5 0 0 0 0 0 0 0 0 174:-0.311724 178:-0.00885724 181:0.944133 182:-1 183:0.944133 186:-0.609482 187:-0.680146 190:0.341953 
-0 -0 0 0 0 0 0 5 0 0 0 174:0.0732502 178:0.191789 181:0.970664 182:-1 183:0.970664 186:-0.133919 187:-0.678373 190:0.557021 
-0 -0 0 0 0 0 1.193311164053627 0 0 0 0 174:0.00751132 178:0.33737 181:0.983164 182:-1 183:0.983164 186:-0.215442 187:-0.672967 190:0.639723 
-0 -0 0 0 0 0 0 0 5 0 0 174:0.00102119 178:-0.117063 181:0.960988 182:-1 183:0.960988 186:-0.312354 187:-0.687232 190:0.44572 
-5 -5 0 5 0 0 0 0 0 0 0 174:0.0353679 178:-0.0242691 181:0.989797 182:-1 183:0.989797 186:-0.17571 187:-0.683735 190:0.518286 
-0 -0 0 0 0 0 0 0 5 0 0 174:-0.518121 178:-0.781433 181:-1 182:-1 183:-1 186:-1 187:-0.680168 190:-1 
-0 -5 0 0 0 0 0 0 0 0 0 174:-0.555135 178:-0.566144 181:0.262501 182:-1 183:0.262501 186:-0.981246 187:-0.680429 190:-0.715884 
-0 -0 0 0 0 0 0 0 5 0 0 174:-0.484885 178:-0.735415 181:-1 182:-1 183:-1 186:-1 187:-0.680168 190:-1 
-0 -0 0 0 0 0 0 0 5 0 0 174:-0.519232 178:-0.711045 181:-1 182:-1 183:-1 186:-1 187:-0.680168 190:-1 
-0 -0 0 0 0 0 0 0 5 0 0 174:-0.57416 178:-0.736668 181:-1 182:-1 183:-1 186:-1 187:-0.680168 190:-1 
-0 -0 0 0 0 0 0 0 5 0 0 174:-0.553272 178:-0.735053 181:-1 182:-1 183:-1 186:-1 187:-0.680168 190:-1 
-0 -0 0 0 0 0 0 0 5 0 0 174:-0.540826 178:-0.738391 181:-1 182:-1 183:-1 186:-1 187:-0.680168 190:-1 
-0 -0 0 0 0 0 0 0 5 0 0 174:-0.531833 178:-0.606612 181:0.114897 182:-1 183:0.114897 186:-0.971953 187:-0.679985 190:-0.674922 
-0 -0 0 0 0 0 0 0 5 0 0 174:-0.542653 178:-0.767262 181:-1 182:-1 183:-1 186:-1 187:-0.680168 190:-1 
-0 -0 0 0 0 0 0 5 1.365859141416608 0 0 174:-0.367102 178:-0.623409 181:0.482352 182:-1 183:0.482352 186:-0.941566 187:-0.680882 190:-0.504398 
-0 -0 0 0 0 0 0 0 5 0 0 174:-0.535842 178:-0.765727 181:-1 182:-1 183:-1 186:-1 187:-0.680168 190:-1 
-0 -0 0 0 0 0 0 0 5 0 0 174:-0.478169 178:-0.742833 181:-1 182:-1 183:-1 186:-1 187:-0.680168 190:-1 
-0 -0 5 0 0 0 0 5 5 0 5 174:-0.445665 178:-0.728024 181:-1 182:-1 183:-1 186:-1 187:-0.680168 190:-1 
-0 -0 0 0 0 0 0 0 5 0 0 174:-0.503378 178:-0.778961 181:-1 182:-1 183:-1 186:-1 187:-0.680168 190:-1 
-0 -0 0 0 0 0 0 0 5 0 0 174:-0.535335 178:-0.693417 181:-1 182:-1 183:-1 186:-1 187:-0.680168 190:-1 
-0 -0 5 0 0 0 0 0 0 0 0 174:-0.671689 178:-0.37114 181:0.895321 182:-1 183:0.895321 186:-0.978108 187:-0.679897 190:-0.683532 
-0 -0 0 0 0 0 0 0 5 0 0 174:-0.550159 178:-0.554815 181:-1 182:-1 183:-1 186:-1 187:-0.680168 190:-1 
-0 -0 0 0 0 0 0 0 5 0 0 174:-0.632274 178:-0.647727 181:-1 182:-1 183:-1 186:-1 187:-0.680168 190:-1 
-0 -0 5 0 0 0 0 0 0 0 0 174:-0.692044 178:-0.456745 181:0.882312 182:-1 183:0.882312 186:-0.960081 187:-0.679319 190:-0.485477 
-0 -0 0 0 0 0 0 0 5 0 0 174:-0.680009 178:-0.616745 181:-1 182:-1 183:-1 186:-1 187:-0.680168 190:-1 
-0 -0 0 0 0 0 0 0 5 0 0.1641547381507913 174:-0.57043 178:-0.542645 181:-1 182:-1 183:-1 186:-1 187:-0.680168 190:-1 
-0 -5 0 0 0 0 0 0 0 0 0 174:-0.770582 178:-0.615898 181:-1 182:-1 183:-1 186:-1 187:-0.680168 190:-1 
-0 -0 0 0 0 0 0 0 5 0 0 174:-0.702748 178:-0.575923 181:-1 182:-1 183:-1 186:-1 187:-0.680168 190:-1 
-0 -0 0 5 0 0 0 5 5 0 5 174:-0.0575084 178:-0.402211 181:0.894572 182:-1 183:0.894572 186:-0.651843 187:-0.677487 190:0.102422 
-0 -0 0 0 0 0 0 5 0 0 0 174:-0.884584 178:-0.576275 181:0.802454 182:-1 183:0.802454 186:-0.977106 187:-0.680893 190:-0.637478 
-0 -0 5 3.414262000858746 0 0 5 4.28482046460844 0 0 2.009462409876018 174:0.123991 178:0.636602 181:0.973047 182:-1 183:0.973047 186:-0.0454788 187:-0.689799 190:0.733757 
-0 -5 0 0 0 0 0 0 0 0 0 174:-0.705207 178:-0.656374 181:-1 182:-1 183:-1 186:-1 187:-0.680168 190:-1 
-0 -0 0 0 0 0 0 0 5 0 0 174:-0.498969 178:-0.740846 181:-1 182:-1 183:-1 186:-1 187:-0.680168 190:-1 
-0 -0 2.754841085866331 0 0 0.7790568077946544 0 3.242725706965538 5 0 0 174:-0.0298014 178:0.0826679 181:0.93815 182:-1 183:0.93815 186:-0.236924 187:-0.678756 190:0.404379 
-0 -0 0 0 0 0 0 2.753410753856109 0 0 0 174:-0.867031 178:-0.680456 181:0.187289 182:-1 183:0.187289 186:-0.994602 187:-0.680256 190:-0.851232 
-0 -5 5 0 0 0 0 0 0 0 0 174:-0.599245 178:-0.062218 181:0.776493 182:-1 183:0.776493 186:-0.833382 187:-0.678215 190:-0.203008 
-0 -0 0 0 0 0 0 0 5 0 5 174:-0.453402 178:-0.693223 181:-1 182:-1 183:-1 186:-1 187:-0.680168 190:-1 
-0 -0 5 5 2.604727330483144 0 0 5 0 0 5 174:-0.240174 178:-0.396652 181:0.834822 182:-1 183:0.834822 186:-0.856872 187:-0.680168 190:-0.119085 
-0 -0 0 0 0 0 0 0 5 0 0 174:-0.490765 178:-0.500661 181:0.278088 182:-1 183:0.278088 186:-0.970064 187:-0.679953 190:-0.660935 
-0 -0 5 0 0 0 0 0 5 0 0 174:-0.308858 178:0.0406292 181:0.858231 182:-1 183:0.858231 186:-0.580581 187:-0.682448 190:0.296025 
-0 -0 0 0 0 0 0 0 5 0 0 174:-0.591932 178:-0.461772 181:0.236787 182:-1 183:0.236787 186:-0.956372 187:-0.68035 190:-0.592616 
-0 -0 5 0 0 0 0 5 0 0 0 174:-0.327605 178:-0.375727 181:0.751956 182:-1 183:0.751956 186:-0.844376 187:-0.680977 190:-0.16557 
-0 -5 0 0 0 0 0 0 0 0 0 174:-0.767822 178:-0.604972 181:-1 182:-1 183:-1 186:-1 187:-0.680168 190:-1 
-0 -0 0 1.093769897757722 0 0 0 0 5 0 5 174:-0.474089 178:-0.492604 181:0.249076 182:-1 183:0.249076 186:-0.92209 187:-0.680099 190:-0.465979 
-0 -0 0 0 0 0 0 0 5 0 0 174:-0.6071 178:-0.692568 181:-1 182:-1 183:-1 186:-1 187:-0.680168 190:-1 
-0 -0 0 0 0 0 0 0 5 0 0 174:-0.600345 178:-0.655883 181:-1 182:-1 183:-1 186:-1 187:-0.680168 190:-1 
-0 -0 0 0 0 0 0 0 5 0 0 174:-0.56118 178:-0.705413 181:-1 182:-1 183:-1 186:-1 187:-0.680168 190:-1 
-0 -0 0 0 0 0 0 0 5 0 0 174:-0.522305 178:-0.725643 181:-1 182:-1 183:-1 186:-1 187:-0.680168 190:-1 
-0 -0 0 0 0 0 0 0 5 0 0 174:-0.519016 178:-0.747833 181:-1 182:-1 183:-1 186:-1 187:-0.680168 190:-1 
-0 -0 0 0 0 0 0 0 5 0 0 174:-0.524863 178:-0.738668 181:-1 182:-1 183:-1 186:-1 187:-0.680168 190:-1 
-0 -0 0 0 0 0 0 0 5 0 0 174:-0.561559 178:-0.731794 181:-1 182:-1 183:-1 186:-1 187:-0.680168 190:-1 
-0 -0 5 0 0 0.7313349459539342 0 5 0 0 0 174:-0.59981 178:-0.703838 181:0.243124 182:-1 183:0.243124 186:-0.996859 187:-0.68016 190:-0.883746 
-0 -0 0 0 0 0 0 0 5 0 0 174:-0.540756 178:-0.740086 181:-1 182:-1 183:-1 186:-1 187:-0.680168 190:-1 
-0 -0 0 0 0 0 0 5 0 0 0 174:-0.450365 178:-0.653246 181:-0.0363829 182:-1 183:-0.0363829 186:-0.990631 187:-0.680107 190:-0.824613 
-0 -0 0 0 0 0 0 0 5 0 0 174:-0.548347 178:-0.720097 181:-1 182:-1 183:-1 186:-1 187:-0.680168 190:-1 
-0 -3.271181832471268 0 0 0 0 0 0 5 0 0 174:-0.541673 178:-0.730173 181:-1 182:-1 183:-1 186:-1 187:-0.680168 190:-1 
-0 -0 0 0 0 0 0 0 5 0 0 174:-0.553219 178:-0.753428 181:-1 182:-1 183:-1 186:-1 187:-0.680168 190:-1 
-0 -0 0 0 0 0 0 0 5 0 0 174:-0.565766 178:-0.732059 181:-1 182:-1 183:-1 186:-1 187:-0.680168 190:-1 
-0 -0 0 0 0 0 0 0 5 0 0 174:-0.57608 178:-0.708609 181:-1 182:-1 183:-1 186:-1 187:-0.680168 190:-1 
-0 -0 5 5 0 0 0 0 0 0 0 174:0.242553 178:0.191242 181:0.950194 182:-1 183:0.950194 186:0.240178 187:-0.677366 190:0.680925 
-0 -0 5 0 0 0 0 0 0 0 0 174:-0.302204 178:-0.0655223 181:0.874613 182:-1 183:0.874613 186:-0.67222 187:-0.685726 190:0.212328 
-0 -0 5 0 0 0 0 5 0 0 0 174:-0.347274 178:-0.445073 181:0.924359 182:-1 183:0.924359 186:-0.904297 187:-0.679685 190:-0.327704 
-0 -0 0 0 0 0 0 0 5 0 5 174:-0.452606 178:-0.686739 181:-1 182:-1 183:-1 186:-1 187:-0.680168 190:-1 
-0 -5 0 0 0 0 0 5 0 0 5 174:-0.252861 178:-0.423245 181:0.852375 182:-1 183:0.852375 186:-0.791127 187:-0.680141 190:-0.0296669 
-0 -0 0 0 0 0 0 5 0 0 0 174:-0.299028 178:-0.526959 181:0.772023 182:-1 183:0.772023 186:-0.924912 187:-0.679336 190:-0.445731 
-0 -0 0 0 0 0 0 0 5 0 0 174:-0.496437 178:-0.687915 181:-1 182:-1 183:-1 186:-1 187:-0.680168 190:-1 
-0 -5 0 0 0 0 0 5 0 0 0 174:-0.248807 178:-0.448801 181:0.905701 182:-1 183:0.905701 186:-0.782265 187:-0.681094 190:-0.0264098 
-0 -0 0 0 0 0 0 0 5 0 0 174:-0.382715 178:-0.648177 181:0.164966 182:-1 183:0.164966 186:-0.981326 187:-0.679028 190:-0.727516 
-0 -0 0 0 0 0 5 5 0 0 0 174:-0.274624 178:-0.566089 181:0.87619 182:-1 183:0.87619 186:-0.930302 187:-0.68019 190:-0.452755 
-0 -0 5 0 0 0 0 0 5 2.076859774688539 0.4123299071282264 174:0.464754 178:-0.0019894 181:0.944085 182:-1 183:0.944085 186:0.587581 187:-0.675664 190:0.439741 
-0 -5 0 0 0 0 0 0 0 0 0 174:-0.592252 178:-0.45249 181:0.773575 182:-1 183:0.773575 186:-0.943072 187:-0.680239 190:-0.505584 
-0 -0 0 0 0 0 0 0 5 0 0 174:-0.48066 178:-0.0601471 181:0.80375 182:-1 183:0.80375 186:-0.727034 187:-0.677128 190:0.161082 
-0 -0 0 0 0 0 0 0 5 0 0 174:-0.0092923 178:-0.0541209 181:0.957744 182:-1 183:0.957744 186:-0.202302 187:-0.681804 190:0.434222 
-0 -0 0 0 0 0 0 0 5 0 0 174:-0.28745 178:-0.124824 181:0.869689 182:-1 183:0.869689 186:-0.633376 187:-0.681234 190:0.136893 
-0 -2.51192391045253 0 0 0 0 0 0 0 0 0 174:-0.845815 178:-0.521521 181:0.690902 182:-1 183:0.690902 186:-0.97421 187:-0.679704 190:-0.65933 
-0 -0 0 0 0 0 0 0 5 0 0 174:-0.00538054 178:-0.0663497 181:0.966482 182:-1 183:0.966482 186:-0.197939 187:-0.681543 190:0.424247 
-0 -0 2.245158914133669 5 0 0 0 0 5 0 0 174:0.0250308 178:-0.058629 181:0.912003 182:-1 183:0.912003 186:-0.171398 187:-0.681969 190:0.402647 
-0 -0 0 0 0 1.288463123134189 1.880531656287279 0 5 0 0 174:0.0770083 178:-0.0395507 181:0.963526 182:-1 183:0.963526 186:-0.0914931 187:-0.68075 190:0.442937 
-0 -0 0.4453702788216362 0 0 0 0 0 5 0 0 174:-0.0115958 178:0.0363561 181:0.94779 182:-1 183:0.94779 186:-0.182406 187:-0.681958 190:0.543185 
-0 -0 0 0 0 0 0 0 5 0 0 174:-0.0819752 178:0.47559 181:0.898875 182:-1 183:0.898875 186:-0.206665 187:-0.678755 190:0.633702 
-0 -0 5 5 0 0 0 0 5 0 5 174:-0.51987 178:-0.150961 181:0.673177 182:-1 183:0.673177 186:-0.819658 187:-0.684513 190:-0.128834 
-0 -0 0 0 0 0 0 0 5 0 0 174:-0.718862 178:-0.492139 181:-0.117713 182:-1 183:-0.117713 186:-0.978027 187:-0.680887 190:-0.746248 
-0 -0 0 0 0 0 0 0 5 0 0 174:-0.566341 178:-0.421396 181:0.294418 182:-1 183:0.294418 186:-0.955286 187:-0.681132 190:-0.592326 
-0 -0 0 0 0 0 0 0 5 0 0 174:-0.201087 178:0.221412 181:0.914687 182:-1 183:0.914687 186:-0.309156 187:-0.678971 190:0.597933 
-0 -0 5 0 0 0 0 0 0 0 0 174:-0.420344 178:-0.0550051 181:0.950957 182:-1 183:0.950957 186:-0.682302 187:-0.678336 190:0.236167 
-0 -0 5 0 0 0 0 0 0 0 0 174:-0.45026 178:-0.571953 181:0.747568 182:-1 183:0.747568 186:-0.942222 187:-0.679558 190:-0.445889 
-0 -0 0 0 0 0 0 0 0.3859817581161815 0 0 174:-0.660223 178:-0.647525 181:-1 182:-1 183:-1 186:-1 187:-0.680168 190:-1 
-0 -0 5 0 0 0 5 5 0 0 0 174:-0.618502 178:-0.0246839 181:0.683376 182:-1 183:0.683376 186:-0.885673 187:-0.683031 190:-0.220326 
-0 -0 0 0.2488181962487942 0 0 0 0 0 0 0 174:-0.79632 178:-0.927217 181:-1 182:-1 183:-1 186:-1 187:-0.680168 190:-1 
-5 -0 0 0 0 0 0 0 0 0 0 174:-0.832033 178:-0.934314 181:-1 182:-1 183:-1 186:-1 187:-0.680168 190:-1 
-5 -0 4.168238076831953 5 0 0 0 5 0 0 0 174:-0.518821 178:-0.829551 181:-1 182:-1 183:-1 186:-1 187:-0.680168 190:-1 
-0 -0 5 5 0 0 0 1.479457430691949 5 5 0 174:0.639671 178:0.183265 181:0.920034 182:-1 183:0.920034 186:0.405984 187:-0.68233 190:0.0318872 
-0 -0 0 5 0 0 0 0.7151795353915601 5 5 0.4545633308895489 174:0.574756 178:-0.279855 181:0.900758 182:-1 183:0.900758 186:0.280191 187:-0.679702 190:-0.0703731 
-0 -0 0 0 0 0 0 0 5 0 0 174:0.517878 178:0.169949 181:0.907955 182:-1 183:0.907955 186:0.382826 187:-0.682598 190:0.293736 
-0 -0 0 0 0 0 0 5 0 0 0 174:-0.794193 178:-0.308914 181:0.893918 182:-1 183:0.893918 186:-0.929751 187:-0.678845 190:-0.329633 
-5 -5 0 0 0 0 0 0 0 0 0 174:-0.777859 178:-0.590404 181:-1 182:-1 183:-1 186:-1 187:-0.680168 190:-1 
-0 -0 0 0 0 0 0 5 0 0 0 174:-0.504274 178:-0.414691 181:0.3 182:-1 183:0.3 186:-0.972117 187:-0.680274 190:-0.664444 
-0 -0 5 0 0 0 0 0 0 0 0 174:0.299421 178:0.379647 181:0.938336 182:-1 183:0.938336 186:0.257514 187:-0.67962 190:0.582708 
-0 -0 0 5 0 0 4.585473613740148 0 0 0 2.508697632123745 174:-0.863784 178:-0.315794 181:0.866278 182:-1 183:0.866278 186:-0.914158 187:-0.677909 190:-0.276324 
-0 -0 0 4.009787099211767 0 3.732098200049054 0 3.247386846719 0 0 0 174:-0.392778 178:-0.610772 181:0.944081 182:-1 183:0.944081 186:-0.956776 187:-0.680177 190:-0.549092 
-0 -0 0 0 0 0 0 0 0 0 5 174:-0.340691 178:-0.567798 181:0.837269 182:-1 183:0.837269 186:-0.889084 187:-0.678147 190:-0.302103 
-0 -0 0 0 0 0 0 0 5 0 5 174:-0.473965 178:-0.758537 181:-1 182:-1 183:-1 186:-1 187:-0.680168 190:-1 
-0 -0 0 0 0 0 0 5 1.606637704279684 0 0 174:-0.511493 178:-0.80206 181:-1 182:-1 183:-1 186:-1 187:-0.680168 190:-1 
-0 -0 0 0 0 0 0 5 0 0 0 174:-0.443098 178:-0.714822 181:0.24811 182:-1 183:0.24811 186:-0.993665 187:-0.68029 190:-0.834781 
-0 -0 0 0 0 0 0 5 5 0 0 174:-0.482129 178:-0.778358 181:-1 182:-1 183:-1 186:-1 187:-0.680168 190:-1 
-0 -0 0 1.89367427479329 0 0 0 0 0 0 0 174:-0.563134 178:-0.354661 181:0.63301 182:-1 183:0.63301 186:-0.869965 187:-0.680491 190:-0.31218 
-0 -1.728818167528732 0 0 0 0 0 0 0 0 5 174:-0.790607 178:-0.49575 181:-1 182:-1 183:-1 186:-1 187:-0.680168 190:-1 
-0 -5 0 0 0 0 0 0 5 0 0 174:0.252099 178:0.201261 181:0.931388 182:-1 183:0.931388 186:0.146919 187:-0.676345 190:0.476692 
-0 -0 0 0 0 0 0 0 5 0 5 174:0.0202858 178:-0.202977 181:0.948181 182:-1 183:0.948181 186:-0.19382 187:-0.678868 190:0.475687 
-0 -5 2.346518057395083 0 0 0 0 5 0 0 5 174:-0.0613818 178:-0.444969 181:0.956633 182:-1 183:0.956633 186:-0.578357 187:-0.678958 190:0.193283 
-0 -0 0 0 0 0 0 5 0 0 0 174:-0.222753 178:-0.274734 181:0.889353 182:-1 183:0.889353 186:-0.782871 187:-0.679178 190:-0.0996456 
-0 -5 0 0 0 0 5 0 0 0 5 174:-0.381459 178:-0.0968241 181:0.914307 182:-1 183:0.914307 186:-0.694009 187:-0.681122 190:0.259952 
-0 -0 5 0 0 0 0 4.178839049829215 0 0 0 174:0.0143398 178:0.601563 181:0.966681 182:-1 183:0.966681 186:-0.205594 187:-0.68769 190:0.66941 
-0 -0 5 0 0 0 0 0 0 0 0 174:-0.562941 178:-0.446949 181:0.950766 182:-1 183:0.950766 186:-0.952933 187:-0.680139 190:-0.521805 
-0 -5 0 0 0 0 0 0 0 0 0 174:-0.430066 178:0.0286963 181:0.880682 182:-1 183:0.880682 186:-0.757433 187:-0.677682 190:0.115451 
-0 -0 0 5 0 0 0 0 0 0 0 174:0.468608 178:0.15424 181:0.954249 182:-1 183:0.954249 186:0.389591 187:-0.676293 190:0.408683 
-0 -0 0 0 0 0 0 0 5 0 0 174:-0.291086 178:-0.142781 181:0.867944 182:-1 183:0.867944 186:-0.667133 187:-0.680065 190:0.16016 
-0 -0 0 0 0 0 0 0.8478549434487044 0 0 0 174:-0.579359 178:-0.454015 181:0.298636 182:-1 183:0.298636 186:-0.987641 187:-0.680169 190:-0.775776 
-0 -0 0 0 0 0 0 0 0 0 0.5617530897060101 174:-0.291306 178:0.110472 181:0.948018 182:-1 183:0.948018 186:-0.564684 187:-0.663445 190:0.378851 
-0 -0 0 0 0 0 0 0 0 0 0.3190905185368662 174:-0.658737 178:-0.321318 181:0.983164 182:-1 183:0.983164 186:-0.921796 187:-0.679238 190:-0.424684 
-0 -0 0 0 0 0 0 0.7844983602636956 0 0 0 174:-0.374007 178:-0.0137779 181:0.969697 182:-1 183:0.969697 186:-0.601568 187:-0.686017 190:0.269651 
-0 -0 0 0 0 0 0 0 5 0 0 174:-0.613696 178:-0.407092 181:0.0948663 182:-1 183:0.0948663 186:-0.973522 187:-0.680781 190:-0.690201 
-0 -0 5 5 0 0 0 5 0 0 5 174:-0.457011 178:-0.195203 181:0.855944 182:-1 183:0.855944 186:-0.882179 187:-0.682549 190:-0.212447 
-0 -0 5 0 0 0 0 5 0 0 0 174:-0.404601 178:-0.321097 181:0.976531 182:-1 183:0.976531 186:-0.82947 187:-0.680153 190:-0.0642125 
-0 -0 0 0 0 0 0 0 5 0 0 174:-0.617384 178:-0.663624 181:-1 182:-1 183:-1 186:-1 187:-0.680168 190:-1 
-0 -0 0 0 0 0 0 0 5 0 0 174:-0.500039 178:-0.743774 181:-1 182:-1 183:-1 186:-1 187:-0.680168 190:-1 
-0 -0 0 0 0 0 0 0 5 0 0 174:-0.527917 178:-0.570116 181:-1 182:-1 183:-1 186:-1 187:-0.680168 190:-1 
-0 -0 0 0 0 0 0 0 5 0 0 174:-0.641369 178:-0.525236 181:-1 182:-1 183:-1 186:-1 187:-0.680168 190:-1 
-0 -5 0 0 0 0 0 0 0 0 0 174:-0.586754 178:-0.330719 181:0.888439 182:-1 183:0.888439 186:-0.900403 187:-0.679468 190:-0.294499 
-0 -0 5 0 0 5 0 0 5 1.05607647193172 5 174:-0.202148 178:0.0507345 181:0.897527 182:-1 183:0.897527 186:-0.469915 187:-0.680374 190:0.517046 
-0 -0 3.566369621528087 5 0 0 5 0 0 1.171564919892641 5 174:0.43979 178:0.304094 181:0.963132 182:-1 183:0.963132 186:0.496282 187:-0.680314 190:0.561806 
-0 -0 0 0 0 0 0 0 5 0 0 174:-0.170992 178:-0.279648 181:0.854501 182:-1 183:0.854501 186:-0.692842 187:-0.680781 190:-0.00555472 
-0 -0 0 0 0 0 0 5 0 0 0 174:-0.697136 178:-0.469227 181:0.248094 182:-1 183:0.248094 186:-0.9794 187:-0.679893 190:-0.714485 
-5 -0 0 0 0 0 0 0 0 0 0 174:-0.893509 178:-0.854814 181:-1 182:-1 183:-1 186:-1 187:-0.680168 190:-1 
-0 -0 0 0 0 0 0 0 1.393447257313511 0 0 174:-0.552164 178:-0.762103 181:-1 182:-1 183:-1 186:-1 187:-0.680168 190:-1 
-5 -0 0 0 0 0 0 0 0 0 0 174:-0.774856 178:-0.665822 181:-1 182:-1 183:-1 186:-1 187:-0.680168 190:-1 
-0 -0 0 0 0 0 0 0 5 0 0 174:-0.529977 178:-0.576519 181:0.220593 182:-1 183:0.220593 186:-0.961994 187:-0.680244 190:-0.622611 
-0 -0 0 0 0 0 0 0 5 0 0 174:-0.582528 178:-0.699428 181:-1 182:-1 183:-1 186:-1 187:-0.680168 190:-1 
-0 -0 0 0 0 0 0.9807578657475312 0 0 0 0 174:-0.304218 178:0.121366 181:0.989797 182:-1 183:0.989797 186:-0.586267 187:-0.677965 190:0.336536 
-0 -0 0 0 0 0 0 5 0 0 0 174:-0.546107 178:-0.0118343 181:0.845589 182:-1 183:0.845589 186:-0.818889 187:-0.680913 190:0.0133031 
-0 -0 0 0 0 0 0 0 5 0 0 174:-0.71127 178:-0.507851 181:-1 182:-1 183:-1 186:-1 187:-0.680168 190:-1 
-0 -0 0 0 0 0 0 0 5 0 0 174:-0.622385 178:-0.659371 181:-1 182:-1 183:-1 186:-1 187:-0.680168 190:-1 
-0 -0 5 0 0 0 0 0 0 0 0 174:-0.694579 178:-0.869374 181:-1 182:-1 183:-1 186:-1 187:-0.680168 190:-1 
-0 -0 5 0 0 0 0 5 0 0 3.496344321160336 174:-0.714936 178:-0.892306 181:-1 182:-1 183:-1 186:-1 187:-0.680168 190:-1 
-0 -0 0 0 0 0 0 0 5 0 0 174:-0.576764 178:-0.670766 181:-1 182:-1 183:-1 186:-1 187:-0.680168 190:-1 
-0 -0 5 0.2353080838202284 0 0 0 0 0 0 0 174:-0.709639 178:-0.496917 181:0.83724 182:-1 183:0.83724 186:-0.933181 187:-0.677568 190:-0.351907 
-0 -0 0 0 0 0 0 0 5 0 0 174:-0.63378 178:-0.653203 181:-1 182:-1 183:-1 186:-1 187:-0.680168 190:-1 
-0 -5 0 0 0 0 0 0 0 0 0 174:-0.713682 178:-0.736477 181:-1 182:-1 183:-1 186:-1 187:-0.680168 190:-1 
-0 -0 0 0 0 0 0 5 0 0 0 174:-0.523332 178:-0.222229 181:0.891303 182:-1 183:0.891303 186:-0.912923 187:-0.678475 190:-0.362503 
-0 -0 0 0 0 0 0 1.128061959691186 0 0 0 174:-0.711843 178:-0.642821 181:0.564684 182:-1 183:0.564684 186:-0.964354 187:-0.679476 190:-0.588174 
-0 -0 0 0 0 0 0 0 5 0 0 174:-0.63146 178:-0.583452 181:0.0817452 182:-1 183:0.0817452 186:-0.973417 187:-0.680186 190:-0.699738 
-0 -0 0 0 0 0 0 0 5 0 0 174:-0.566811 178:-0.512955 181:0.273267 182:-1 183:0.273267 186:-0.957994 187:-0.680075 190:-0.611989 
-0 -0 0 0 0 0 0 0 5 0 0 174:-0.170915 178:0.387058 181:0.859484 182:-1 183:0.859484 186:-0.298095 187:-0.692708 190:0.62784 
-0 -0 0 0 0 0 0 0 5 0 0 174:-0.0372561 178:0.0248517 181:0.950394 182:-1 183:0.950394 186:-0.282731 187:-0.685895 190:0.476198 
-0 -0 0 0 0 0 5 0 0 0 0 174:-0.481479 178:-0.267297 181:0.676328 182:-1 183:0.676328 186:-0.878905 187:-0.683077 190:-0.270699 
-0 -0 5 0 0 0 0 0 0 0 0 174:-0.720487 178:-0.504029 181:0.849288 182:-1 183:0.849288 186:-0.98451 187:-0.679897 190:-0.699411 
-0 -5 0 0 0 0 0 0 0 0 0 174:-0.390783 178:-0.284188 181:0.880116 182:-1 183:0.880116 186:-0.814726 187:-0.67854 190:-0.158112 
-0 -5 5 0 0 0 0 0 5 0 0 174:-0.310072 178:-0.253051 181:0.810294 182:-1 183:0.810294 186:-0.680172 187:-0.679045 190:0.0589536 
-0 -5 5 0 0 0 0 0 0 0 0 174:-0.544552 178:-0.489574 181:0.943628 182:-1 183:0.943628 186:-0.928593 187:-0.681213 190:-0.353011 
-0 -0 0 0 0 0 0 5 0 0 0 174:-0.53091 178:-0.648302 181:0.671636 182:-1 183:0.671636 186:-0.977831 187:-0.679842 190:-0.667942 
-0 -0 5 0 0 0.4766022034103444 0 3.356477537378029 5 0 5 174:-0.259333 178:-0.163048 181:0.770938 182:-1 183:0.770938 186:-0.670551 187:-0.68175 190:-0.00433396 
-0 -0 0 0.9561103833638387 0 0 0 0 5 0 5 174:-0.505426 178:-0.575932 181:-1 182:-1 183:-1 186:-1 187:-0.680168 190:-1 
-0 -0 5 0 0 0 0.8085100634611242 0 0 0 0 174:-0.278895 178:0.00277915 181:0.986446 182:-1 183:0.986446 186:-0.64945 187:-0.681723 190:0.24369 
-0 -0 0.4638086199615868 0.516779958981606 0 0 0 0 0 0 0 174:-0.652893 178:-0.410288 181:0.696186 182:-1 183:0.696186 186:-0.901919 187:-0.682578 190:-0.287558 
-0 -0 5 0 0 0 0 0 0 0 0 174:-0.497051 178:0.0330103 181:0.966549 182:-1 183:0.966549 186:-0.790617 187:-0.675678 190:0.0143461 
-0 -0 0 0 0 0 0 0 5 0 0 174:-0.665725 178:-0.340962 181:0.316481 182:-1 183:0.316481 186:-0.952218 187:-0.680041 190:-0.553169 
-0 -0 1.759966110779243 0 0 0 0 0 0 0 0 174:-0.795919 178:-0.400006 181:0.943888 182:-1 183:0.943888 186:-0.951664 187:-0.681978 190:-0.438429 
-0 -0 5 5 0 0 0 0 5 0 0 174:0.239011 178:0.369577 181:0.866759 182:-1 183:0.866759 186:-0.0432213 187:-0.682492 190:0.493474 
-0 -5 0 0 0 5 0 5 0 0 0 174:-0.123118 178:-0.29738 181:0.973698 182:-1 183:0.973698 186:-0.655551 187:-0.680636 190:0.129989 
-0 -5 0 0 0 0 0 0 0 0 0 174:-0.853585 178:-0.768779 181:-1 182:-1 183:-1 186:-1 187:-0.680168 190:-1 
-0 -0 5 3.374046089928475 0 5 0 0 5 0 5 174:0.408622 178:-0.133542 181:0.950699 182:-1 183:0.950699 186:0.538468 187:-0.673085 190:0.486241 
-0 -0 5 5 0 5 0 0 5 0 0 174:0.183963 178:-0.0878825 181:0.950194 182:-1 183:0.950194 186:0.0456267 187:-0.690823 190:0.572629 
-0 -0 0 0 0 0 0 0 5 0 0 174:0.00104151 178:0.188614 181:0.929888 182:-1 183:0.929888 186:-0.219987 187:-0.668939 190:0.547744 
-0 -0 0 0 0 0 0 0.3858359426275824 0 0 0 174:-0.728465 178:-0.627157 181:0.736514 182:-1 183:0.736514 186:-0.98643 187:-0.680143 190:-0.753974 
-0 -0 5 5 0 0 0 5 5 0 5 174:-0.510146 178:-0.282462 181:0.300383 182:-1 183:0.300383 186:-0.925916 187:-0.680718 190:-0.465632 
-0 -0 0 0.3779185730481759 0 0 0 0 0 0 0 174:-0.652066 178:-0.481027 181:0.84956 182:-1 183:0.84956 186:-0.932277 187:-0.680387 190:-0.443607 
-0 -0 0 0 0 0 0 0 5 0 0 174:-0.537869 178:-0.397091 181:0.222588 182:-1 183:0.222588 186:-0.947331 187:-0.688247 190:-0.538066 
-0 -0 0.1611905097472588 0 0 0 0 0 0 0 0 174:-0.647149 178:-0.695328 181:-1 182:-1 183:-1 186:-1 187:-0.680168 190:-1 
-0 -5 0 0 0 0 0 0 0 0 0 174:-0.298742 178:0.0992746 181:0.947431 182:-1 183:0.947431 186:-0.642183 187:-0.667206 190:0.278643 
-0 -0 5 0 0 0 0 0 5 0 0 174:0.0160255 178:0.0445005 181:0.950194 182:-1 183:0.950194 186:-0.186335 187:-0.69033 190:0.612793 
-0 -0 3.874980766259443 0 0 0 2.819362671762918 4.614164057372418 5 0 5 174:-0.523855 178:-0.479596 181:-0.262987 182:-1 183:-0.262987 186:-0.992865 187:-0.680389 190:-0.865408 
-0 -0 0 5 0 0 0 0 0 0 0 174:-0.619954 178:-0.189126 181:0.785075 182:-1 183:0.785075 186:-0.924015 187:-0.681483 190:-0.325127 
-0 -0 5 0 0 0 0 0 5 0 0 174:-0.623005 178:-0.246419 181:0.27474 182:-1 183:0.27474 186:-0.956309 187:-0.680296 190:-0.581052 
-0 -0 5 0 0 0 5 0 0 5 5 174:0.00536759 178:0.245406 181:0.969898 182:-1 183:0.969898 186:-0.140667 187:-0.680484 190:0.715977 
-0 -0 0 5 0 0 0 0 5 5 5 174:0.11455 178:0.101398 181:0.953915 182:-1 183:0.953915 186:-0.0716947 187:-0.671751 190:0.710533 
-0 -0 0 0 0 0 0 0 0 0 5 174:-0.511771 178:0.0525764 181:0.903451 182:-1 183:0.903451 186:-0.664434 187:-0.681154 190:0.326733 
-0 -0 5 0 0 0 0 0 0 0 0 174:-0.580977 178:-0.267463 181:0.816537 182:-1 183:0.816537 186:-0.940473 187:-0.680446 190:-0.44653 
-0 -0 5 5 0 0 5 0 5 0 5 174:-0.371456 178:-0.166937 181:0.641759 182:-1 183:0.641759 186:-0.81576 187:-0.679334 190:-0.144834 
-0 -0 0 0 0 0 0.3118818803931395 5 0 0 0.1418324019451423 174:-0.161986 178:0.191912 181:0.915407 182:-1 183:0.915407 186:-0.50569 187:-0.673702 190:0.334914 
-0 -0 5 5 0.9823319904823857 5 5 5 5 5 5 174:0.0259638 178:-0.0925468 181:0.6914 182:-1 183:0.6914 186:-0.290657 187:-0.682261 190:0.326789 
-0 -0 5 0 0 0 0 0 0 0 0 174:0.282008 178:0.42422 181:0.940731 182:-1 183:0.940731 186:0.198687 187:-0.681828 190:0.60945 
-0 -0 5 0 0 0 0 0 0 0 0 174:0.318795 178:0.155488 181:0.966482 182:-1 183:0.966482 186:0.253407 187:-0.682739 190:0.546213 
-0 -5 0 0 0 0 0 0 0 0 0 174:0.433705 178:0.380458 181:0.966414 182:-1 183:0.966414 186:0.389572 187:-0.679456 190:0.46209 
-5 -0 5 5 0 0 5 5 5 0 5 174:0.135008 178:-0.191503 181:0.895321 182:-1 183:0.895321 186:-0.161515 187:-0.69679 190:0.543169 
-0 -0 0 0 0 0 0 0 5 0 0 174:-0.322651 178:-0.0564516 181:0.854211 182:-1 183:0.854211 186:-0.565786 187:-0.671954 190:0.284539 
-0 -0 0 0 0 0 0 0 5 0 0 174:-0.431084 178:0.22794 181:0.827178 182:-1 183:0.827178 186:-0.567271 187:-0.652262 190:0.368924 
-0 -0 0 0 0 0 0 0 5 0 0 174:-0.526509 178:-0.305848 181:0.691327 182:-1 183:0.691327 186:-0.839095 187:-0.686115 190:-0.185 
-0 -0 0 0 0 0 0 0 5 0 0 174:-0.298218 178:0.122183 181:0.907313 182:-1 183:0.907313 186:-0.478747 187:-0.682415 190:0.413814 
-0 -0 5 0 0 0 0 0 0 0 0 174:-0.0590793 178:0.402174 181:0.963648 182:-1 183:0.963648 186:-0.256192 187:-0.676982 190:0.70645 
-0 -0 0 0 0 0 0 0 5 0 0 174:-0.168809 178:0.194428 181:0.929504 182:-1 183:0.929504 186:-0.354396 187:-0.678211 190:0.586331 
-0 -0 5 5 0 0 0 0 0 0 0 174:-0.171808 178:0.293454 181:0.983164 182:-1 183:0.983164 186:-0.353703 187:-0.6881 190:0.59643 
-0 -0 5 0 0 0 0 0 0 0 0 174:-0.336773 178:0.111238 181:0.950781 182:-1 183:0.950781 186:-0.601069 187:-0.681697 190:0.385959 
-0 -0 5 0 0 0 0 0 0 0 0 174:0.128195 178:0.18901 181:0.937634 182:-1 183:0.937634 186:-0.101893 187:-0.709829 190:0.661129 
-0 -0 5 0 0 0 0 0 0 0 0 174:0.0302785 178:0.448483 181:0.951531 182:-1 183:0.951531 186:-0.0977067 187:-0.678167 190:0.585262 
-0 -0 5 0 0 0 0 0 5 0 0 174:-0.991755 178:-0.993486 181:-1 182:-1 183:-1 186:-1 187:-0.680168 190:-1 
-0 -0 5 0 0 0 0 5 5 0 0 174:-0.990913 178:-0.99529 181:-1 182:-1 183:-1 186:-1 187:-0.680168 190:-1 
-0 -0 2.160181372288851 0 0 2.901869009165654 0 2.875281448632455 0 0.617444610448813 0 174:-0.988977 178:-0.998541 181:-1 182:-1 183:-1 186:-1 187:-0.680168 190:-1 
-0 -0 0 0 0 0 0 5 0 0 0 174:-0.353338 178:0.220006 181:0.989797 182:-1 183:0.989797 186:-0.638997 187:-0.680982 190:0.342939 
-0 -0 0 0 0 0 0 0 5 0 0 174:-0.700522 178:-0.570512 181:-1 182:-1 183:-1 186:-1 187:-0.680168 190:-1 
-0 -5 0 0 0 0 0 0 0 0 0 174:-0.741221 178:-0.723444 181:-1 182:-1 183:-1 186:-1 187:-0.680168 190:-1 
-0 -0 0 0 0 0 0 0.2444105056686697 0 0 0 174:-0.847817 178:-0.717728 181:-1 182:-1 183:-1 186:-1 187:-0.680168 190:-1 
-0 -0 5 0 0 0 0 0 0 0 0 174:-0.683669 178:-0.365519 181:0.70761 182:-1 183:0.70761 186:-0.979994 187:-0.679923 190:-0.673952 
-0 -0 0 0 0 0 0 5 0 0 0 174:-0.587326 178:-0.311678 181:0.890003 182:-1 183:0.890003 186:-0.936539 187:-0.678759 190:-0.447491 
-0 -0 0 0 0 0 0 0 5 0 1.671311647815646 174:-0.643494 178:-0.511135 181:-1 182:-1 183:-1 186:-1 187:-0.680168 190:-1 
-5 -0 0 0 0 0 0 0 0 0 0 174:-0.775963 178:-0.596968 181:-1 182:-1 183:-1 186:-1 187:-0.680168 190:-1 
-0 -0 5 0 0 0 0 0 0 0 0 174:-0.698017 178:-0.423 181:0.924771 182:-1 183:0.924771 186:-0.982714 187:-0.680038 190:-0.700964 
-0 -0 0 0 0 0 0 5 0 0 0 174:-0.45889 178:-0.490873 181:0.113882 182:-1 183:0.113882 186:-0.987619 187:-0.680245 190:-0.784237 
-0 -0 0 0 0 0 0 0 5 0 0 174:-0.530854 178:-0.699536 181:-1 182:-1 183:-1 186:-1 187:-0.680168 190:-1 
-0 -0 0 0 0 0 0 0 5 0 0 174:-0.557689 178:-0.70094 181:-1 182:-1 183:-1 186:-1 187:-0.680168 190:-1 
-0 -0 0 0 0 0 5 5 0 0 0 174:-0.501318 178:-0.325536 181:0.953618 182:-1 183:0.953618 186:-0.923304 187:-0.680412 190:-0.395671 
-0 -0 5 5 0 0 0 5 0 0 0.9069098508825767 174:-0.550948 178:-0.30938 181:0.967688 182:-1 183:0.967688 186:-0.95054 187:-0.680299 190:-0.53689 
-0 -0 0 0 0 0 0 5 0 0 0 174:-0.648228 178:-0.439802 181:0.754788 182:-1 183:0.754788 186:-0.983773 187:-0.680227 190:-0.709582 
-0 -0 0 5 0 0 0 0 0 0 5 174:-0.287313 178:0.0204169 181:0.960432 182:-1 183:0.960432 186:-0.580629 187:-0.678081 190:0.374243 
-0 -0 5 0 0 0 0 0 5 0 5 174:-0.149199 178:0.0613961 181:0.884344 182:-1 183:0.884344 186:-0.389065 187:-0.682974 190:0.484561 
-0 -0 0 0 0 0 0 0.4994565051818378 0 0 0 174:-0.608059 178:-0.328168 181:0.950966 182:-1 183:0.950966 186:-0.883527 187:-0.681348 190:-0.245362 
-0 -5 0 0 0 0 0 0 0 0 0 174:-0.469851 178:-0.100233 181:0.907076 182:-1 183:0.907076 186:-0.733107 187:-0.682227 190:0.0908533 
-0 -5 0 0 0 0 0 0 0 0 0 174:-0.532474 178:-0.340861 181:0.898622 182:-1 183:0.898622 186:-0.899665 187:-0.680758 190:-0.323536 
-0 -0 0 1.448238537079624 0 0 5 0 5 0 0.4492007362051691 174:-0.143294 178:0.0945463 181:0.90424 182:-1 183:0.90424 186:-0.259337 187:-0.675159 190:0.598999 
-0 -0 0 0 0 0 0 0 5 0 0.6854034125662942 174:0.185431 178:0.328324 181:0.899755 182:-1 183:0.899755 186:0.0278328 187:-0.650669 190:0.617171 
-0 -0 0.4995476514461539 0 0 0 0 0 5 0 0 174:0.253178 178:0.128718 181:0.935048 182:-1 183:0.935048 186:0.144376 187:-0.682136 190:0.435062 
-0 -5 0 0 0 0 0 0 0 0 0 174:0.369877 178:0.34187 181:0.964768 182:-1 183:0.964768 186:0.329172 187:-0.680989 190:0.428909 
-0 -5 0 0 0 0 0 0 0 0 0 174:-0.32411 178:0.0249807 181:0.910807 182:-1 183:0.910807 186:-0.637429 187:-0.676247 190:0.266931 
-0 -0 0 5 0 0 0 0 0 0 0 174:0.00935251 178:0.348903 181:0.932398 182:-1 183:0.932398 186:-0.131897 187:-0.683191 190:0.56249 
-0 -0 0 5 0 0 0 0 0 0 0 174:-0.619018 178:-0.00635608 181:0.960245 182:-1 183:0.960245 186:-0.792459 187:-0.682068 190:0.0629748 
-0 -0 0 5 0 0 0 0 0 0 0 174:-0.530746 178:-0.168596 181:0.963199 182:-1 183:0.963199 186:-0.817951 187:-0.682353 190:-0.0341964 
-0 -0 5 0 0 0 2.482906417364545 2.168395416249363 0 0 0 174:-0.782384 178:-0.527097 181:0.956893 182:-1 183:0.956893 186:-0.982066 187:-0.680405 190:-0.698569 
-0 -0 0 0 0 0 0 0 5 0 0 174:-0.11101 178:0.33108 181:0.89754 182:-1 183:0.89754 186:-0.292792 187:-0.694185 190:0.543599 
-0 -5 0 0 0 0 0 0 0 0 0 174:-0.404809 178:0.214362 181:0.950197 182:-1 183:0.950197 186:-0.575456 187:-0.678838 190:0.381248 
-0 -0 0 5 0 0.9196276950693855 0 0 0 0 0 174:0.224308 178:0.398975 181:0.976464 182:-1 183:0.976464 186:0.124396 187:-0.676539 190:0.593926 
-0 -0 0 5 0 0 0 0 0 0 0 174:0.384783 178:0.31382 181:0.966549 182:-1 183:0.966549 186:0.247902 187:-0.669104 190:0.554298 
-0 -0 5 0 0 0 0 0 0 0 0 174:0.229777 178:0.403645 181:0.973698 182:-1 183:0.973698 186:0.168274 187:-0.681185 190:0.588908 
-0 -0 5 0 0 0 0 0 0 0 0 174:0.216288 178:0.503516 181:0.939142 182:-1 183:0.939142 186:0.122338 187:-0.678364 190:0.626857 
-0 -0 0 0.502187930053144 0 0 0 0 0 0 0 174:-0.635181 178:-0.214904 181:0.969898 182:-1 183:0.969898 186:-0.864385 187:-0.68193 190:-0.189178 
-0 -0 0 0 0 0 0 0 5 0 0 174:-0.0689741 178:0.187578 181:0.924889 182:-1 183:0.924889 186:-0.201697 187:-0.680367 190:0.611915 
-0 -0 5 0 0 0 0 0 0 0 0 174:-0.618157 178:-0.240282 181:0.940353 182:-1 183:0.940353 186:-0.914316 187:-0.681447 190:-0.289941 
-0 -5 5 0.8014271990365158 0 0 0 5 5 0 0 174:-0.420613 178:-0.368829 181:0.62126 182:-1 183:0.62126 186:-0.862171 187:-0.680838 190:-0.271627 
-0 -0 0 4.497812069946856 0 0 0 5 0 0 0 174:-0.66281 178:-0.380764 181:0.0493943 182:-1 183:0.0493943 186:-0.992481 187:-0.680097 190:-0.835068 
-0 -0 5 0 0 0 0 0 0 0 3.004421245859112 174:-0.341706 178:0.605176 181:0.917231 182:-1 183:0.917231 186:-0.448326 187:-0.667974 190:0.596415 
-0 -0 5 0 0 0 0 0 5 0 0 174:-0.221858 178:0.0720506 181:0.887872 182:-1 183:0.887872 186:-0.435213 187:-0.673633 190:0.408418 
-0 -0 0 0 0 0 0 0 5 0 0 174:-0.545803 178:-0.564534 181:-1 182:-1 183:-1 186:-1 187:-0.680168 190:-1 
-0 -5 0 0 0 0 0 0 0 0 0 174:-0.358605 178:0.323209 181:0.932398 182:-1 183:0.932398 186:-0.595968 187:-0.679776 190:0.36308 
-0 -5 0 0 0 0 0 0 0 0 0 174:-0.545469 178:-0.323897 181:0.898403 182:-1 183:0.898403 186:-0.911304 187:-0.680836 190:-0.352089 
-0 -0 5 0 0 0.3683663673982361 0 0 0 0 0 174:0.390588 178:0.478639 181:0.989797 182:-1 183:0.989797 186:0.411062 187:-0.677262 190:0.444913 
-0 -5 0 0 0 0 0 0 0 0 0 174:0.492216 178:0.265382 181:0.963526 182:-1 183:0.963526 186:0.519093 187:-0.681578 190:0.340359 
-0 -0 5 0 0 0 0 0 0 0 0 174:-0.129065 178:0.187175 181:0.953936 182:-1 183:0.953936 186:-0.315049 187:-0.678425 190:0.610486 
-0 -5 0 0 0 0 0 0 0 0 0 174:-0.506959 178:0.262418 181:0.911765 182:-1 183:0.911765 186:-0.620944 187:-0.677334 190:0.360871 
-0 -0 5 0 0 0 0 0 0 0 0 174:-0.282313 178:0.295912 181:0.989797 182:-1 183:0.989797 186:-0.420268 187:-0.681251 190:0.576811 
-0 -0 0 5 0 0 0 0 0 0 5 174:-0.402963 178:-0.394544 181:0.782551 182:-1 183:0.782551 186:-0.826745 187:-0.674526 190:-0.0532763 
-0 -0 5 0 0 0 0 0 0 0 0 174:-0.556022 178:-0.692988 181:0.829539 182:-1 183:0.829539 186:-0.982534 187:-0.679638 190:-0.695262 
-0 -0 0 0 0 0 0 5 2.838643900806372 0 0 174:-0.516539 178:-0.798835 181:-1 182:-1 183:-1 186:-1 187:-0.680168 190:-1 
-0 -0 5 0 0 0 3.359203702609923 0.3533335037824196 0 0 0 174:0.0475455 178:0.378577 181:0.976397 182:-1 183:0.976397 186:-0.0802671 187:-0.702857 190:0.64206 
-0 -5 0 0 0 0 0 0 0 0 0 174:-0.849617 178:-0.777824 181:-1 182:-1 183:-1 186:-1 187:-0.680168 190:-1 
-0 -5 0 0 0 0 0 0 0 0 0 174:-0.503916 178:-0.388178 181:0.914175 182:-1 183:0.914175 186:-0.910143 187:-0.679837 190:-0.370528 
-0 -0 5 5 0 0 0 0.8872585138281956 0 0 0 174:-0.83692 178:-0.536081 181:-1 182:-1 183:-1 186:-1 187:-0.680168 190:-1 
-0 -0 0 0 0 0 0 5 0 0 0 174:-0.19487 178:-0.219628 181:0.930883 182:-1 183:0.930883 186:-0.579048 187:-0.679942 190:0.167133 
-0 -0 5 1.495263596607994 0 0.5174404099799415 0 0 0 0 0 174:0.00106691 178:0.378329 181:0.971512 182:-1 183:0.971512 186:-0.0266885 187:-0.68077 190:0.712717 
-0 -0 0.7914322466830603 0 0 0 0 0 0 0 0 174:-0.602597 178:-0.473045 181:0.752668 182:-1 183:0.752668 186:-0.932724 187:-0.681555 190:-0.38644 
-0 -0 5 0 0 0 0 0 0 0 5 174:-0.537278 178:-0.388924 181:0.969697 182:-1 183:0.969697 186:-0.943112 187:-0.680784 190:-0.443589 
-0 -0 0 0 0 0 0 0 5 0 0 174:0.135672 178:0.492726 181:0.908682 182:-1 183:0.908682 186:0.0176653 187:-0.662962 190:0.617918 
-0 -0 5 0 0 0 0 5 0 0 0 174:-0.335135 178:-0.0877031 181:0.957048 182:-1 183:0.957048 186:-0.637314 187:-0.673812 190:0.298123 
-0 -5 0 0 0 0 0 0 0 0 0 174:-0.43681 178:-0.105805 181:0.851634 182:-1 183:0.851634 186:-0.73485 187:-0.689273 190:0.0531466 
-0 -0 0 0 0 0 0 0 5 0 0 174:-0.302472 178:0.172507 181:0.890944 182:-1 183:0.890944 186:-0.503802 187:-0.683686 190:0.424396 
-0 -0 5 0 0 0 0 0 0 0 0 174:-0.184665 178:0.266353 181:0.957551 182:-1 183:0.957551 186:-0.304861 187:-0.69009 190:0.635656 
-0 -0 5 0 0 0 1.083458640961601 0 0 0 0 174:0.0984801 178:0.242454 181:0.961055 182:-1 183:0.961055 186:-0.0146556 187:-0.678466 190:0.542215 
-0 -4.03122697124518 0 5 0 0 0 0 0 1.325980722562851 0 174:0.566187 178:0.0902732 181:0.979946 182:-1 183:0.979946 186:0.544754 187:-0.672247 190:0.152461 
-0 -0 0 0 0 0 0 0 5 0 0 174:-0.355154 178:-0.00985274 181:0.88699 182:-1 183:0.88699 186:-0.595781 187:-0.679199 190:0.280185 
-0 -0 0 0 0 0 0 5 0 0 0 174:-0.773121 178:-0.503231 181:0.826615 182:-1 183:0.826615 186:-0.979309 187:-0.680347 190:-0.686582 
-0 -5 0 0 0 0 0 0 0 0 0 174:-0.418296 178:-0.294828 181:0.876444 182:-1 183:0.876444 186:-0.822514 187:-0.679991 190:-0.153825 
-0 -0 5 0 0 0 0 5 0 0 0 174:-0.895137 178:-0.630691 181:-1 182:-1 183:-1 186:-1 187:-0.680168 190:-1 
-0 -0 0.8317619231680473 0 0 0.9083321622402699 0 0.4771013570301761 5 0 5 174:-0.686287 178:-0.454204 181:-1 182:-1 183:-1 186:-1 187:-0.680168 190:-1 
-5 -0 0 0 0 0 0 0 0 0 0 174:-0.856575 178:-0.57334 181:-1 182:-1 183:-1 186:-1 187:-0.680168 190:-1 
-0 -5 0 0 0 0 0 0 0 0 0 174:-0.869755 178:-0.647629 181:-1 182:-1 183:-1 186:-1 187:-0.680168 190:-1 
-0 -0 5 0 0 0 0 0 0 0 0 174:-0.472563 178:0.029983 181:0.928239 182:-1 183:0.928239 186:-0.799931 187:-0.680218 190:0.00471423 
-0 -0 5 0 0 0 0 0 0 0 0 174:-0.235638 178:-0.118761 181:0.940913 182:-1 183:0.940913 186:-0.644367 187:-0.685363 190:0.208275 
-0 -0 5 0 0 0 0 0 0 0 0 174:0.40587 178:0.213094 181:0.950781 182:-1 183:0.950781 186:0.371859 187:-0.681415 190:0.378445 
-0 -5 0 0 0 0 0 0 0 0 0 174:-0.0675742 178:0.317444 181:0.960113 182:-1 183:0.960113 186:-0.277614 187:-0.679911 190:0.574437 
-0 -0 5 5 0 0 2.353172790193347 0 0 5 2.696737667171188 174:0.617648 178:0.0899459 181:0.989797 182:-1 183:0.989797 186:0.564112 187:-0.679363 190:0.176988 
-0 -5 0 0 0 0 0 0 0 0 0 174:0.475982 178:0.362484 181:0.937255 182:-1 183:0.937255 186:0.469354 187:-0.6798 190:0.333807 
-0 -5 0 0 0 0 0 0 0 0 0 174:0.540811 178:0.185048 181:0.963266 182:-1 183:0.963266 186:0.487903 187:-0.678886 190:0.290564 
-0 -0 5 5 0 0 5 0 5 5 5 174:-0.323958 178:-0.0749162 181:0.662753 182:-1 183:0.662753 186:-0.616853 187:-0.645584 190:0.178928 
-0 -0 3.027178024724194 0 4.450681980195365 0 0 0 0 0 0 174:-0.501426 178:0.517164 181:0.928283 182:-1 183:0.928283 186:-0.5654 187:-0.698569 190:0.475236 
-0 -5 0 0 0 0 0 0 0 0 0 174:-0.855673 178:-0.68503 181:-1 182:-1 183:-1 186:-1 187:-0.680168 190:-1 
-0 -5 5 0 0 0 0 2.616650881787673 0 0 0 174:-0.469656 178:0.330205 181:0.884626 182:-1 183:0.884626 186:-0.678236 187:-0.685725 190:0.300579 
-0 -0 0 0 0 0 0 0 0 0 5 174:-0.718411 178:-0.288636 181:0.956631 182:-1 183:0.956631 186:-0.913185 187:-0.680044 190:-0.317486 
-0 -0 0 0 0 0 0 0 5 0 0.809263741367053 174:0.106626 178:-0.240514 181:0.956566 182:-1 183:0.956566 186:-0.0588572 187:-0.68524 190:0.445696 
-0 -0 5 5 0 5 5 5 5 5 5 174:-0.1694 178:-0.00641112 181:0.71998 182:-1 183:0.71998 186:-0.603327 187:-0.647575 190:0.203656 
-0 -0 0 0 0 0 0 0 5 0 0 174:-0.709128 178:-0.552073 181:-1 182:-1 183:-1 186:-1 187:-0.680168 190:-1 
-0 -0 5 5 0 0 0 0 5 0 5 174:0.21766 178:-0.232194 181:0.941452 182:-1 183:0.941452 186:0.207911 187:-0.680209 190:0.515978 
-0 -0 5 5 0 0.3595696377106757 0 0 0 0 0 174:0.116824 178:0.0623626 181:0.989797 182:-1 183:0.989797 186:0.12892 187:-0.676014 190:0.58527 
-0 -0 0 5 0 2.823767811044564 0 0 5 0 0.6261866263923728 174:0.187799 178:-0.0986222 181:0.950645 182:-1 183:0.950645 186:0.165018 187:-0.675442 190:0.474714 
-0 -0 1.197154895575557 0 0 0 0 1.101593952968106 5 0 0 174:-0.114997 178:-0.12779 181:0.953737 182:-1 183:0.953737 186:-0.340816 187:-0.690229 190:0.373733 
-0 -0 0 0 0 0 0 0 5 0 0 174:0.043194 178:-0.102556 181:0.915977 182:-1 183:0.915977 186:-0.15506 187:-0.683836 190:0.450217 
-0 -0 0 3.504736403392006 0 0 0 0 5 5 5 174:0.341838 178:-0.490111 181:0.929919 182:-1 183:0.929919 186:0.466693 187:-0.67694 190:0.249382 
-0 -0 0 0 0 0 0 0 5 0 0 174:-0.687288 178:-0.535886 181:-1 182:-1 183:-1 186:-1 187:-0.680168 190:-1 
-0 -0 0 0 0 0 0 0 5 0 0 174:-0.641056 178:-0.466251 181:0.232941 182:-1 183:0.232941 186:-0.965826 187:-0.681089 190:-0.629681 
-0 -5 0 0 0 0 0 0 0 0 0 174:-0.432563 178:-0.2222 181:0.868565 182:-1 183:0.868565 186:-0.830532 187:-0.670657 190:-0.137985 
-0 -0 5 5 0 0 0 0 0 0 5 174:-0.571259 178:-0.25807 181:0.872533 182:-1 183:0.872533 186:-0.859439 187:-0.685978 190:-0.0441259 
-0 -0 5 5 0 0 0 0 5 0 0 174:-0.324835 178:-0.166441 181:0.780201 182:-1 183:0.780201 186:-0.771557 187:-0.684248 190:0.00447612 
-0 -0 5 5 0 0 5 0 0 0 5 174:-0.302859 178:-0.442145 181:0.688759 182:-1 183:0.688759 186:-0.893333 187:-0.680352 190:-0.319536 
-0 -0 0 0 0 0 0 5 0 0 0 174:-0.713165 178:-0.496756 181:-0.292576 182:-1 183:-0.292576 186:-0.9947 187:-0.680234 190:-0.886387 
-0 -0 0 5 0 0 0 0 3.955724410642897 0 0 174:-0.721228 178:-0.38652 181:0.0515877 182:-1 183:0.0515877 186:-0.981788 187:-0.681077 190:-0.744559 
-0 -0 4.408913189057465 0 0 0 0.2944688106602962 2.039593108052095 0 0 0 174:-0.589994 178:-0.271756 181:0.468712 182:-1 183:0.468712 186:-0.955632 187:-0.680914 190:-0.605574 
-0 -0 0 0 0 0 0 0 5 0 0 174:-0.621928 178:-0.555008 181:-1 182:-1 183:-1 186:-1 187:-0.680168 190:-1 
-0 -5 0 0 0 0 0 0 0 0 0 174:-0.969376 178:-0.908926 181:-1 182:-1 183:-1 186:-1 187:-0.680168 190:-1 
-0 -0 0 1.724429390084238 0 0 0 0 0 0 0 174:-0.0502219 178:0.72826 181:0.934682 182:-1 183:0.934682 186:-0.166539 187:-0.666715 190:0.727359 
-0 -0 0 0 0 0 0 0 5 0 0 174:-0.528198 178:-0.651364 181:-1 182:-1 183:-1 186:-1 187:-0.680168 190:-1 
-0 -0 5 0 0 0 0 0 0 0 0 174:0.506926 178:0.21812 181:0.989797 182:-1 183:0.989797 186:0.513257 187:-0.681202 190:0.361049 
-5 -5 5 5 0 5 5 0 0 0 3.721292887483811 174:0.329847 178:0.436426 181:0.973698 182:-1 183:0.973698 186:0.268111 187:-0.677994 190:0.591695 
-0 -5 0 0 0 0 0 0 5 0 0 174:-0.244367 178:0.154442 181:0.886725 182:-1 183:0.886725 186:-0.45878 187:-0.67754 190:0.374014 
-0 -5 0 0 0 0 0 0 5 0 0 174:0.532398 178:0.165245 181:0.944898 182:-1 183:0.944898 186:0.459394 187:-0.68159 190:0.300709 
-0 -5 0 0 0 0 0 0 0 0 0 174:-0.302195 178:-0.12629 181:0.911765 182:-1 183:0.911765 186:-0.67112 187:-0.681806 190:0.183178 
-0 -0 0 5 0 0 0 0 0 0 0 174:-0.365748 178:0.0965503 181:0.966681 182:-1 183:0.966681 186:-0.635552 187:-0.674884 190:0.349443 
-0 -0 0 0 0.7385220119601236 0 3.70570554326152 5 0 0 5 174:-0.840939 178:-0.381428 181:0.957148 182:-1 183:0.957148 186:-0.930043 187:-0.679155 190:-0.367425 
-0 -0 5 0 0 0 0 0 0 0 0 174:-0.434514 178:0.0901808 181:0.989797 182:-1 183:0.989797 186:-0.652273 187:-0.687853 190:0.239266 
-0 -5 0 0 0 0 0 0 0 0 0 174:-0.792071 178:-0.61711 181:-1 182:-1 183:-1 186:-1 187:-0.680168 190:-1 
-0 -0 5 0 0 0 0 0 0 0 0 174:0.0119042 178:0.558418 181:0.973114 182:-1 183:0.973114 186:-0.125344 187:-0.673102 190:0.731027 
-0 -0 0 0 0 0 0 0 5 0 0 174:-0.386246 178:-0.491054 181:0.269133 182:-1 183:0.269133 186:-0.947038 187:-0.680191 190:-0.548006 
-0 -0 0 0 0 0 0 0 3.393362295720316 0 0 174:-0.708634 178:-0.57993 181:-1 182:-1 183:-1 186:-1 187:-0.680168 190:-1 
-0 -5 0 0 0 0 0 0 0 0 0 174:-0.842024 178:-0.840532 181:-1 182:-1 183:-1 186:-1 187:-0.680168 190:-1 
-0 -0 0 0 0 0 0 0 5 0 0 174:-0.642333 178:-0.565733 181:-1 182:-1 183:-1 186:-1 187:-0.680168 190:-1 
-0 -0 0 0 0 0 0 0 5 0 0 174:-0.125588 178:0.265946 181:0.918334 182:-1 183:0.918334 186:-0.32001 187:-0.680029 190:0.570233 
-0 -0 5 0 0 0 0 5 0 0 0 174:-0.289813 178:-0.306066 181:0.786098 182:-1 183:0.786098 186:-0.850948 187:-0.680308 190:-0.247792 
-0 -0 5 0 0 0 0 0 0 0 0 174:-0.748977 178:-0.581866 181:0.326531 182:-1 183:0.326531 186:-0.99259 187:-0.680248 190:-0.81587 
-0 -0 0 0 0 0 0 0 5 0 0 174:-0.656297 178:-0.574395 181:-1 182:-1 183:-1 186:-1 187:-0.680168 190:-1 
-0 -0 0 0 0 0 0 0 5 0 0 174:-0.590239 178:-0.50816 181:0.255173 182:-1 183:0.255173 186:-0.951683 187:-0.679153 190:-0.561865 
-0 -0 5 0 0 0 0 0 0 0 0 174:-0.627651 178:-0.343366 181:0.887432 182:-1 183:0.887432 186:-0.943739 187:-0.680484 190:-0.451854 
-0 -0 3.182324261592129 0 0 0 0 0 0 0 0 174:-0.942638 178:-0.718918 181:0.323181 182:-1 183:0.323181 186:-0.990297 187:-0.680024 190:-0.789757 
-0 -0 0 0.9902129007882334 0 0 0 0 0 0 0 174:-0.782503 178:-0.31899 181:0.930883 182:-1 183:0.930883 186:-0.900042 187:-0.680098 190:-0.283843 
-0 -5 0 0 0 0 0 0 0 0 0 174:-0.202399 178:0.294805 181:0.940544 182:-1 183:0.940544 186:-0.42157 187:-0.673394 190:0.48037 
-0 -5 0 0 0 0 0 5 0 0 0 174:-0.345558 178:-0.0915466 181:0.943565 182:-1 183:0.943565 186:-0.655659 187:-0.681197 190:0.155259 
-0 -0 5 0 0 0 0 0 0 0 0 174:-0.567814 178:-0.393988 181:0.607143 182:-1 183:0.607143 186:-0.964837 187:-0.680277 190:-0.63188 
-0 -0 0 1.137787739063901 0 0 0 0 0 0 0 174:-0.613025 178:-0.274663 181:0.557042 182:-1 183:0.557042 186:-0.923315 187:-0.678898 190:-0.405197 
-0 -0 5 0 0 1.726607152167864 0 5 0 0 0 174:0.229834 178:0.682388 181:0.983164 182:-1 183:0.983164 186:0.310338 187:-0.68079 190:0.462702 
-0 -5 0 0 0 0 0 0 0 0 0 174:0.258508 178:0.258325 181:0.9538 182:-1 183:0.9538 186:0.189738 187:-0.677708 190:0.475909 
-0 -0 5 5 1.386977121500645 5 3.841483664385597 0 0 0 0 174:0.27341 178:0.720805 181:0.979747 182:-1 183:0.979747 186:0.3498 187:-0.678281 190:0.451297 
-0 -0 5 0.7197859516793474 0 0 0 0 5 0 0 174:0.366055 178:0.196272 181:0.928495 182:-1 183:0.928495 186:0.424903 187:-0.682301 190:0.260914 
-0 -0 1.16298361306836 5 0 0 0 0 5 0 0 174:0.447316 178:0.415806 181:0.917231 182:-1 183:0.917231 186:0.320109 187:-0.663819 190:0.255949 
-0 -0 0 5 0 0 0 0 5 0 5 174:0.256498 178:-0.0396625 181:0.882791 182:-1 183:0.882791 186:0.0767803 187:-0.67969 190:0.432108 
-0 -0 0 5 0 0 0 0 0 0 0 174:-0.0768579 178:0.808022 181:0.9538 182:-1 183:0.9538 186:-0.0408388 187:-0.687461 190:0.5017 
-0 -0 0.8254977396814189 2.334346593557114 0 1.917609702897541 0 0 5 0 3.547696742103468 174:0.317905 178:-0.0569511 181:0.957083 182:-1 183:0.957083 186:0.388978 187:-0.678491 190:0.245321 
-5 -4.314964862266176 0 5 0 0 0 0 0 0 0 174:-0.00841667 178:0.783888 181:0.923958 182:-1 183:0.923958 186:0.0358685 187:-0.681867 190:0.499843 
-0 -0 0 0 0 0 0 1.287445849688149 0 0 0 174:-0.394506 178:0.417758 181:0.966614 182:-1 183:0.966614 186:-0.604994 187:-0.674677 190:0.410716 
-0 -0 5 0 0 0 5 0 0 0 0 174:-0.510615 178:-0.129811 181:0.973698 182:-1 183:0.973698 186:-0.836296 187:-0.677208 190:-0.084124 
-0 -5 0 0 0 0 0 0 0 0 0 174:-0.38313 178:-0.0662195 181:0.934008 182:-1 183:0.934008 186:-0.630401 187:-0.687967 190:0.282277 
-0 -5 0 0 0 0 0 0 0 0 0 174:0.3043 178:0.271021 181:0.963266 182:-1 183:0.963266 186:0.204368 187:-0.681215 190:0.549076 
-0 -0 4.720869580278389 3.906230102242278 0 0 0 5 0 0 0 174:-0.900489 178:-0.657408 181:0.812335 182:-1 183:0.812335 186:-0.988664 187:-0.680446 190:-0.755773 
-0 -0 5 0 0 0 5 0 0 0 0 174:-0.488623 178:-0.0260085 181:0.989797 182:-1 183:0.989797 186:-0.71305 187:-0.682729 190:0.145743 
-0 -0 0 0 0 0 0 0 5 0 0 174:0.0486436 178:0.122006 181:0.922976 182:-1 183:0.922976 186:-0.189395 187:-0.690863 190:0.578785 
-0 -0 5 0 0 0 0 0 5 0 0 174:-0.476689 178:-0.125925 181:0.700829 182:-1 183:0.700829 186:-0.824938 187:-0.678754 190:-0.178635 
-5 -0 0 0 0 0 0 0 0 0 0 174:-0.960689 178:-0.945775 181:-1 182:-1 183:-1 186:-1 187:-0.680168 190:-1 
-0 -0 3.240033889220757 0 0 0 5 2.831604583750637 0 0 0 174:-0.817071 178:-0.505141 181:-1 182:-1 183:-1 186:-1 187:-0.680168 190:-1 
-0 -0 0 0 0 0 0 0 0 0 0.2383427858645049 174:-0.406266 178:-0.212296 181:0.912515 182:-1 183:0.912515 186:-0.866858 187:-0.679523 190:-0.217832 
-0 -0 0 0 0 0 5 0 0 0 0 174:-0.671055 178:-0.290978 181:0.3504 182:-1 183:0.3504 186:-0.968355 187:-0.678772 190:-0.651729 
-0 -0 0 0 0 0 0 0 5 0 0 174:-0.602144 178:-0.400295 181:0.239228 182:-1 183:0.239228 186:-0.968945 187:-0.679412 190:-0.656785 
-0 -0 0 0 0 0 0 0 0 0 5 174:-0.160385 178:0.0686274 181:0.976531 182:-1 183:0.976531 186:-0.474105 187:-0.678467 190:0.480379 
-0 -0 2.839818627711149 5 5 5 5 5 5 1.58082542656763 5 174:-0.420135 178:-0.590192 181:-1 182:-1 183:-1 186:-1 187:-0.680168 190:-1 
-0 -0 0 0 0 0 5 5 0 0 0 174:-0.137026 178:0.258798 181:0.950735 182:-1 183:0.950735 186:-0.475197 187:-0.684168 190:0.514558 
-0 -0 3.41221953386871 0 0 0 0 0 0 0 0.6424498754529245 174:-0.622256 178:-0.625835 181:0.966482 182:-1 183:0.966482 186:-0.985105 187:-0.680397 190:-0.70848 
-0 -0 5 4.176665659958902 0 0 0 0 0 0 0 174:-0.426968 178:-0.514844 181:0.778213 182:-1 183:0.778213 186:-0.976422 187:-0.680181 190:-0.696417 
-0 -0 5 2.843368779434787 0 0 5 5 0 0 0 174:-0.153571 178:0.133653 181:0.963463 182:-1 183:0.963463 186:-0.592698 187:-0.675667 190:0.391582 
-0 -0 5 0 0 0 0 5 0 0 0 174:-0.264211 178:-0.446024 181:0.850509 182:-1 183:0.850509 186:-0.893139 187:-0.67966 190:-0.307523 
-0 -0 5 0 0 0 0 0 0 0 0 174:0.0936089 178:0.228687 181:0.957153 182:-1 183:0.957153 186:-0.139515 187:-0.679194 190:0.60089 
-0 -0 0 0 0 0 0 5 0 0 0 174:-0.326171 178:0.170632 181:0.979946 182:-1 183:0.979946 186:-0.503455 187:-0.6815 190:0.432701 
-0 -0 0 0 0 0 0 0 5 0 0 174:-0.193833 178:0.335789 181:0.905048 182:-1 183:0.905048 186:-0.360918 187:-0.666849 190:0.557644 
-0 -5 0 0 0 0 0 0 5 0 0 174:0.108449 178:0.117074 181:0.946782 182:-1 183:0.946782 186:-0.0848963 187:-0.678279 190:0.583667 
-0 -0 0 5 0 0 0 0 5 0 0.7466640009789518 174:-0.0117205 178:-0.116648 181:0.909126 182:-1 183:0.909126 186:-0.285464 187:-0.678277 190:0.388355 
-0 -5 0 0 0 0 0 0 0 0 0 174:-0.709006 178:-0.344944 181:0.73602 182:-1 183:0.73602 186:-0.955201 187:-0.681244 190:-0.555399 
-0 -0 0 3.483972343901375 0 0 0 0 0 0 0 174:-0.727006 178:-0.0562918 181:0.782154 182:-1 183:0.782154 186:-0.90092 187:-0.678521 190:-0.223597 
-0 -0 5 5 0 0 0 0 0 5 5 174:-0.0197249 178:0.0660067 181:0.966414 182:-1 183:0.966414 186:-0.0316514 187:-0.710999 190:0.745388 
-0 -0 5 0 0 0 0 0 5 0 0 174:-0.316953 178:-0.0125912 181:0.852834 182:-1 183:0.852834 186:-0.593383 187:-0.679538 190:0.327967 
-0 -0 0 0 0 0 0 0 5 0 0 174:-0.697994 178:-0.539355 181:-1 182:-1 183:-1 186:-1 187:-0.680168 190:-1 
-0 -0 0 0 0 0 0 0 5 0 0 174:-0.0791977 178:0.303544 181:0.923551 182:-1 183:0.923551 186:-0.192704 187:-0.680307 190:0.608503 
-0 -0 5 5 0 0 0 5 5 0 5 174:0.281105 178:0.0285572 181:0.888344 182:-1 183:0.888344 186:0.175152 187:-0.683776 190:0.416407 
-0 -0 0 0 0 0 0 1.428550536591086 5 0 0 174:0.0240744 178:-0.164395 181:0.989797 182:-1 183:0.989797 186:-0.150934 187:-0.681568 190:0.375592 
-0 -0 5 0 0 0 0 0 5 0 0 174:-0.109876 178:-0.156044 181:0.909715 182:-1 183:0.909715 186:-0.357662 187:-0.680306 190:0.298508 
-0 -0 5 0 0 0 0 0 0 0 0 174:-0.488065 178:0.231397 181:0.925622 182:-1 183:0.925622 186:-0.602799 187:-0.686615 190:0.420408 
-0 -0 0.4624388038942498 5 0 1.301254967367591 0 5 5 0 5 174:0.0129925 178:-0.241254 181:0.845325 182:-1 183:0.845325 186:-0.192734 187:-0.682316 190:0.341907 
-0 -5 0 0 0 0 0 0 5 0 0 174:-0.399534 178:0.148869 181:0.851737 182:-1 183:0.851737 186:-0.616109 187:-0.689195 190:0.352393 
-0 -0 5 0 0 0 0 5 0 0 0 174:-0.109212 178:0.205062 181:0.976791 182:-1 183:0.976791 186:-0.29024 187:-0.681106 190:0.595945 
-0 -5 5 0 0 0 0 0 5 0 0 174:-0.0439121 178:0.0276641 181:0.906996 182:-1 183:0.906996 186:-0.256974 187:-0.683335 190:0.459149 
-5 -0 0 0 0 0 0 0 0 0 0 174:-0.227223 178:0.26104 181:0.925261 182:-1 183:0.925261 186:-0.381124 187:-0.679029 190:0.580953 
-0 -0 5 0 0 0 0 0 0 0 0 174:0.388058 178:0.328128 181:0.989797 182:-1 183:0.989797 186:0.328233 187:-0.680632 190:0.484276 
-0 -0 0 0 0 0 0 5 0 0 0 174:0.135429 178:0.322067 181:0.983164 182:-1 183:0.983164 186:0.026051 187:-0.684439 190:0.574236 
-0 -0 0 0 0 0 0 0 5 0 0 174:-0.715254 178:-0.56228 181:0.154716 182:-1 183:0.154716 186:-0.963547 187:-0.678131 190:-0.631356 
-0 -0 5 5 0 0 5 5 5 0 5 174:-0.350456 178:-0.272184 181:0.732252 182:-1 183:0.732252 186:-0.696332 187:-0.717607 190:0.056664 
-0 -0 4.471157681012787 5 0 0 0 0 5 0 0 174:-0.411206 178:-0.15495 181:0.720767 182:-1 183:0.720767 186:-0.749187 187:-0.683946 190:-0.0330804 
-5 -0 0 0 0 0 0 0 0 0 0 174:-0.455682 178:-0.150925 181:0.931633 182:-1 183:0.931633 186:-0.713554 187:-0.684345 190:0.120764 
-0 -0 0 0 0 0 1.434081746644096 5 0 0 0 174:0.0985111 178:0.44469 181:0.973181 182:-1 183:0.973181 186:0.0343442 187:-0.674192 190:0.54315 
-0 -0 0 5 0 0 0 0 0 0 0 174:0.113723 178:0.386185 181:0.979946 182:-1 183:0.979946 186:0.0171701 187:-0.678731 190:0.628281 
-0 -0 2.5792017276748 5 0.4872801266783583 5 0 0 5 0 5 174:-0.738154 178:-0.029443 181:0.413258 182:-1 183:0.413258 186:-0.869597 187:-0.679941 190:-0.275038 
-0 -0 5 0 0 0 0 0 5 0 5 174:-0.283032 178:-0.0901368 181:0.760835 182:-1 183:0.760835 186:-0.712044 187:-0.663646 190:0.0775928 
-0 -0 5 0 0 0 0 0 0 0 0 174:-0.705396 178:-0.238077 181:0.757699 182:-1 183:0.757699 186:-0.943634 187:-0.68147 190:-0.481103 
-0 -0 5 5 0 0 0 5 0 0 0 174:-0.558346 178:-0.215559 181:0.962628 182:-1 183:0.962628 186:-0.897051 187:-0.67991 190:-0.281043 
-0 -0 5 5 0 0 0 0 0 0 0 174:-0.354063 178:-0.238535 181:0.918882 182:-1 183:0.918882 186:-0.841666 187:-0.681851 190:-0.0741847 
-0 -0 5 0 0 0 0 5 0 0 0 174:0.0479646 178:0.297358 181:0.986446 182:-1 183:0.986446 186:-0.0902218 187:-0.68341 190:0.650464 
-5 -0 0 0 0 0 0 0 5 0 5 174:-0.678134 178:-0.427814 181:-0.0333974 182:-1 183:-0.0333974 186:-0.973974 187:-0.678783 190:-0.708745 
-0 -0 4.484436162125538 0 0 3.139991954266535 0 4.309996115424428 3.95780746423679 5 1.269234305924827 174:-1 178:-1 181:-1 182:-1 183:-1 186:-1 187:-0.680168 190:-1 
-0 -0 5 0 0 0 5 0 0 0 0 174:-0.408301 178:-0.1144 181:0.979814 182:-1 183:0.979814 186:-0.802102 187:-0.68038 190:-0.0412748 
-0 -0 5 0 0 0 0 0 0 0 0 174:-0.239816 178:0.345197 181:0.951531 182:-1 183:0.951531 186:-0.417009 187:-0.677066 190:0.592959 
-0 -0 5 0 0 0 0 0 4.532983183085547 0 0 174:0.171074 178:0.294008 181:0.936552 182:-1 183:0.936552 186:0.171309 187:-0.682852 190:0.527511 
-0 -0 5 0 0 0 0 0 0 0 0 174:-0.524347 178:-0.0785566 181:0.890789 182:-1 183:0.890789 186:-0.838959 187:-0.682286 190:-0.0823613 
-0 -0 5 4.386372244299009 0 0 5 0 0 0 0 174:-0.94541 178:-0.735022 181:-1 182:-1 183:-1 186:-1 187:-0.680168 190:-1 
-0 -0 5 0 0 0 0 0 0 0 0 174:-0.173913 178:0.621958 181:0.957265 182:-1 183:0.957265 186:-0.314095 187:-0.67133 190:0.644269 
-0 -0 0 0 0 0 0 0 5 0 0 174:-0.636535 178:-0.410694 181:0.109112 182:-1 183:0.109112 186:-0.981711 187:-0.681041 190:-0.737001 
-0 -0 0 0 0 0 0 0.2129025275453953 5 0 0 174:0.269181 178:-0.0870752 181:0.940984 182:-1 183:0.940984 186:0.252466 187:-0.676031 190:0.325064 
-0 -0 0 0 0 0 0 0 5 0 0 174:-0.504806 178:-0.413353 181:0.238439 182:-1 183:0.238439 186:-0.970726 187:-0.680314 190:-0.682499 
-0 -0 3.83701638693164 4.622081426951824 0 2.461674951150724 2.423529008454363 4.152145056551296 0 2.796004082879882 0 174:-0.567008 178:0.242502 181:0.983164 182:-1 183:0.983164 186:-0.63447 187:-0.680394 190:0.430316 
-0 -0 5 0 0 0 0 0 0 0 0 174:-0.219282 178:0.0568211 181:0.957399 182:-1 183:0.957399 186:-0.424729 187:-0.678557 190:0.522617 
-0 -0 5 0 0 0 0 0 5 0 0 174:-0.267286 178:0.0532162 181:0.857867 182:-1 183:0.857867 186:-0.58836 187:-0.683428 190:0.37943 
-0 -5 5 5 0 2.102672537469297 5 0 5 1.898581538339553 5 174:-0.217088 178:-0.107754 181:0.889546 182:-1 183:0.889546 186:-0.545327 187:-0.690009 190:0.407863 
-0 -0 0 0 0 0 0 0 5 0 0 174:-0.157314 178:0.156849 181:0.912672 182:-1 183:0.912672 186:-0.396125 187:-0.683336 190:0.472376 
-0 -5 5 0 0 0 0 0 5 0 0 174:-0.119629 178:0.218001 181:0.889602 182:-1 183:0.889602 186:-0.2815 187:-0.707384 190:0.576649 
-0 -0 5 0 0 0 0 0 0 0 0 174:0.327451 178:0.508587 181:0.931593 182:-1 183:0.931593 186:0.384957 187:-0.676478 190:0.370105 
-0 -0 5 0.5735755194280986 0 0 0.6212409370058329 0 5 0 0 174:0.0375528 178:0.137308 181:0.930883 182:-1 183:0.930883 186:-0.0805573 187:-0.68469 190:0.494818 
-0 -0 0 0 0 0 0 0.6473860018003244 0 0 0 174:0.494623 178:0.378195 181:0.969898 182:-1 183:0.969898 186:0.472231 187:-0.679746 190:0.317421 
-0 -0 5 0 0 0 0 0 0 0 0 174:0.207842 178:0.441009 181:0.93275 182:-1 183:0.93275 186:0.171161 187:-0.681208 190:0.509712 
-0 -0 0 0 0 0 0 0 5 0 0 174:0.436314 178:0.0134556 181:0.961902 182:-1 183:0.961902 186:0.387353 187:-0.679685 190:0.335726 
-0 -0 0 5 0 0 0 0 5 0 2.659883130632606 174:-0.583945 178:-0.413146 181:0.241072 182:-1 183:0.241072 186:-0.923061 187:-0.680439 190:-0.456502 
-0 -0 5 0 0 0 0 0 0 0 0 174:-0.157925 178:0.245119 181:0.920955 182:-1 183:0.920955 186:-0.379479 187:-0.681244 190:0.477925 
-0 -0 5 0 0 0 0 0 0 0 0 174:-0.537239 178:0.115752 181:0.90925 182:-1 183:0.90925 186:-0.77384 187:-0.703822 190:0.107664 
-0 -0 0 0 0 0 0 0 5 0 0 174:-0.396909 178:0.236292 181:0.867747 182:-1 183:0.867747 186:-0.56829 187:-0.674452 190:0.419552 
-0 -0 1.662888073468849 0 0 0 2.994545900742024 0.8211609501707849 5 0 0 174:0.00804249 178:-0.132101 181:0.954917 182:-1 183:0.954917 186:-0.194462 187:-0.682122 190:0.343223 
-0 -5 0 0 0 0 0 0 0 0 5 174:0.114351 178:0.521064 181:0.916229 182:-1 183:0.916229 186:-0.131542 187:-0.668343 190:0.69497 
-0 -0 5 0 0 5 0 0 0 0 0 174:-0.416843 178:0.180345 181:0.931076 182:-1 183:0.931076 186:-0.705802 187:-0.680161 190:0.314786 
-0 -0 0 0 0 0 5 0 5 0 5 174:-0.0121493 178:0.0260324 181:0.95 182:-1 183:0.95 186:-0.29935 187:-0.684647 190:0.563276 
-0 -0 5 0 0 0 0 5 0 0 5 174:-0.448662 178:-0.0785336 181:0.944085 182:-1 183:0.944085 186:-0.787573 187:-0.682086 190:0.0878209 
-0 -0 5 0 0 0 0 0 0 0 0 174:0.148453 178:0.301212 181:0.942201 182:-1 183:0.942201 186:0.0677889 187:-0.685913 190:0.676355 
-0 -0 0 0 0 0 5 0 0 0 0 174:-0.64654 178:0.0678148 181:0.911949 182:-1 183:0.911949 186:-0.751662 187:-0.67936 190:0.171418 
-0 -0 5 0 0 0 0 0 0 0 0 174:-0.93717 178:-0.711849 181:-1 182:-1 183:-1 186:-1 187:-0.680168 190:-1 
-0 -0 5 3.356838893136991 0 0 0 0 1.556540516231852 0 0 174:-0.998452 178:-0.980172 181:-1 182:-1 183:-1 186:-1 187:-0.680168 190:-1 
-0 -0 5 0 0 0 0 0 3.831234599721501 0 0 174:-0.995073 178:-0.970637 181:-1 182:-1 183:-1 186:-1 187:-0.680168 190:-1 
-0 -5 0 0 0 0 0 0 0 0 0 174:-0.974864 178:-0.862547 181:-1 182:-1 183:-1 186:-1 187:-0.680168 190:-1 
-0 -0 0 0 0 0 0 0 5 0 0 174:-0.173764 178:0.264948 181:0.895167 182:-1 183:0.895167 186:-0.332672 187:-0.670623 190:0.55345 
-0 -0 0 5 0 0 3.916541359038399 0 5 5 5 174:0.0643318 178:-0.326122 181:0.94487 182:-1 183:0.94487 186:-0.221934 187:-0.679304 190:0.569041 
-0 -2.48807608954747 0 0 0 0 0 5 0 0 0 174:-0.467253 178:-0.63918 181:0.694784 182:-1 183:0.694784 186:-0.95579 187:-0.67937 190:-0.536163 
-0 -0 5 0 0 0 0 0 0 0 0 174:-0.755141 178:-0.153334 181:0.902209 182:-1 183:0.902209 186:-0.869582 187:-0.678206 190:-0.143204 
-0 -0 5 0 4.261477988039877 4.123282375261843 4.114488869910137 0 0 5 5 174:0.0317135 178:0.621886 181:0.916793 182:-1 183:0.916793 186:-0.163615 187:-0.716429 190:0.845276 
-5 -0 0 0 0 0 0 0 5 0 5 174:-0.677088 178:-0.498181 181:-1 182:-1 183:-1 186:-1 187:-0.680168 190:-1 
-0 -0 5 5 0 0 1.686903178654493 4.105683765147811 5 3.286610581066444 5 174:-0.384084 178:0.153391 181:0.676141 182:-1 183:0.676141 186:-0.570523 187:-0.700183 190:0.293221 
-0 -0 5 0 0 0 0 0 0 0 0 174:-0.645328 178:-0.174008 181:0.943888 182:-1 183:0.943888 186:-0.886769 187:-0.681759 190:-0.203586 
-5 -0 0 0 0 0 0 0 0 0 0 174:-0.560743 178:-0.118408 181:0.77144 182:-1 183:0.77144 186:-0.799291 187:-0.677709 190:-0.0166846 
-0 -0 0.5335325241298506 0 0 0 0 5 5 0 0 174:-0.516674 178:-0.357877 181:0.414713 182:-1 183:0.414713 186:-0.944909 187:-0.680658 190:-0.536943 
-0 -0 5 5 0 0 0 0 0 0 0 174:-0.0519937 178:0.323089 181:0.961902 182:-1 183:0.961902 186:-0.176065 187:-0.690841 190:0.595004 
-0 -0 5 0 0 3.273392847832136 0 0 5 5 5 174:0.606369 178:0.0348214 181:0.969697 182:-1 183:0.969697 186:0.640037 187:-0.676456 190:0.226239 
-0 -0 0 0 0 0 0 0 5 0.525207497191137 0 174:-0.295418 178:0.487452 181:0.891914 182:-1 183:0.891914 186:-0.40929 187:-0.614804 190:0.606199 
-0 -0 5 0 0.6030726191526339 0 0 5 0 0 0 174:-0.918424 178:-0.660859 181:-1 182:-1 183:-1 186:-1 187:-0.680168 190:-1 
-0 -0 0 0 0 0 0.5886650621512316 0 0 0 0 174:0.170643 178:0.323655 181:0.939738 182:-1 183:0.939738 186:-0.0376401 187:-0.654348 190:0.451793 
-0 -0.9687730287548201 3.105974132928201 0 0 0 0 0 0 4.594256193902967 0 174:0.0644659 178:0.911371 181:0.937951 182:-1 183:0.937951 186:-0.0906805 187:-0.686749 190:0.805356 
-0 -0 0 0 0 0 0 0 5 0 0 174:-0.555391 178:-0.421947 181:0.183546 182:-1 183:0.183546 186:-0.975279 187:-0.679338 190:-0.684839 
-0 -0 5 0 0 5 0 0 0 0 0 174:-0.642123 178:-0.133627 181:0.966482 182:-1 183:0.966482 186:-0.827742 187:-0.681294 190:-0.097133 
-0 -0 5 0 0 0 0 0 0 0 0 174:-0.360698 178:0.244079 181:0.933202 182:-1 183:0.933202 186:-0.527257 187:-0.673417 190:0.491318 
-0 -0 5 0 0 0 0 0 0 0 0 174:-0.073883 178:0.456689 181:0.9538 182:-1 183:0.9538 186:-0.170376 187:-0.68294 190:0.668841 
-0 -0 0 0 0 0 0 0 5 0 0 174:-0.165343 178:0.19861 181:0.93108 182:-1 183:0.93108 186:-0.301959 187:-0.684044 190:0.61853 
-0 -0 0 0 0 0 0 0 5 0 0 174:-0.675895 178:-0.578259 181:-1 182:-1 183:-1 186:-1 187:-0.680168 190:-1 
-0 -5 0 0 0 0 0 0 0 0 0 174:-0.543019 178:-0.45707 181:0.878267 182:-1 183:0.878267 186:-0.925757 187:-0.679933 190:-0.378794 
-0 -0 4.500452348553846 0 0 0 0 4.271964640840819 0 0 0 174:-0.685171 178:-0.687366 181:0.92948 182:-1 183:0.92948 186:-0.987453 187:-0.680479 190:-0.73477 
-0 -5 5 5 0 5 0 5 0 0 0 174:-0.380967 178:-0.212566 181:0.936628 182:-1 183:0.936628 186:-0.739919 187:-0.682682 190:0.129359 
-0 -0 5 0 0 0 0 0 5 0 0 174:-0.308275 178:0.147154 181:0.872498 182:-1 183:0.872498 186:-0.62652 187:-0.664389 190:0.387704 
-0 -0 0 0 0 0 0 0 5 1.174882678355597 0 174:-0.550837 178:-0.0391654 181:0.819779 182:-1 183:0.819779 186:-0.649716 187:-0.688444 190:0.267626 
-0 -0 0 0 0 0 0 0 5 0 0 174:-0.420288 178:-0.392125 181:0.665347 182:-1 183:0.665347 186:-0.835044 187:-0.68148 190:-0.234687 
-0 -5 0 0 0 0 0 0 0 0 0 174:-0.396908 178:-0.127291 181:0.966746 182:-1 183:0.966746 186:-0.745832 187:-0.682657 190:0.0897471 
-0 -0 5 0 0 0 0 0 0 0 0 174:-0.567308 178:-0.385942 181:0.511127 182:-1 183:0.511127 186:-0.959331 187:-0.6798 190:-0.583901 
-0 -0 5 5 0 0 0 0 5 5 5 174:-0.130002 178:0.0941539 181:0.839288 182:-1 183:0.839288 186:-0.307109 187:-0.659513 190:0.580437 
-0 -0 0 0 0 0 0 1.28175516524422 5 0 5 174:-0.380729 178:-0.334369 181:0.677145 182:-1 183:0.677145 186:-0.788728 187:-0.678637 190:-0.153 
-0 -0 0 5 0 0 0 5 5 0 5 174:-0.386949 178:-0.476739 181:0.256854 182:-1 183:0.256854 186:-0.906705 187:-0.680464 190:-0.421257 
-0 -0 0 0 0 0 0 0 3.372633286609632 0 0 174:-0.186798 178:0.0941539 181:0.91471 182:-1 183:0.91471 186:-0.49284 187:-0.673119 190:0.356219 
-0 -0 0 0 0 0 0 5 0 0 0 174:-0.304373 178:-0.372394 181:0.937446 182:-1 183:0.937446 186:-0.807169 187:-0.67988 190:-0.109762 
-0 -0 0 0 0 0 0 0 5 0 0 174:-0.565485 178:-0.401825 181:0.277641 182:-1 183:0.277641 186:-0.949633 187:-0.680728 190:-0.564851 
-0 -0 0 0 0 0 0 5 0 0 0 174:-0.259792 178:-0.021398 181:0.989797 182:-1 183:0.989797 186:-0.535005 187:-0.677962 190:0.318485 
-0 -5 0 0 0 0 0 0 0 0 0 174:-0.71513 178:-0.634749 181:-1 182:-1 183:-1 186:-1 187:-0.680168 190:-1 
-0 -0 0 0 0 0 0 5 0 0 0 174:-0.482947 178:-0.46378 181:0.540974 182:-1 183:0.540974 186:-0.950467 187:-0.681159 190:-0.579996 
-0 -0 0 0.8233343400410975 0 0 0 0 5 0 0 174:-0.57573 178:-0.419565 181:0.271416 182:-1 183:0.271416 186:-0.928111 187:-0.679514 190:-0.486118 
-0 -0.6850351377338233 4.20856775331694 5 0 5 5 5 5 4.223138944964687 5 174:-0.364399 178:-0.373889 181:0.250424 182:-1 183:0.250424 186:-0.861302 187:-0.678196 190:-0.300221 
-0 -0 0 0 0 0 0 5 0 0 0 174:-0.7899 178:-0.46745 181:0.185037 182:-1 183:0.185037 186:-0.992116 187:-0.680186 190:-0.835278 
-5 -0 5 5 0 5 5 5 0 0 5 174:-0.835508 178:-0.488388 181:-1 182:-1 183:-1 186:-1 187:-0.680168 190:-1 
-0 -5 5 0 5 5 0.100983292684853 5 5 0 5 174:-0.702998 178:-0.40657 181:-1 182:-1 183:-1 186:-1 187:-0.680168 190:-1 
-0 -5 5 0 2.601908016134944 0.2225851090386445 0 0 4.555918087928552 0 5 174:-0.756685 178:-0.440209 181:-1 182:-1 183:-1 186:-1 187:-0.680168 190:-1 
-0 -0 1.712760798193524 0 0 0.7851292464207015 1.478893131743137 0 0 0 5 174:-0.776317 178:-0.449184 181:-1 182:-1 183:-1 186:-1 187:-0.680168 190:-1 
-0 -0 5 5 0 0 0 5 0 0 0 174:-0.905221 178:-0.635549 181:-1 182:-1 183:-1 186:-1 187:-0.680168 190:-1 
-0 -0 5 0 0 0 0 0 0 0 0 174:-0.888326 178:-0.545976 181:0.313131 182:-1 183:0.313131 186:-0.991557 187:-0.679969 190:-0.804529 
-0 -5 0 0 0 0 0 0 0 0 0 174:0.279732 178:0.324663 181:0.963964 182:-1 183:0.963964 186:0.148458 187:-0.679021 190:0.573216 
-0 -0 0.6796489549189215 0 0 0 0 0 0 0 0 174:-0.649681 178:-0.371366 181:0.649237 182:-1 183:0.649237 186:-0.957282 187:-0.680987 190:-0.57302 
-0 -0 5 5 0 0 5 0 0 0 0 174:-0.833896 178:-0.361542 181:0.715741 182:-1 183:0.715741 186:-0.954063 187:-0.681041 190:-0.494223 
-0 -5 5 1.332332319891736 0 0 0 0 0 0 0 174:0.308684 178:0.272428 181:0.935304 182:-1 183:0.935304 186:0.306272 187:-0.681443 190:0.507322 
-0 -5 0 0 0 0 0 5 5 0 5 174:-0.127717 178:-0.276901 181:0.91471 182:-1 183:0.91471 186:-0.546519 187:-0.681989 190:0.25156 
-0 -5 0 0 0 0 0 0 0 0 0 174:-0.926391 178:-0.79304 181:-1 182:-1 183:-1 186:-1 187:-0.680168 190:-1 
-0 -0 0 0 0 0 0 0 5 0 5 174:-0.522415 178:-0.429501 181:0.004472 182:-1 183:0.004472 186:-0.983436 187:-0.681062 190:-0.761742 
-0 -0 0 0 0 0 0 0 5 0 0 174:-0.0852471 178:0.0208377 181:0.922958 182:-1 183:0.922958 186:-0.36249 187:-0.68257 190:0.393446 
-0 -0 5 5 0 0 2.819592679116483 0 5 0 1.993187684718469 174:-0.392022 178:-0.232691 181:0.650058 182:-1 183:0.650058 186:-0.856601 187:-0.680143 190:-0.285554 
-0 -0 0 0 0 0 0 0 5 0 0 174:0.174062 178:-0.168107 181:0.969898 182:-1 183:0.969898 186:0.0129666 187:-0.680386 190:0.423902 
-0 -0 0 0 0 0 0 5 0 0 0 174:-0.648719 178:-0.262434 181:0.605876 182:-1 183:0.605876 186:-0.914166 187:-0.679413 190:-0.392868 
-0 -0 0 0 0 0 0 0 5 0 5 174:-0.583436 178:-0.479364 181:-0.189724 182:-1 183:-0.189724 186:-0.984238 187:-0.680756 190:-0.797188 
-0 -0 0 2.218277491858946 0 0 0 5 0 0 0 174:-0.938123 178:-0.758655 181:0.708752 182:-1 183:0.708752 186:-0.98275 187:-0.680136 190:-0.666854 
-0 -0 0 0 0 0 0 0 5 0.2199034702456018 4.314596587433706 174:0.147777 178:-0.475463 181:0.937448 182:-1 183:0.937448 186:-0.0843619 187:-0.680895 190:0.454575 
-0 -0 5 5 0 5 0 5 5 0 5 174:-0.327805 178:-0.431864 181:0.273165 182:-1 183:0.273165 186:-0.934032 187:-0.681655 190:-0.483799 
-5 -0 0 0 0 0 0 0 5 0 0 174:0.0132218 178:-0.23659 181:0.907371 182:-1 183:0.907371 186:-0.357099 187:-0.681817 190:0.287158 
-0 -5 0 0 0 0 0 0 0 0 0 174:-0.767544 178:-0.547242 181:-1 182:-1 183:-1 186:-1 187:-0.680168 190:-1 
-0 -0 5 0 0 0 0 0 0 0 0 174:-0.320707 178:-0.192927 181:0.925766 182:-1 183:0.925766 186:-0.744264 187:-0.677226 190:0.112176 
-0 -0 0 0 0 0 0 5 0 0 0 174:-0.829243 178:-0.705388 181:-1 182:-1 183:-1 186:-1 187:-0.680168 190:-1 
-0 -5 0 0 0 0 0 0 0 0 0 174:-0.181833 178:0.536497 181:0.937515 182:-1 183:0.937515 186:-0.315819 187:-0.672547 190:0.647535 
-0 -0 0 0 0 0 0.976825201370725 0 5 0 0 174:0.178967 178:0.199397 181:0.9415 182:-1 183:0.9415 186:0.102934 187:-0.679045 190:0.507803 
-0 -0 0 0 0 0 0 0 5 0 0 174:0.53684 178:0.106351 181:0.94067 182:-1 183:0.94067 186:0.480153 187:-0.686461 190:0.295173 
-5 -0 0 0 0 0 0 0 5 0 0 174:0.421342 178:0.0815954 181:0.934977 182:-1 183:0.934977 186:0.373688 187:-0.679274 190:0.380702 
-0 -0 0 0 0 0 0 0 5 0 0 174:0.479096 178:0.332319 181:0.912129 182:-1 183:0.912129 186:0.414675 187:-0.677011 190:0.307556 
-0 -0 0 0 0 0 0 0 5 0 0 174:0.151338 178:0.389497 181:0.917016 182:-1 183:0.917016 186:0.0851501 187:-0.677544 190:0.595366 
-0 -0 0 5 0 0 4.004979473802583 5 0 0 0 174:0.480361 178:0.535463 181:0.963266 182:-1 183:0.963266 186:0.501154 187:-0.679638 190:0.283097 
-0 -0 0 0 0 0 0 0 5 0 0 174:-0.742384 178:-0.431677 181:-0.0267178 182:-1 183:-0.0267178 186:-0.976423 187:-0.679821 190:-0.72307 
-5 -0 0 0 0 0 0 0 0 0 0 174:-0.817445 178:-0.864224 181:-1 182:-1 183:-1 186:-1 187:-0.680168 190:-1 
-0 -0 0 0 0 0 0 0 5 0 0 174:-0.564066 178:-0.650703 181:-1 182:-1 183:-1 186:-1 187:-0.680168 190:-1 
-0 -5 0 0 0 0 0 0 0 0 0 174:-0.358154 178:-0.231318 181:0.947349 182:-1 183:0.947349 186:-0.760757 187:-0.679225 190:0.0284044 
-0 -0 5 0 0 0 0 0 5 0 5 174:-0.158602 178:0.0435335 181:0.908164 182:-1 183:0.908164 186:-0.487811 187:-0.677889 190:0.449089 
-0 -0 0 0 0 0 0 0 5 0 0 174:-0.0676723 178:-0.030841 181:0.941681 182:-1 183:0.941681 186:-0.38964 187:-0.681866 190:0.420163 
-0 -0 0 0 0 0 0 0 4.352444812986847 0 0 174:-0.525175 178:0.0464679 181:0.827649 182:-1 183:0.827649 186:-0.71177 187:-0.683944 190:0.185573 
-0 -0 0 0 0 0 0 0 5 0 0 174:-0.0390218 178:0.0112888 181:0.934544 182:-1 183:0.934544 186:-0.381315 187:-0.677319 190:0.442601 
-0 -0 0 0 0 0 0 0 5 0 5 174:0.01276 178:0.221642 181:0.909524 182:-1 183:0.909524 186:-0.30441 187:-0.680722 190:0.5702 
-0 -0 0 0 0 0 0 0 5 0 0 174:-0.170053 178:0.0503013 181:0.915353 182:-1 183:0.915353 186:-0.40343 187:-0.675649 190:0.436994 
-0 -0 0 5 0 0 0 0 0 0 0 174:-0.658584 178:0.0221291 181:0.942997 182:-1 183:0.942997 186:-0.784592 187:-0.679826 190:0.087852 
-0 -0 0 0 0 0 0 0 5 0 0 174:-0.324079 178:-0.309898 181:0.831494 182:-1 183:0.831494 186:-0.717786 187:-0.681118 190:0.0539435 
-0 -0 0 0 0 0 0 0.4343833588531423 0 0 0 174:-0.309516 178:-0.0308185 181:0.897676 182:-1 183:0.897676 186:-0.642184 187:-0.68715 190:0.254685 
-0 -0 5 0 0 0 0 0 0 0 0 174:-0.840831 178:-0.298571 181:0.935077 182:-1 183:0.935077 186:-0.919002 187:-0.679182 190:-0.315178 
-0 -0 5 0 0 0 0 0 0 0 0 174:-0.260726 178:0.294974 181:0.945287 182:-1 183:0.945287 186:-0.440609 187:-0.685707 190:0.487667 
-0 -5 5 0 0 0 0 0 0 0 0 174:0.260346 178:0.229348 181:0.976531 182:-1 183:0.976531 186:0.136698 187:-0.678423 190:0.579006 
-0 -5 4.064015346516858 0 0 2.855875305366633 0 5 5 5 2.51938198220152 174:0.678542 178:0.126873 181:0.925681 182:-1 183:0.925681 186:0.598384 187:-0.672898 190:0.227351 
-0 -5 2.532799185139782 2.157740439512701 0 0 0 1.914198880147756 5 5 5 174:0.733531 178:-0.179428 181:0.85658 182:-1 183:0.85658 186:0.728668 187:-0.685055 190:-0.0748341 
-0 -5 0 0 0 0 0 0 0 0 0 174:-0.656209 178:-0.499584 181:0.812438 182:-1 183:0.812438 186:-0.971199 187:-0.680552 190:-0.611769 
-0 -0 0 0 0 0 0 0 5 0 0 174:-0.640709 178:-0.60428 181:-1 182:-1 183:-1 186:-1 187:-0.680168 190:-1 
-0 -5 0 5 0 0 5 0 5 5 5 174:-0.129921 178:0.257273 181:0.924067 182:-1 183:0.924067 186:-0.324046 187:-0.67023 190:0.659126 
-0 -0 5 0 0 0 0 0 0 0 0 174:0.53875 178:0.171563 181:0.979747 182:-1 183:0.979747 186:0.553977 187:-0.679892 190:0.24665 
-0 -5 5 0 0 0 0 0 0 0 0 174:0.18862 178:0.309093 181:0.956566 182:-1 183:0.956566 186:0.137596 187:-0.687671 190:0.645147 
-0 -0 5 0 0 0 0 0 0 0 0 174:-0.12823 178:0.184935 181:0.979814 182:-1 183:0.979814 186:-0.334231 187:-0.677145 190:0.496081 
-0 -0 0 0 0 0 2.435021021094349 0 0 0 0 174:0.391705 178:0.258227 181:0.986446 182:-1 183:0.986446 186:0.399499 187:-0.678527 190:0.491939 
-0 -0 5 0 0 0 0 0 5 0 0 174:0.265024 178:0.075513 181:0.909931 182:-1 183:0.909931 186:0.121351 187:-0.677928 190:0.453057 
-0 -0 0 0 0 0 0 0 5 0 0.6877046971645413 174:-0.473351 178:-0.467651 181:0.218312 182:-1 183:0.218312 186:-0.940595 187:-0.680498 190:-0.525776 
-0 -0 5 0 0 0 0 0 0 0 0 174:-0.18104 178:0.357817 181:0.973441 182:-1 183:0.973441 186:-0.320149 187:-0.675026 190:0.656525 
-0 -0 0 0 0 0 0 0 5 0 5 174:-0.475626 178:-0.668413 181:-1 182:-1 183:-1 186:-1 187:-0.680168 190:-1 
-0 -0 5 5 0 0 0.9296881357441736 0 0 0 0 174:0.280046 178:0.249618 181:0.960614 182:-1 183:0.960614 186:0.299786 187:-0.680488 190:0.503379 
-0 -0 0 0 0 0 5 5 0 0 5 174:-0.617653 178:-0.0195005 181:0.963786 182:-1 183:0.963786 186:-0.792452 187:-0.680122 190:0.0678197 
-0 -0 0 5 0 0 0 5 0 0 0 174:-0.308422 178:0.276132 181:0.989797 182:-1 183:0.989797 186:-0.432197 187:-0.667713 190:0.567682 
-0 -0 0 0 0 0 0 0 5 0 0 174:0.0507934 178:0.00860416 181:0.956948 182:-1 183:0.956948 186:-0.25819 187:-0.681766 190:0.505055 
-0 -0 0 5 0 0 0 0 0 0 0 174:0.389538 178:0.280143 181:0.983097 182:-1 183:0.983097 186:0.330614 187:-0.681901 190:0.472523 
-0 -0 0 5 0 0 0 0 5 0 0 174:0.46096 178:0.0640234 181:0.946919 182:-1 183:0.946919 186:0.463766 187:-0.676499 190:0.271094 
-0 -0 5 0 0 0 0 0 5 0 0 174:-0.0565314 178:0.334054 181:0.897199 182:-1 183:0.897199 186:-0.201034 187:-0.680555 190:0.574061 
-5 -0 0 0 0 0 0 0 0 0 0 174:-0.152952 178:-0.0718847 181:0.950781 182:-1 183:0.950781 186:-0.565221 187:-0.677104 190:0.363047 
-0 -0 5 0 0 0 0 0 0 0 0 174:0.0774315 178:0.476353 181:0.940731 182:-1 183:0.940731 186:-0.00754304 187:-0.69314 190:0.691156 
-0 -0 0 0 0 0 0 0 5 1.531833013548946 5 174:-0.0426023 178:0.368253 181:0.900849 182:-1 183:0.900849 186:-0.175481 187:-0.673295 190:0.686087 
-0 -0 0 5 0 0 0 0 0 0 0 174:-0.660229 178:-0.143249 181:0.938526 182:-1 183:0.938526 186:-0.863531 187:-0.68183 190:-0.0949358 
-0 -0 0 0 0 0 0 0 5 0 0 174:-0.269481 178:0.329209 181:0.885826 182:-1 183:0.885826 186:-0.425315 187:-0.648624 190:0.492577 
-0 -0 0 0 0 0 0 0 5 0 5 174:0.261406 178:0.385244 181:0.892257 182:-1 183:0.892257 186:0.178094 187:-0.673553 190:0.560514 
-0 -0 0 0 0 0 0 0 5 0 0 174:-0.544948 178:-0.762252 181:-1 182:-1 183:-1 186:-1 187:-0.680168 190:-1 
-0 -0 0 0 0 0 0 0 5 0 0 174:-0.597149 178:-0.693987 181:-1 182:-1 183:-1 186:-1 187:-0.680168 190:-1 
-0 -0 0 0 0 0 0 5 0 0 0 174:-0.545756 178:-0.793809 181:-1 182:-1 183:-1 186:-1 187:-0.680168 190:-1 
-0 -0 0 0 0 0 0 0 5 0 0 174:-0.531318 178:-0.757516 181:-1 182:-1 183:-1 186:-1 187:-0.680168 190:-1 
-0 -0 0 5 0 0 0 0 0 0 0 174:0.507733 178:0.402926 181:0.970158 182:-1 183:0.970158 186:0.50061 187:-0.680361 190:0.319723 
-0 -5 5 5 0 0 0 0 0 0 0 174:0.348912 178:0.206223 181:0.989797 182:-1 183:0.989797 186:0.182082 187:-0.6804 190:0.551301 
-0 -0 0 0 0 0 0.4933979658696142 0 0 0 0 174:0.298457 178:0.194227 181:0.966549 182:-1 183:0.966549 186:0.167089 187:-0.677546 190:0.487496 
-0 -0 5 0.8425075700406373 0 5 4.07719967297911 5 5 5 5 174:-0.411149 178:-0.699091 181:-1 182:-1 183:-1 186:-1 187:-0.680168 190:-1 
-0 -0 5 0 0 0 0 0 0 0 0 174:-0.217538 178:0.0730876 181:0.973114 182:-1 183:0.973114 186:-0.498015 187:-0.681707 190:0.451286 
-0 -0 0 0 0 0 0 5 0 0 0 174:-0.0104413 178:0.175941 181:0.94579 182:-1 183:0.94579 186:-0.258375 187:-0.684502 190:0.631229 
-0 -0 5 0 0 0 0 0 0 0 0 174:0.0373486 178:0.32146 181:0.953718 182:-1 183:0.953718 186:-0.129367 187:-0.681188 190:0.724995 
-0 -0 5 0 0 0 5 0 0 0 0 174:0.104346 178:0.353947 181:0.964768 182:-1 183:0.964768 186:0.00907568 187:-0.683024 190:0.714229 
-5 -0 0 0 0 0 0 0 0 0 0 174:-0.391801 178:-0.204315 181:0.894915 182:-1 183:0.894915 186:-0.763881 187:-0.683038 190:0.0608381 
-0 -0 0 5 0 0 0 0 0 0 0 174:0.23142 178:0.269446 181:0.969764 182:-1 183:0.969764 186:0.10065 187:-0.683371 190:0.67518 
-0 -0 0 0 0 0 0 0 5 0 0 174:-0.513444 178:-0.690302 181:-1 182:-1 183:-1 186:-1 187:-0.680168 190:-1 
-0 -0 0 0 0 0 0 0 5 0 0 174:-0.451972 178:-0.518422 181:0.190232 182:-1 183:0.190232 186:-0.951131 187:-0.678974 190:-0.5805 
-0 -0 0 0 0 0 0 0 5 0 0 174:-0.508376 178:-0.627306 181:-1 182:-1 183:-1 186:-1 187:-0.680168 190:-1 
-0 -0 0 0 0 0 0 5 5 0 0 174:-0.427819 178:-0.614811 181:0.278739 182:-1 183:0.278739 186:-0.962966 187:-0.683483 190:-0.600819 
-0 -0 0 0 0 0 0 0 0 0 1.803280285066587 174:-0.326549 178:-0.38592 181:0.736615 182:-1 183:0.736615 186:-0.830814 187:-0.673227 190:-0.207287 
-0 -0 0 0 0 0 0 0 5 0 0 174:-0.540302 178:-0.672867 181:-1 182:-1 183:-1 186:-1 187:-0.680168 190:-1 
-0 -0 0 0 0 0 0 0 5 0 0 174:-0.592948 178:-0.673275 181:-1 182:-1 183:-1 186:-1 187:-0.680168 190:-1 
-0 -0 0 0 0 0 0 0 5 0 0 174:0.108127 178:-0.144051 181:0.94904 182:-1 183:0.94904 186:-0.158152 187:-0.680846 190:0.480252 
-0 -0 0 0 0 0 0 0 5 0 0 174:-0.143378 178:-0.0988341 181:0.882733 182:-1 183:0.882733 186:-0.493749 187:-0.681226 190:0.277812 
-0 -0 0 0 0 0 0 5 0 0 0 174:-0.879664 178:-0.525262 181:0.835675 182:-1 183:0.835675 186:-0.976545 187:-0.679376 190:-0.634264 
-0 -0 5 0 0 0 0 5 5 0 0 174:-0.411891 178:-0.534474 181:0.494998 182:-1 183:0.494998 186:-0.916189 187:-0.680035 190:-0.438073 
-0 -0 0 0 0 0 0 5 0 0 0 174:-0.292097 178:-0.340466 181:0.889026 182:-1 183:0.889026 186:-0.82989 187:-0.680565 190:-0.146224 
-0 -0 0 0 0 0.6189699291940794 0.6267878281267092 0 0 0 0 174:-0.14383 178:-0.00309083 181:0.973246 182:-1 183:0.973246 186:-0.451359 187:-0.680272 190:0.326584 
-0 -0 0 0 0 0 0 0 5 0 0 174:-0.168661 178:0.106919 181:0.920975 182:-1 183:0.920975 186:-0.414809 187:-0.681942 190:0.396742 
-0 -0 0 0 0 0 0 5 5 0 0 174:-0.37714 178:-0.676392 181:0.235665 182:-1 183:0.235665 186:-0.971465 187:-0.679507 190:-0.657916 
-0 -0 0 0 0 0 0 5 0 0 0 174:-0.453969 178:-0.63413 181:0.683582 182:-1 183:0.683582 186:-0.985436 187:-0.680363 190:-0.741947 
-0 -5 0 0 0 0 0 0 5 5 0 174:0.624553 178:0.123829 181:0.934604 182:-1 183:0.934604 186:0.587543 187:-0.680761 190:0.220992 
-0 -0 5 0 0 0 0 0 0 0 0 174:-0.644817 178:-0.861071 181:-1 182:-1 183:-1 186:-1 187:-0.680168 190:-1 
-0 -0 0 0 0 0 0 0 5 0 0 174:-0.622575 178:-0.587565 181:-1 182:-1 183:-1 186:-1 187:-0.680168 190:-1 
-0 -0 0 0 0 0 0 0 5 0 0 174:-0.563408 178:-0.650785 181:-1 182:-1 183:-1 186:-1 187:-0.680168 190:-1 
-0 -0 0 0 0 0 0 0 5 0 5 174:-0.240351 178:-0.0651346 181:0.9161 182:-1 183:0.9161 186:-0.547856 187:-0.680179 190:0.403802 
-0 -0 5 0 0 0 0 5 0 0 0 174:-0.535061 178:-0.482282 181:0.969898 182:-1 183:0.969898 186:-0.93831 187:-0.679988 190:-0.428539 
-0 -0 5 0 0 0 0 0 0 0 0 174:-0.995757 178:-0.984239 181:-1 182:-1 183:-1 186:-1 187:-0.680168 190:-1 
-0 -5 5 0 0 0 0 5 5 0 5 174:-0.18822 178:0.277133 181:0.858825 182:-1 183:0.858825 186:-0.369926 187:-0.666867 190:0.493841 
-0 -0 0 0 0 0 0 0 5 0.3991685117582988 0 174:0.472634 178:0.0137769 181:0.926473 182:-1 183:0.926473 186:0.538119 187:-0.684532 190:0.2148 
-0 -0 0 0 0 0 0 0 5 0 0 174:0.481949 178:0.140427 181:0.935924 182:-1 183:0.935924 186:0.415506 187:-0.682016 190:0.372851 
-0 -0 0 0 0 0 0 0 5 0 0 174:0.00948028 178:0.119272 181:0.945774 182:-1 183:0.945774 186:-0.19531 187:-0.679044 190:0.558024 
-0 -0 0 0 0 0 0 5 0 0 0 174:-0.53063 178:-0.425468 181:0.808644 182:-1 183:0.808644 186:-0.956791 187:-0.680185 190:-0.549367 
-0 -0 0 0 0 0 0 5 0 0 0 174:-0.244607 178:0.238043 181:0.960365 182:-1 183:0.960365 186:-0.405773 187:-0.681356 190:0.55109 
-0 -0 0 0 0 5 0 0 3.900781580903712 5 0 174:0.583529 178:0.335294 181:0.911431 182:-1 183:0.911431 186:0.545604 187:-0.680755 190:0.286191 
-0 -5 0 0 0 0 0 0 0 0 0 174:0.433716 178:0.189559 181:0.954049 182:-1 183:0.954049 186:0.407515 187:-0.682192 190:0.304581 
-0 -5 0 0 0 0 0 0 0 0 0 174:0.398238 178:0.406003 181:0.935407 182:-1 183:0.935407 186:0.321324 187:-0.6769 190:0.546981 
-0 -0 0 0 0 0 0 0 5 0 0 174:-0.59689 178:-0.665974 181:-1 182:-1 183:-1 186:-1 187:-0.680168 190:-1 
-0 -0 0 0 0 0 0 5 0 0 0 174:-0.267511 178:-0.42178 181:0.918859 182:-1 183:0.918859 186:-0.811134 187:-0.681569 190:-0.0940429 
-5 -0 0 0 0 0 0 0 0 0 0 174:-0.546107 178:-0.198183 181:0.867635 182:-1 183:0.867635 186:-0.837315 187:-0.681342 190:-0.0892807 
-0 -0 5 0 0 0 0 0 0 0 0 174:-0.491574 178:-0.235361 181:0.940731 182:-1 183:0.940731 186:-0.841911 187:-0.679177 190:-0.0821836 
-0 -0 5 5 0 0 0 0 5 5 5 174:0.01585 178:0.180612 181:0.862187 182:-1 183:0.862187 186:-0.150356 187:-0.676872 190:0.664622 
-0 -0 5 0 0 0 3.160004971427352 5 0 0.9223828947143968 0 174:-0.613715 178:-0.889657 181:-1 182:-1 183:-1 186:-1 187:-0.680168 190:-1 
-0 -0 0 0 0 0 0 0.8943162348521896 0 0 0 174:-0.397374 178:-0.227822 181:0.969898 182:-1 183:0.969898 186:-0.731854 187:-0.680518 190:-0.0262063 
-0 -0 0 0 0 2.470371974061996 0 5 5 0 0 174:-0.291609 178:-0.556238 181:0.395052 182:-1 183:0.395052 186:-0.939602 187:-0.679181 190:-0.53094 
-0 -0 0 0 0 0 0 5 5 0 0 174:-0.397577 178:-0.505204 181:0.241072 182:-1 183:0.241072 186:-0.946562 187:-0.681039 190:-0.549093 
-0 -0 5 0 0 0 0 5 0 0 0 174:-0.291358 178:-0.250507 181:0.894659 182:-1 183:0.894659 186:-0.806512 187:-0.680055 190:-0.0122227 
