svm_type c_svc
kernel_type polynomial
degree 3
gamma 0.03125
coef0 0
nr_class 5
total_sv 889
rho 0.998349 0.967264 -0.999649 1.00079 -0.96601 -0.999248 1.00004 -0.998805 1.00047 0.999926
label 1 2 3 4 5
nr_sv 106 157 146 55 425
SV
1 1 1 1 174:-0.509887 178:-0.849005 181:-1 182:-1 183:-1 186:-1 187:-0.680168 190:-1 
1 1 1 1 174:-0.844087 178:-0.939408 181:-1 182:-1 183:-1 186:-1 187:-0.680168 190:-1 
1 1 0 1 174:-0.828348 178:-0.869167 181:-1 182:-1 183:-1 186:-1 187:-0.680168 190:-1 
1 1 0 1 174:-0.769967 178:-0.66777 181:-1 182:-1 183:-1 186:-1 187:-0.680168 190:-1 
1 1 0 1 174:-0.892273 178:-0.855347 181:-1 182:-1 183:-1 186:-1 187:-0.680168 190:-1 
1 1 1 1 174:-0.557057 178:-0.179622 181:0.835753 182:-1 183:0.835753 186:-0.837267 187:-0.699357 190:-0.0869289 
1 1 0 1 174:-0.861687 178:-0.571365 181:-1 182:-1 183:-1 186:-1 187:-0.680168 190:-1 
1 1 1 1 174:-0.490787 178:-0.0522015 181:0.771221 182:-1 183:0.771221 186:-0.758859 187:-0.700669 190:0.0291774 
1 1 0 1 174:-0.770528 178:-0.5948 181:-1 182:-1 183:-1 186:-1 187:-0.680168 190:-1 
1 1 1 1 174:-0.958307 178:-0.945359 181:-1 182:-1 183:-1 186:-1 187:-0.680168 190:-1 
1 1 0 1 174:-0.677685 178:-0.516396 181:-1 182:-1 183:-1 186:-1 187:-0.680168 190:-1 
1 1 1 1 174:-0.437092 178:-0.247652 181:0.84786 182:-1 183:0.84786 186:-0.801671 187:-0.667277 190:0.0621974 
1 1 0 1 174:-0.833983 178:-0.459955 181:-1 182:-1 183:-1 186:-1 187:-0.680168 190:-1 
1 1 1 1 174:-0.20724 178:0.250368 181:0.940783 182:-1 183:0.940783 186:-0.394392 187:-0.67978 190:0.541089 
1 1 1 1 174:-0.755294 178:-0.497341 181:-0.00763344 182:-1 183:-0.00763344 186:-0.945713 187:-0.685948 190:-0.580198 
1 1 0 1 174:0.413855 178:0.0727591 181:0.922391 182:-1 183:0.922391 186:0.259869 187:-0.690848 190:0.270481 
1 1 0 1 174:0.154898 178:0.903233 181:0.95909 182:-1 183:0.95909 186:0.165083 187:-0.690705 190:0.515289 
1 1 0 1 174:0.284936 178:0.4027 181:0.947431 182:-1 183:0.947431 186:0.285907 187:-0.754827 190:0.596464 
1 1 1 1 174:-0.464466 178:-0.113553 181:0.944148 182:-1 183:0.944148 186:-0.741478 187:-0.691476 190:0.0995852 
1 1 1 1 174:-0.0220566 178:-0.115851 181:0.960432 182:-1 183:0.960432 186:-0.15405 187:-0.726027 190:0.556492 
1 1 1 1 174:0.0102805 178:-0.271029 181:0.92364 182:-1 183:0.92364 186:-0.310575 187:-0.679382 190:0.309526 
1 1 0 1 174:-0.15036 178:-0.12882 181:0.928283 182:-1 183:0.928283 186:-0.516493 187:-0.676796 190:0.376156 
1 1 0 1 174:-0.104795 178:0.155682 181:0.887679 182:-1 183:0.887679 186:-0.368073 187:-0.65752 190:0.525251 
1 1 0 1 174:-0.781987 178:-0.598108 181:-1 182:-1 183:-1 186:-1 187:-0.680168 190:-1 
1 1 1 1 174:0.075053 178:-0.200663 181:0.919172 182:-1 183:0.919172 186:-0.167043 187:-0.674437 190:0.568197 
1 1 1 1 174:-0.6398 178:-0.445076 181:0.785603 182:-1 183:0.785603 186:-0.946812 187:-0.680134 190:-0.475291 
1 1 0 1 174:-0.0662855 178:-0.33219 181:0.986446 182:-1 183:0.986446 186:-0.640048 187:-0.679723 190:0.203382 
1 1 0 1 174:0.298658 178:0.27782 181:0.986446 182:-1 183:0.986446 186:0.187501 187:-0.679884 190:0.446617 
1 1 1 1 174:-0.176274 178:-0.537651 181:0.897732 182:-1 183:0.897732 186:-0.796083 187:-0.680714 190:-0.105871 
1 1 0 1 174:-0.11924 178:-0.360994 181:0.93815 182:-1 183:0.93815 186:-0.627525 187:-0.680502 190:0.293785 
1 1 0 1 174:-0.11585 178:-0.276517 181:0.989797 182:-1 183:0.989797 186:-0.628094 187:-0.680433 190:0.183252 
1 1 0 1 174:0.127764 178:-0.0179966 181:0.989797 182:-1 183:0.989797 186:-0.22831 187:-0.677276 190:0.590162 
1 1 1 1 174:-0.966957 178:-0.908023 181:-1 182:-1 183:-1 186:-1 187:-0.680168 190:-1 
1 1 1 1 174:-0.17448 178:0.536427 181:0.912627 182:-1 183:0.912627 186:-0.336281 187:-0.662203 190:0.648266 
1 1 1 1 174:-0.332661 178:0.296835 181:0.976464 182:-1 183:0.976464 186:-0.598689 187:-0.676207 190:0.365492 
1 1 0 1 174:-0.768617 178:-0.615343 181:-1 182:-1 183:-1 186:-1 187:-0.680168 190:-1 
1 1 0 1 174:-0.773759 178:-0.546997 181:-1 182:-1 183:-1 186:-1 187:-0.680168 190:-1 
1 1 1 1 174:-0.47329 178:-0.513295 181:0.983164 182:-1 183:0.983164 186:-0.899757 187:-0.67855 190:-0.330711 
1 1 1 1 174:-0.508558 178:-0.325315 181:0.901692 182:-1 183:0.901692 186:-0.906598 187:-0.680514 190:-0.348909 
1 1 1 1 174:-0.612954 178:0.000699385 181:0.801468 182:-1 183:0.801468 186:-0.8427 187:-0.68659 190:-0.125323 
1 1 1 1 174:0.0517013 178:0.384618 181:0.983164 182:-1 183:0.983164 186:-0.0583177 187:-0.681799 190:0.707279 
1 1 1 1 174:-0.476554 178:0.31684 181:0.915844 182:-1 183:0.915844 186:-0.660849 187:-0.693714 190:0.3424 
1 1 0 1 174:-0.708596 178:-0.653023 181:-1 182:-1 183:-1 186:-1 187:-0.680168 190:-1 
1 1 0 1 174:-0.856127 178:-0.782502 181:-1 182:-1 183:-1 186:-1 187:-0.680168 190:-1 
1 1 1 1 174:0.141073 178:0.338978 181:0.963199 182:-1 183:0.963199 186:0.120983 187:-0.684324 190:0.643512 
1 1 1 1 174:-0.486623 178:-0.0919236 181:0.897786 182:-1 183:0.897786 186:-0.7728 187:-0.67914 190:0.0535784 
1 1 1 1 174:-0.310406 178:-0.12818 181:0.983164 182:-1 183:0.983164 186:-0.746572 187:-0.688099 190:0.106443 
1 1 1 1 174:-0.513697 178:-0.424467 181:0.888592 182:-1 183:0.888592 186:-0.903159 187:-0.68184 190:-0.35269 
1 1 0 1 174:-0.215386 178:-0.164302 181:0.849442 182:-1 183:0.849442 186:-0.556591 187:-0.664105 190:0.425911 
1 1 0 1 174:0.316757 178:0.312731 181:0.920824 182:-1 183:0.920824 186:0.2681 187:-0.679736 190:0.38493 
1 1 0 1 174:-0.710464 178:-0.739479 181:-1 182:-1 183:-1 186:-1 187:-0.680168 190:-1 
1 1 1 1 174:-0.614128 178:-0.543946 181:0.734934 182:-1 183:0.734934 186:-0.966027 187:-0.681318 190:-0.589276 
1 1 1 1 174:-0.745708 178:-0.40713 181:-1 182:-1 183:-1 186:-1 187:-0.680168 190:-1 
1 1 1 1 174:-0.673118 178:-0.22462 181:0.730394 182:-1 183:0.730394 186:-0.923852 187:-0.674505 190:-0.378751 
1 1 1 1 174:-0.540004 178:-0.344418 181:0.909303 182:-1 183:0.909303 186:-0.91335 187:-0.680096 190:-0.338285 
1 1 0 1 174:-0.711445 178:-0.633643 181:-1 182:-1 183:-1 186:-1 187:-0.680168 190:-1 
1 1 1 1 174:-0.655798 178:-0.513373 181:0.829236 182:-1 183:0.829236 186:-0.972915 187:-0.680675 190:-0.61557 
1 1 1 1 174:-0.497714 178:0.361332 181:0.893917 182:-1 183:0.893917 186:-0.664709 187:-0.672026 190:0.298411 
1 1 1 1 174:-0.641616 178:-0.314614 181:0.915515 182:-1 183:0.915515 186:-0.923984 187:-0.679878 190:-0.383773 
1 1 1 1 174:-0.415369 178:-0.287349 181:0.463816 182:-1 183:0.463816 186:-0.860411 187:-0.686921 190:-0.280549 
1 1 0 1 174:0.0634122 178:1 181:0.950781 182:-1 183:0.950781 186:0.0797962 187:-0.678259 190:0.53329 
1 1 0.4246177637443767 1 174:-0.982553 178:-0.914422 181:-1 182:-1 183:-1 186:-1 187:-0.680168 190:-1 
1 1 1 1 174:-0.824518 178:-0.460586 181:0.716303 182:-1 183:0.716303 186:-0.974183 187:-0.67951 190:-0.658416 
1 1 1 1 174:-0.296672 178:-0.301291 181:0.779158 182:-1 183:0.779158 186:-0.752397 187:-0.677873 190:-0.0491938 
1 1 1 1 174:-0.718399 178:-0.364773 181:0.754757 182:-1 183:0.754757 186:-0.956116 187:-0.681646 190:-0.512184 
1 1 0 1 174:-0.928476 178:-0.801378 181:-1 182:-1 183:-1 186:-1 187:-0.680168 190:-1 
1 1 0 1 174:-0.332728 178:0.134608 181:0.93815 182:-1 183:0.93815 186:-0.630559 187:-0.674395 190:0.294225 
1 1 0 1 174:-0.182828 178:0.285455 181:0.91673 182:-1 183:0.91673 186:-0.36317 187:-0.673727 190:0.638415 
1 1 1 1 174:-0.538991 178:-0.524192 181:0.304422 182:-1 183:0.304422 186:-0.979566 187:-0.680651 190:-0.698382 
1 1 1 1 174:-0.361073 178:-0.0820853 181:0.94109 182:-1 183:0.94109 186:-0.665605 187:-0.676539 190:0.199655 
1 1 0 1 174:-0.904084 178:-0.789095 181:-1 182:-1 183:-1 186:-1 187:-0.680168 190:-1 
1 1 0 1 174:-0.0480466 178:0.331154 181:0.966614 182:-1 183:0.966614 186:-0.246773 187:-0.673287 190:0.602164 
1 1 0 1 174:-0.799443 178:-0.613497 181:-1 182:-1 183:-1 186:-1 187:-0.680168 190:-1 
1 1 0 1 174:-0.853852 178:-0.767937 181:-1 182:-1 183:-1 186:-1 187:-0.680168 190:-1 
1 1 0 1 174:-0.851488 178:-0.691805 181:-1 182:-1 183:-1 186:-1 187:-0.680168 190:-1 
1 1 0 1 174:-0.859755 178:-0.655493 181:-1 182:-1 183:-1 186:-1 187:-0.680168 190:-1 
1 1 1 1 174:-0.465508 178:-0.136332 181:0.847588 182:-1 183:0.847588 186:-0.765726 187:-0.688591 190:0.0816656 
1 1 0 1 174:0.516302 178:0.180135 181:0.951502 182:-1 183:0.951502 186:0.51626 187:-0.679098 190:0.326226 
1 1 0 1 174:0.264694 178:0.263628 181:0.957399 182:-1 183:0.957399 186:0.241533 187:-0.683228 190:0.560717 
1 1 0 1 174:-0.724863 178:-0.401341 181:-1 182:-1 183:-1 186:-1 187:-0.680168 190:-1 
1 1 1 1 174:-0.288835 178:0.216013 181:0.869109 182:-1 183:0.869109 186:-0.449536 187:-0.675223 190:0.378036 
1 1 1 1 174:-0.409278 178:-0.0630057 181:0.907025 182:-1 183:0.907025 186:-0.664055 187:-0.679699 190:0.294141 
1 1 1 1 174:-0.265832 178:-0.122139 181:0.892476 182:-1 183:0.892476 186:-0.702133 187:-0.684656 190:0.183224 
1 1 1 1 174:-0.453072 178:0.174665 181:0.85129 182:-1 183:0.85129 186:-0.630371 187:-0.691227 190:0.300605 
1 1 0 1 174:-0.776402 178:-0.60814 181:-1 182:-1 183:-1 186:-1 187:-0.680168 190:-1 
1 1 1 1 174:-0.376138 178:-0.283755 181:0.857182 182:-1 183:0.857182 186:-0.816847 187:-0.681496 190:-0.120465 
1 1 0 1 174:0.349786 178:0.352917 181:0.963526 182:-1 183:0.963526 186:0.268103 187:-0.681518 190:0.438579 
1 1 1 1 174:-0.221935 178:0.276677 181:0.951639 182:-1 183:0.951639 186:-0.367811 187:-0.675927 190:0.478848 
1 1 0 1 174:-0.105128 178:0.188055 181:0.893125 182:-1 183:0.893125 186:-0.261504 187:-0.677694 190:0.52281 
1 1 1 1 174:-0.149701 178:-0.223923 181:0.95 182:-1 183:0.95 186:-0.512508 187:-0.67655 190:0.230269 
1 1 1 1 174:-0.234777 178:-0.394286 181:0.865568 182:-1 183:0.865568 186:-0.786911 187:-0.683501 190:-0.024273 
1 1 0 1 174:-0.582548 178:-0.456201 181:-1 182:-1 183:-1 186:-1 187:-0.680168 190:-1 
1 1 0 1 174:0.528394 178:0.15621 181:0.969764 182:-1 183:0.969764 186:0.433447 187:-0.682911 190:0.266833 
1 1 1 1 174:0.648208 178:-0.0564747 181:0.966746 182:-1 183:0.966746 186:0.637293 187:-0.676935 190:-0.012268 
1 1 0 1 174:0.549394 178:0.141818 181:0.950197 182:-1 183:0.950197 186:0.548316 187:-0.68247 190:0.180098 
1 1 0 1 174:-0.741453 178:-0.708704 181:-1 182:-1 183:-1 186:-1 187:-0.680168 190:-1 
1 1 0 1 174:0.4617 178:0.343363 181:0.957399 182:-1 183:0.957399 186:0.416489 187:-0.680455 190:0.338109 
1 1 0 1 174:0.521759 178:0.299396 181:0.938324 182:-1 183:0.938324 186:0.506849 187:-0.675243 190:0.439867 
1 1 0.5753822362556233 1 174:-0.310867 178:0.00541763 181:0.922524 182:-1 183:0.922524 186:-0.634191 187:-0.681423 190:0.272925 
1 1 1 1 174:-0.370984 178:-0.257937 181:0.963786 182:-1 183:0.963786 186:-0.763014 187:-0.678262 190:0.0884144 
1 1 1 1 174:-0.544059 178:-0.730317 181:-1 182:-1 183:-1 186:-1 187:-0.680168 190:-1 
1 1 0 1 174:0.369186 178:0.223443 181:0.954049 182:-1 183:0.954049 186:0.437659 187:-0.672609 190:0.33258 
1 1 1 1 174:0.0929525 178:0.144954 181:0.95683 182:-1 183:0.95683 186:-0.025153 187:-0.676869 190:0.5685 
1 1 0 1 174:0.509507 178:0.357246 181:0.959849 182:-1 183:0.959849 186:0.420554 187:-0.674446 190:0.470317 
1 1 1 1 174:0.359526 178:0.406075 181:0.960048 182:-1 183:0.960048 186:0.22123 187:-0.672112 190:0.713741 
1 1 1 1 174:-0.0169962 178:0.278065 181:0.692426 182:-1 183:0.692426 186:-0.437011 187:-0.71181 190:0.446467 
-1 0 0 1 174:0.349911 178:0.0996256 181:0.970158 182:-1 183:0.970158 186:0.136818 187:-0.679146 190:0.670567 
-1 1 1 1 174:-0.0229579 178:0.0138278 181:0.950781 182:-1 183:0.950781 186:-0.163363 187:-0.662896 190:0.623351 
-1 1 1 1 174:0.421254 178:0.408155 181:0.917458 182:-1 183:0.917458 186:0.337027 187:-0.688295 190:0.460158 
-0 1 1 1 174:-0.269058 178:0.114545 181:0.966414 182:-1 183:0.966414 186:-0.463285 187:-0.680941 190:0.494218 
-1 1 0.8595278232641881 1 174:0.645568 178:-0.0816514 181:0.923072 182:-1 183:0.923072 186:0.670003 187:-0.682569 190:-0.0343447 
-1 1 0 1 174:-0.448745 178:-0.288742 181:0.874221 182:-1 183:0.874221 186:-0.864136 187:-0.68687 190:-0.140075 
-1 1 1 1 174:-0.400676 178:-0.234214 181:0.894915 182:-1 183:0.894915 186:-0.728697 187:-0.687224 190:0.152505 
-1 1 0 1 174:-0.389795 178:-0.262403 181:0.846736 182:-1 183:0.846736 186:-0.837168 187:-0.680455 190:-0.154956 
-1 1 0 1 174:0.641861 178:0.0966226 181:0.944653 182:-1 183:0.944653 186:0.5887 187:-0.681736 190:0.198259 
-1 1 0 1 174:0.331095 178:0.168966 181:0.862487 182:-1 183:0.862487 186:0.123522 187:-0.670577 190:0.61681 
-1 1 1 1 174:-0.0533987 178:0.0162426 181:0.855962 182:-1 183:0.855962 186:-0.277208 187:-0.690763 190:0.49352 
-1 1 1 1 174:-0.532906 178:0.100108 181:0.915636 182:-1 183:0.915636 186:-0.702197 187:-0.677958 190:0.243632 
-1 1 1 1 174:-0.42266 178:0.265245 181:0.935892 182:-1 183:0.935892 186:-0.608443 187:-0.684527 190:0.360213 
-1 1 0 1 174:-0.789404 178:-0.580884 181:-1 182:-1 183:-1 186:-1 187:-0.680168 190:-1 
-1 1 0 1 174:-0.847855 178:-0.825378 181:-1 182:-1 183:-1 186:-1 187:-0.680168 190:-1 
-1 1 0 1 174:0.324479 178:0.334082 181:0.967688 182:-1 183:0.967688 186:0.205568 187:-0.679673 190:0.565748 
-1 1 0 1 174:0.195552 178:0.181533 181:0.966746 182:-1 183:0.966746 186:0.187306 187:-0.679012 190:0.584937 
-0 1 0 1 174:-0.551291 178:-0.401946 181:0.875305 182:-1 183:0.875305 186:-0.915666 187:-0.681222 190:-0.293949 
-0.3758785303403025 1 0 1 174:-0.526261 178:-0.498844 181:0.869104 182:-1 183:0.869104 186:-0.939679 187:-0.680934 190:-0.440979 
-1 1 1 1 174:-0.397438 178:-0.127012 181:0.927088 182:-1 183:0.927088 186:-0.711372 187:-0.692238 190:0.205484 
-1 1 0 1 174:-0.67745 178:-0.433905 181:0.745674 182:-1 183:0.745674 186:-0.942767 187:-0.678007 190:-0.493072 
-1 1 0.5968283253234991 1 174:-0.678691 178:-0.519268 181:0.209038 182:-1 183:0.209038 186:-0.98563 187:-0.68023 190:-0.768505 
-1 1 1 1 174:-0.483116 178:-0.546826 181:0.72574 182:-1 183:0.72574 186:-0.962035 187:-0.680826 190:-0.581 
-0.1997016198236941 1 1 1 174:-0.619624 178:-0.142555 181:0.882506 182:-1 183:0.882506 186:-0.851942 187:-0.681099 190:-0.0568213 
-1 1 1 1 174:-0.524007 178:-0.343568 181:0.601193 182:-1 183:0.601193 186:-0.914604 187:-0.680748 190:-0.379132 
-0 1 0 1 174:-0.640842 178:-0.550192 181:0.744736 182:-1 183:0.744736 186:-0.96896 187:-0.681678 190:-0.58778 
-0 1 0.2253667903933616 1 174:-0.693429 178:-0.379318 181:0.713471 182:-1 183:0.713471 186:-0.935694 187:-0.679207 190:-0.429929 
-1 1 0 1 174:-0.519974 178:-0.505222 181:-0.0972221 182:-1 183:-0.0972221 186:-0.980689 187:-0.680003 190:-0.763176 
-0 1 0 1 174:-0.650448 178:-0.375947 181:0.877498 182:-1 183:0.877498 186:-0.91878 187:-0.680441 190:-0.338309 
-1 1 0 1 174:-0.782146 178:-0.783602 181:-1 182:-1 183:-1 186:-1 187:-0.680168 190:-1 
-1 1 0 1 174:-0.337607 178:0.063277 181:0.960042 182:-1 183:0.960042 186:-0.65945 187:-0.672289 190:0.250758 
-1 1 0 1 174:-0.657526 178:-0.802572 181:-1 182:-1 183:-1 186:-1 187:-0.680168 190:-1 
-1 1 0 1 174:-0.630543 178:-0.775474 181:-1 182:-1 183:-1 186:-1 187:-0.680168 190:-1 
-0 1 0 1 174:-0.617758 178:-0.819462 181:-1 182:-1 183:-1 186:-1 187:-0.680168 190:-1 
-1 1 0 1 174:-0.666059 178:-0.801974 181:-1 182:-1 183:-1 186:-1 187:-0.680168 190:-1 
-1 1 0 1 174:-0.633721 178:-0.535493 181:0.752485 182:-1 183:0.752485 186:-0.957153 187:-0.680145 190:-0.511536 
-0 1 0 1 174:-0.572686 178:-0.786408 181:-1 182:-1 183:-1 186:-1 187:-0.680168 190:-1 
-0 1 0.8709433909161272 1 174:-0.568182 178:-0.800768 181:-1 182:-1 183:-1 186:-1 187:-0.680168 190:-1 
-1 1 0 1 174:-0.67693 178:-0.817297 181:-1 182:-1 183:-1 186:-1 187:-0.680168 190:-1 
-0 1 0 1 174:-0.617377 178:-0.844755 181:-1 182:-1 183:-1 186:-1 187:-0.680168 190:-1 
-0 1 0 1 174:-0.63888 178:-0.84162 181:-1 182:-1 183:-1 186:-1 187:-0.680168 190:-1 
-1 1 0 1 174:-0.694138 178:-0.781978 181:-1 182:-1 183:-1 186:-1 187:-0.680168 190:-1 
-0 1 1 1 174:-0.646585 178:-0.643869 181:0.86325 182:-1 183:0.86325 186:-0.981193 187:-0.680384 190:-0.704433 
-1 1 0 1 174:-0.631821 178:-0.794115 181:-1 182:-1 183:-1 186:-1 187:-0.680168 190:-1 
-0 1 0.2745056046069226 1 174:-0.605974 178:-0.84342 181:-1 182:-1 183:-1 186:-1 187:-0.680168 190:-1 
-0 1 0 1 174:-0.597507 178:-0.670283 181:0.24097 182:-1 183:0.24097 186:-0.984737 187:-0.680031 190:-0.748536 
-0 1 0 1 174:-0.595717 178:-0.801661 181:-1 182:-1 183:-1 186:-1 187:-0.680168 190:-1 
-0 1 0 1 174:-0.594247 178:-0.82108 181:-1 182:-1 183:-1 186:-1 187:-0.680168 190:-1 
-0 1 0 1 174:-0.57173 178:-0.789974 181:-1 182:-1 183:-1 186:-1 187:-0.680168 190:-1 
-0 1 0 1 174:-0.488982 178:-0.722083 181:-0.185854 182:-1 183:-0.185854 186:-0.994908 187:-0.680278 190:-0.88033 
-0 1 0 1 174:-0.602284 178:-0.800129 181:-1 182:-1 183:-1 186:-1 187:-0.680168 190:-1 
-1 1 0 1 174:-0.636448 178:-0.576348 181:-1 182:-1 183:-1 186:-1 187:-0.680168 190:-1 
-1 1 0 1 174:-0.615417 178:-0.68959 181:-1 182:-1 183:-1 186:-1 187:-0.680168 190:-1 
-1 0 1 1 174:-0.0675549 178:0.337404 181:0.946919 182:-1 183:0.946919 186:-0.28735 187:-0.676637 190:0.646332 
-1 0 0 1 174:-0.0757788 178:0.28601 181:0.963526 182:-1 183:0.963526 186:-0.233831 187:-0.682691 190:0.605899 
-0 0 1 1 174:-0.264707 178:0.142782 181:0.963331 182:-1 183:0.963331 186:-0.461188 187:-0.681853 190:0.510503 
-1 0 1 1 174:0.0677795 178:0.369039 181:0.979747 182:-1 183:0.979747 186:-0.028888 187:-0.67685 190:0.655169 
-1 1 0 1 174:-0.548961 178:-0.636406 181:-1 182:-1 183:-1 186:-1 187:-0.680168 190:-1 
-1 1 1 1 174:-0.539478 178:-0.64885 181:-1 182:-1 183:-1 186:-1 187:-0.680168 190:-1 
-1 1 0 1 174:-0.775264 178:-0.704065 181:-1 182:-1 183:-1 186:-1 187:-0.680168 190:-1 
-1 0 0 1 174:-0.0449468 178:0.268436 181:0.979747 182:-1 183:0.979747 186:-0.238474 187:-0.675654 190:0.632525 
-0 1 1 1 174:-0.557844 178:-0.182582 181:0.918859 182:-1 183:0.918859 186:-0.846417 187:-0.67679 190:-0.162245 
-1 1 0 1 174:0.0111449 178:0.0384199 181:0.943817 182:-1 183:0.943817 186:-0.143793 187:-0.680216 190:0.615612 
-1 1 1 1 174:-0.283267 178:-0.0917295 181:0.866111 182:-1 183:0.866111 186:-0.579687 187:-0.681573 190:0.318455 
-1 1 1 1 174:-0.512336 178:0.132973 181:0.957399 182:-1 183:0.957399 186:-0.696979 187:-0.680215 190:0.250239 
-1 1 0 1 174:-0.195406 178:0.166697 181:0.944653 182:-1 183:0.944653 186:-0.449413 187:-0.676435 190:0.441517 
-1 1 0 1 174:-0.176092 178:0.222656 181:0.898266 182:-1 183:0.898266 186:-0.419331 187:-0.675889 190:0.422181 
-1 1 0 1 174:-0.236882 178:0.295728 181:0.910807 182:-1 183:0.910807 186:-0.444873 187:-0.677069 190:0.479295 
-1 1 0 1 174:-0.344 178:-0.00284107 181:0.879745 182:-1 183:0.879745 186:-0.660891 187:-0.677448 190:0.176258 
-1 1 0 1 174:-0.402602 178:-0.195694 181:0.919048 182:-1 183:0.919048 186:-0.816778 187:-0.679797 190:-0.0926107 
-1 1 0 1 174:-0.0975204 178:0.162332 181:0.916654 182:-1 183:0.916654 186:-0.346842 187:-0.681939 190:0.525244 
-1 1 1 1 174:-0.390382 178:0.129559 181:0.976464 182:-1 183:0.976464 186:-0.626576 187:-0.677117 190:0.335456 
-1 1 1 1 174:-0.17775 178:-0.238586 181:0.977402 182:-1 183:0.977402 186:-0.555004 187:-0.682748 190:0.24681 
-1 1 0 1 174:-0.431066 178:-0.316135 181:0.899414 182:-1 183:0.899414 186:-0.861927 187:-0.679986 190:-0.267512 
-0 1 0 1 174:-0.171399 178:0.0186426 181:0.976791 182:-1 183:0.976791 186:-0.462406 187:-0.681221 190:0.399148 
-1 1 0 1 174:-0.0616462 178:-0.103448 181:0.934981 182:-1 183:0.934981 186:-0.443757 187:-0.681589 190:0.42114 
-1 1 1 1 174:-0.0975214 178:0.31785 181:0.921855 182:-1 183:0.921855 186:-0.245431 187:-0.674324 190:0.675118 
-1 1 0 1 174:-0.734047 178:-0.66058 181:-1 182:-1 183:-1 186:-1 187:-0.680168 190:-1 
-1 1 1 1 174:-0.726449 178:-0.300638 181:0.766308 182:-1 183:0.766308 186:-0.944159 187:-0.681978 190:-0.450471 
-0 1 0 1 174:-0.398036 178:-0.666054 181:0.0212453 182:-1 183:0.0212453 186:-0.967088 187:-0.682166 190:-0.682919 
-1 1 0.4031716746765009 1 174:-0.204413 178:-0.470695 181:0.964768 182:-1 183:0.964768 186:-0.824682 187:-0.680294 190:-0.130543 
-1 1 0 1 174:-0.195689 178:-0.368309 181:0.976397 182:-1 183:0.976397 186:-0.754167 187:-0.680427 190:0.0796621 
-1 1 1 1 174:-0.0650357 178:-0.336669 181:0.937957 182:-1 183:0.937957 186:-0.573275 187:-0.679423 190:0.382727 
-1 0 0 1 174:0.0942183 178:0.196906 181:0.970091 182:-1 183:0.970091 186:-0.108529 187:-0.676562 190:0.570545 
-1 1 0 1 174:-0.474986 178:-0.209508 181:0.835582 182:-1 183:0.835582 186:-0.828108 187:-0.681201 190:-0.0719271 
-0 1 1 1 174:-0.656495 178:-0.61146 181:0.0974066 182:-1 183:0.0974066 186:-0.994696 187:-0.680196 190:-0.858237 
-1 1 0 1 174:-0.38722 178:-0.493227 181:0.811361 182:-1 183:0.811361 186:-0.900288 187:-0.681421 190:-0.355169 
-1 1 1 1 174:0.491397 178:0.274268 181:0.964768 182:-1 183:0.964768 186:0.463673 187:-0.681425 190:0.300565 
-1 1 0 1 174:-0.553865 178:-0.516948 181:-1 182:-1 183:-1 186:-1 187:-0.680168 190:-1 
-1 1 1 1 174:0.00534777 178:-0.304225 181:0.95 182:-1 183:0.95 186:-0.31611 187:-0.678502 190:0.369539 
-1 1 0 1 174:-0.143225 178:0.198783 181:0.950957 182:-1 183:0.950957 186:-0.356499 187:-0.689336 190:0.526011 
-0 1 0 1 174:-0.265463 178:0.175009 181:0.924949 182:-1 183:0.924949 186:-0.563895 187:-0.68731 190:0.349122 
-1 1 1 1 174:-0.42655 178:-0.0568842 181:0.921003 182:-1 183:0.921003 186:-0.730066 187:-0.678655 190:0.0908666 
-1 1 1 1 174:-0.711067 178:-0.487255 181:0.217285 182:-1 183:0.217285 186:-0.996227 187:-0.680143 190:-0.873934 
-1 1 0 1 174:-0.0472955 178:0.154403 181:0.9415 182:-1 183:0.9415 186:-0.284003 187:-0.680191 190:0.495777 
-1 1 0 1 174:-0.233614 178:-0.0165815 181:0.931198 182:-1 183:0.931198 186:-0.5155 187:-0.682966 190:0.318646 
-0 1 1 1 174:-0.643795 178:-0.384599 181:0.857128 182:-1 183:0.857128 186:-0.928315 187:-0.680809 190:-0.454783 
-0 1 1 1 174:-0.494622 178:-0.280959 181:0.950195 182:-1 183:0.950195 186:-0.889503 187:-0.679414 190:-0.245502 
-1 1 0 1 174:-0.291331 178:0.0791523 181:0.963266 182:-1 183:0.963266 186:-0.562143 187:-0.675631 190:0.337679 
-0 1 1 1 174:-0.653589 178:-0.247165 181:0.920824 182:-1 183:0.920824 186:-0.918073 187:-0.67994 190:-0.373143 
-1 1 0 1 174:-0.896967 178:-0.790326 181:-1 182:-1 183:-1 186:-1 187:-0.680168 190:-1 
-1 1 1 1 174:-0.467416 178:-0.150792 181:0.931273 182:-1 183:0.931273 186:-0.863054 187:-0.678888 190:-0.171663 
-0 1 0 1 174:-0.151704 178:0.0870541 181:0.957638 182:-1 183:0.957638 186:-0.488479 187:-0.682955 190:0.474791 
-1 1 0 1 174:0.262155 178:-0.05956 181:0.979747 182:-1 183:0.979747 186:0.0801443 187:-0.678054 190:0.655276 
-0 1 1 1 174:-0.563071 178:-0.115443 181:0.973698 182:-1 183:0.973698 186:-0.830804 187:-0.679256 190:-0.114926 
-1 1 1 1 174:-0.562266 178:0.165823 181:0.86012 182:-1 183:0.86012 186:-0.7664 187:-0.67848 190:0.0531768 
-1 1 0 1 174:-0.0522561 178:-0.00799787 181:0.966549 182:-1 183:0.966549 186:-0.33922 187:-0.681389 190:0.519037 
-0 1 1 1 174:-0.628233 178:-0.369532 181:0.872588 182:-1 183:0.872588 186:-0.957228 187:-0.680656 190:-0.573276 
-1 1 0 1 174:-0.419693 178:-0.29252 181:0.806963 182:-1 183:0.806963 186:-0.87586 187:-0.680147 190:-0.270547 
-0 1 1 1 174:-0.243609 178:0.0979649 181:0.963266 182:-1 183:0.963266 186:-0.426105 187:-0.685417 190:0.454336 
-1 1 0 1 174:-0.285935 178:-0.0319785 181:0.911947 182:-1 183:0.911947 186:-0.561627 187:-0.682214 190:0.240202 
-1 1 1 1 174:-0.711718 178:-0.27052 181:0.744386 182:-1 183:0.744386 186:-0.933865 187:-0.679957 190:-0.437731 
-1 1 0 1 174:-0.814231 178:-0.690843 181:-1 182:-1 183:-1 186:-1 187:-0.680168 190:-1 
-0 1 1 1 174:-0.61846 178:-0.631133 181:0.755063 182:-1 183:0.755063 186:-0.969719 187:-0.679646 190:-0.634599 
-1 1 0 1 174:-0.650645 178:-0.400042 181:0.720483 182:-1 183:0.720483 186:-0.923031 187:-0.67751 190:-0.384721 
-1 1 0 1 174:-0.595283 178:-0.659656 181:-1 182:-1 183:-1 186:-1 187:-0.680168 190:-1 
-1 1 1 1 174:-0.407097 178:-0.511962 181:0.231061 182:-1 183:0.231061 186:-0.960904 187:-0.68212 190:-0.620072 
-0 1 0 1 174:-0.580541 178:-0.78582 181:-1 182:-1 183:-1 186:-1 187:-0.680168 190:-1 
-0 1 0 1 174:-0.593461 178:-0.790001 181:-1 182:-1 183:-1 186:-1 187:-0.680168 190:-1 
-1 1 0 1 174:-0.559631 178:-0.700008 181:-1 182:-1 183:-1 186:-1 187:-0.680168 190:-1 
-1 1 0 1 174:-0.695227 178:-0.689963 181:-1 182:-1 183:-1 186:-1 187:-0.680168 190:-1 
-1 1 0 1 174:-0.717637 178:-0.74867 181:-1 182:-1 183:-1 186:-1 187:-0.680168 190:-1 
-0 1 0 1 174:-0.59882 178:-0.799812 181:-1 182:-1 183:-1 186:-1 187:-0.680168 190:-1 
-1 1 0 1 174:-0.91944 178:-0.866092 181:-1 182:-1 183:-1 186:-1 187:-0.680168 190:-1 
-0 1 0.1404721767358119 1 174:-0.987695 178:-0.976178 181:-1 182:-1 183:-1 186:-1 187:-0.680168 190:-1 
-0 1 1 1 174:-0.80344 178:-0.270254 181:0.765674 182:-1 183:0.765674 186:-0.93648 187:-0.679527 190:-0.471282 
-0 1 0 1 174:-0.984155 178:-0.968387 181:-1 182:-1 183:-1 186:-1 187:-0.680168 190:-1 
-0 1 0 1 174:-0.984888 178:-0.974338 181:-1 182:-1 183:-1 186:-1 187:-0.680168 190:-1 
-0 1 0 1 174:-0.98969 178:-0.971767 181:-1 182:-1 183:-1 186:-1 187:-0.680168 190:-1 
-0.4244198498360036 1 0 1 174:-0.984754 178:-0.965248 181:-1 182:-1 183:-1 186:-1 187:-0.680168 190:-1 
-0 1 1 1 174:-0.99685 178:-0.990365 181:-1 182:-1 183:-1 186:-1 187:-0.680168 190:-1 
-1 1 0 1 174:-0.967068 178:-0.951946 181:-1 182:-1 183:-1 186:-1 187:-0.680168 190:-1 
-1 1 0 1 174:-0.977417 178:-0.93692 181:-1 182:-1 183:-1 186:-1 187:-0.680168 190:-1 
-1 1 0 1 174:-0.952612 178:-0.927182 181:-1 182:-1 183:-1 186:-1 187:-0.680168 190:-1 
-1 1 1 1 174:-0.850473 178:-0.347238 181:0.801763 182:-1 183:0.801763 186:-0.95282 187:-0.679688 190:-0.540048 
-0 1 0.7746332096066384 1 174:-0.989996 178:-0.97313 181:-1 182:-1 183:-1 186:-1 187:-0.680168 190:-1 
-1 1 0 1 174:-0.605432 178:-0.55191 181:0.247024 182:-1 183:0.247024 186:-0.974297 187:-0.68085 190:-0.682665 
-1 1 0 1 174:-0.769967 178:-0.728838 181:-1 182:-1 183:-1 186:-1 187:-0.680168 190:-1 
-1 1 1 1 174:-0.794945 178:-0.497399 181:-1 182:-1 183:-1 186:-1 187:-0.680168 190:-1 
-1 1 0.1290566090838728 1 174:-0.894742 178:-0.74749 181:-1 182:-1 183:-1 186:-1 187:-0.680168 190:-1 
-0 1 0.7254943953930774 1 174:-0.195078 178:0.105478 181:0.989797 182:-1 183:0.989797 186:-0.472885 187:-0.680483 190:0.479372 
-1 1 0 1 174:0.196766 178:0.317787 181:0.934029 182:-1 183:0.934029 186:0.0788259 187:-0.680682 190:0.604472 
-1 0 0 1 174:0.127389 178:0.296471 181:0.961418 182:-1 183:0.961418 186:0.00498039 187:-0.674584 190:0.628649 
-0 1 1 1 174:-0.517795 178:0.0888131 181:0.94779 182:-1 183:0.94779 186:-0.720859 187:-0.683419 190:0.199313 
-1 0 0 1 174:0.154643 178:0.231163 181:0.979946 182:-1 183:0.979946 186:0.0205341 187:-0.671856 190:0.588517 
-1 1 0 1 174:-0.311724 178:-0.00885724 181:0.944133 182:-1 183:0.944133 186:-0.609482 187:-0.680146 190:0.341953 
-1 1 0 1 174:0.0732502 178:0.191789 181:0.970664 182:-1 183:0.970664 186:-0.133919 187:-0.678373 190:0.557021 
-1 0 1 1 174:-0.0999509 178:0.29929 181:0.957399 182:-1 183:0.957399 186:-0.254303 187:-0.679936 190:0.63357 
-0 1 1 1 174:-0.702332 178:-0.315681 181:0.872104 182:-1 183:0.872104 186:-0.913096 187:-0.679509 190:-0.324198 
-1 0 0 1 174:0.00751132 178:0.33737 181:0.983164 182:-1 183:0.983164 186:-0.215442 187:-0.672967 190:0.639723 
-1 1 1 1 174:0.00102119 178:-0.117063 181:0.960988 182:-1 183:0.960988 186:-0.312354 187:-0.687232 190:0.44572 
-1 1 0 1 174:0.0353679 178:-0.0242691 181:0.989797 182:-1 183:0.989797 186:-0.17571 187:-0.683735 190:0.518286 
-0 1 1 1 174:-0.752621 178:-0.519912 181:0.497309 182:-1 183:0.497309 186:-0.973121 187:-0.679604 190:-0.666613 
-0 1 0 1 174:-0.659564 178:-0.309065 181:0.868911 182:-1 183:0.868911 186:-0.911507 187:-0.680942 190:-0.282864 
-0 1 0 1 174:-0.626514 178:-0.238215 181:0.852533 182:-1 183:0.852533 186:-0.908317 187:-0.680902 190:-0.274491 
-1 1 0 1 174:-0.824532 178:-0.688212 181:-1 182:-1 183:-1 186:-1 187:-0.680168 190:-1 
-0 1 1 1 174:-0.518121 178:-0.781433 181:-1 182:-1 183:-1 186:-1 187:-0.680168 190:-1 
-1 -1 0 1 174:-0.555135 178:-0.566144 181:0.262501 182:-1 183:0.262501 186:-0.981246 187:-0.680429 190:-0.715884 
-1 -1 1 1 174:-0.63054 178:-0.475794 181:0.645903 182:-1 183:0.645903 186:-0.948962 187:-0.680052 190:-0.48916 
-0 -1 1 1 174:-0.989645 178:-0.971796 181:-1 182:-1 183:-1 186:-1 187:-0.680168 190:-1 
-0 -1 0 1 174:-0.484885 178:-0.735415 181:-1 182:-1 183:-1 186:-1 187:-0.680168 190:-1 
-1 -1 0 1 174:-0.519232 178:-0.711045 181:-1 182:-1 183:-1 186:-1 187:-0.680168 190:-1 
-0 -1 0 1 174:-0.57416 178:-0.736668 181:-1 182:-1 183:-1 186:-1 187:-0.680168 190:-1 
-0 -1 0 1 174:-0.553272 178:-0.735053 181:-1 182:-1 183:-1 186:-1 187:-0.680168 190:-1 
-0 -1 0 1 174:-0.540826 178:-0.738391 181:-1 182:-1 183:-1 186:-1 187:-0.680168 190:-1 
-1 -1 0 1 174:-0.531833 178:-0.606612 181:0.114897 182:-1 183:0.114897 186:-0.971953 187:-0.679985 190:-0.674922 
-0 -1 0 1 174:-0.542653 178:-0.767262 181:-1 182:-1 183:-1 186:-1 187:-0.680168 190:-1 
-0 -1 0 1 174:-0.5665 178:-0.673429 181:0.799879 182:-1 183:0.799879 186:-0.9727 187:-0.679476 190:-0.614991 
-0 -1 0 1 174:-0.5969 178:-0.797041 181:-1 182:-1 183:-1 186:-1 187:-0.680168 190:-1 
-1 -1 0 1 174:-0.367102 178:-0.623409 181:0.482352 182:-1 183:0.482352 186:-0.941566 187:-0.680882 190:-0.504398 
-0 -1 0 1 174:-0.535842 178:-0.765727 181:-1 182:-1 183:-1 186:-1 187:-0.680168 190:-1 
-0 -1 0 1 174:-0.478169 178:-0.742833 181:-1 182:-1 183:-1 186:-1 187:-0.680168 190:-1 
-0 -1 1 1 174:-0.445665 178:-0.728024 181:-1 182:-1 183:-1 186:-1 187:-0.680168 190:-1 
-0 -1 1 1 174:-0.503378 178:-0.778961 181:-1 182:-1 183:-1 186:-1 187:-0.680168 190:-1 
-0 -1 0 1 174:-0.562724 178:-0.784734 181:-1 182:-1 183:-1 186:-1 187:-0.680168 190:-1 
-0 -1 0 1 174:-0.557265 178:-0.77848 181:-1 182:-1 183:-1 186:-1 187:-0.680168 190:-1 
-1 -1 0 1 174:-0.655687 178:-0.760786 181:-1 182:-1 183:-1 186:-1 187:-0.680168 190:-1 
-1 -1 0 1 174:-0.652972 178:-0.699404 181:-1 182:-1 183:-1 186:-1 187:-0.680168 190:-1 
-1 -1 0 1 174:-0.535335 178:-0.693417 181:-1 182:-1 183:-1 186:-1 187:-0.680168 190:-1 
-1 -1 0 1 174:-0.83181 178:-0.759632 181:-1 182:-1 183:-1 186:-1 187:-0.680168 190:-1 
-0 -1 1 1 174:-0.671689 178:-0.37114 181:0.895321 182:-1 183:0.895321 186:-0.978108 187:-0.679897 190:-0.683532 
-0 -1 1 1 174:-0.730607 178:-0.569436 181:0.765735 182:-1 183:0.765735 186:-0.967988 187:-0.680204 190:-0.569484 
-0 -1 0 1 174:-0.794689 178:-0.824322 181:-1 182:-1 183:-1 186:-1 187:-0.680168 190:-1 
-1 -1 0 1 174:-0.766703 178:-0.673924 181:-1 182:-1 183:-1 186:-1 187:-0.680168 190:-1 
-1 -1 1 1 174:-0.688534 178:-0.416607 181:0.857867 182:-1 183:0.857867 186:-0.929036 187:-0.682019 190:-0.409815 
-0 -1 1 1 174:-0.815994 178:-0.834354 181:-1 182:-1 183:-1 186:-1 187:-0.680168 190:-1 
-1 -1 0 1 174:-0.550159 178:-0.554815 181:-1 182:-1 183:-1 186:-1 187:-0.680168 190:-1 
-1 -1 0 1 174:-0.714881 178:-0.719728 181:-1 182:-1 183:-1 186:-1 187:-0.680168 190:-1 
-1 -1 0 1 174:-0.632274 178:-0.647727 181:-1 182:-1 183:-1 186:-1 187:-0.680168 190:-1 
-1 -1 1 1 174:-0.416166 178:-0.111919 181:0.896851 182:-1 183:0.896851 186:-0.768648 187:-0.686846 190:0.0617141 
-1 -1 1 1 174:-0.692044 178:-0.456745 181:0.882312 182:-1 183:0.882312 186:-0.960081 187:-0.679319 190:-0.485477 
-1 -1 0 1 174:-0.595529 178:-0.650122 181:-0.0344622 182:-1 183:-0.0344622 186:-0.992734 187:-0.680312 190:-0.844378 
-1 -1 0 1 174:-0.680009 178:-0.616745 181:-1 182:-1 183:-1 186:-1 187:-0.680168 190:-1 
-1 -1 0 1 174:-0.693947 178:-0.735218 181:-1 182:-1 183:-1 186:-1 187:-0.680168 190:-1 
-1 -1 1 1 174:-0.57043 178:-0.542645 181:-1 182:-1 183:-1 186:-1 187:-0.680168 190:-1 
-1 -1 0 1 174:-0.749387 178:-0.774182 181:-1 182:-1 183:-1 186:-1 187:-0.680168 190:-1 
-1 -1 0 1 174:-0.770582 178:-0.615898 181:-1 182:-1 183:-1 186:-1 187:-0.680168 190:-1 
-1 -1 0.702556244410208 1 174:-0.702748 178:-0.575923 181:-1 182:-1 183:-1 186:-1 187:-0.680168 190:-1 
-1 -1 0 1 174:-0.451677 178:-0.442278 181:0.772259 182:-1 183:0.772259 186:-0.922715 187:-0.679751 190:-0.443606 
-1 -1 1 1 174:-0.0575084 178:-0.402211 181:0.894572 182:-1 183:0.894572 186:-0.651843 187:-0.677487 190:0.102422 
-1 -1 1 1 174:-0.0721746 178:0.097431 181:0.966742 182:-1 183:0.966742 186:-0.352776 187:-0.677892 190:0.480364 
-1 -1 1 1 174:-0.0571553 178:-0.0192419 181:0.95374 182:-1 183:0.95374 186:-0.385061 187:-0.675443 190:0.398691 
-1 -1 0 1 174:-0.837733 178:-0.677025 181:-1 182:-1 183:-1 186:-1 187:-0.680168 190:-1 
-0 -1 1 1 174:-0.884584 178:-0.576275 181:0.802454 182:-1 183:0.802454 186:-0.977106 187:-0.680893 190:-0.637478 
-1 -1 1 1 174:0.123991 178:0.636602 181:0.973047 182:-1 183:0.973047 186:-0.0454788 187:-0.689799 190:0.733757 
-0.5171633211385638 -1 0 1 174:-0.520785 178:-0.559706 181:0.225395 182:-1 183:0.225395 186:-0.993923 187:-0.680137 190:-0.839575 
-1 -1 0 1 174:-0.705207 178:-0.656374 181:-1 182:-1 183:-1 186:-1 187:-0.680168 190:-1 
-1 -1 1 1 174:-0.260899 178:0.379065 181:0.944803 182:-1 183:0.944803 186:-0.416356 187:-0.675852 190:0.547229 
-1 -1 1 1 174:-0.425234 178:-0.0107713 181:0.963526 182:-1 183:0.963526 186:-0.670864 187:-0.683696 190:0.201006 
-1 -1 1 1 174:-0.337248 178:0.089251 181:0.960113 182:-1 183:0.960113 186:-0.544009 187:-0.682931 190:0.370959 
-1 -1 1 1 174:-0.204913 178:0.120914 181:0.94779 182:-1 183:0.94779 186:-0.409338 187:-0.683091 190:0.48743 
-0 -1 1 1 174:-0.76596 178:-0.509982 181:0.869309 182:-1 183:0.869309 186:-0.966306 187:-0.680836 190:-0.589587 
-1 -1 1 1 174:-0.143341 178:0.381916 181:0.966614 182:-1 183:0.966614 186:-0.401575 187:-0.68412 190:0.519552 
-1 -1 0 1 174:-0.479107 178:-0.323062 181:0.882981 182:-1 183:0.882981 186:-0.890294 187:-0.680092 190:-0.364832 
-1 -1 1 1 174:-0.513339 178:-0.281437 181:0.844937 182:-1 183:0.844937 186:-0.851842 187:-0.681496 190:-0.191311 
-1 -1 0 1 174:-0.557959 178:-0.442809 181:0.912284 182:-1 183:0.912284 186:-0.92451 187:-0.680065 190:-0.410312 
-1 -1 1 1 174:-0.58018 178:-0.386939 181:0.776527 182:-1 183:0.776527 186:-0.932824 187:-0.68066 190:-0.451725 
-1 -1 0 1 174:-0.686114 178:-0.652947 181:-1 182:-1 183:-1 186:-1 187:-0.680168 190:-1 
-0 -1 0 1 174:-0.498969 178:-0.740846 181:-1 182:-1 183:-1 186:-1 187:-0.680168 190:-1 
-1 -1 1 1 174:-0.330364 178:0.000446664 181:0.922912 182:-1 183:0.922912 186:-0.593867 187:-0.68476 190:0.304836 
-1 -1 1 1 174:-0.241866 178:0.00622373 181:0.929538 182:-1 183:0.929538 186:-0.521284 187:-0.680182 190:0.340399 
-1 -1 1 1 174:-0.0546755 178:0.299239 181:0.950383 182:-1 183:0.950383 186:-0.234325 187:-0.680197 190:0.588354 
-1 -1 1 1 174:-0.195949 178:-0.175223 181:0.973698 182:-1 183:0.973698 186:-0.587078 187:-0.681027 190:0.209759 
-1 -1 1 1 174:-0.512983 178:-0.300216 181:0.922365 182:-1 183:0.922365 186:-0.901696 187:-0.680814 190:-0.367882 
-1 -1 1 1 174:-0.335982 178:-0.241477 181:0.909126 182:-1 183:0.909126 186:-0.6831 187:-0.680558 190:0.0367019 
-1 -1 1 1 174:-0.0298014 178:0.0826679 181:0.93815 182:-1 183:0.93815 186:-0.236924 187:-0.678756 190:0.404379 
-0 -1 0 1 174:-0.867031 178:-0.680456 181:0.187289 182:-1 183:0.187289 186:-0.994602 187:-0.680256 190:-0.851232 
-1 -1 1 1 174:-0.599245 178:-0.062218 181:0.776493 182:-1 183:0.776493 186:-0.833382 187:-0.678215 190:-0.203008 
-1 -1 1 1 174:-0.0824742 178:0.201511 181:0.938293 182:-1 183:0.938293 186:-0.33647 187:-0.683714 190:0.522792 
-0 -1 0 1 174:-0.551433 178:-0.763066 181:-1 182:-1 183:-1 186:-1 187:-0.680168 190:-1 
-1 -1 0 1 174:-0.453402 178:-0.693223 181:-1 182:-1 183:-1 186:-1 187:-0.680168 190:-1 
-1 -1 0 1 174:-0.656661 178:-0.781604 181:-1 182:-1 183:-1 186:-1 187:-0.680168 190:-1 
-0 -1 0 1 174:-0.591753 178:-0.768944 181:-1 182:-1 183:-1 186:-1 187:-0.680168 190:-1 
-1 -1 0 1 174:-0.798084 178:-0.634165 181:-1 182:-1 183:-1 186:-1 187:-0.680168 190:-1 
-1 -1 0 1 174:-0.846532 178:-0.641234 181:-1 182:-1 183:-1 186:-1 187:-0.680168 190:-1 
-1 -1 0 1 174:-0.240174 178:-0.396652 181:0.834822 182:-1 183:0.834822 186:-0.856872 187:-0.680168 190:-0.119085 
-1 -1 1 1 174:-0.634188 178:-0.592084 181:-0.0127733 182:-1 183:-0.0127733 186:-0.991046 187:-0.679955 190:-0.825705 
-1 -1 1 1 174:-0.665425 178:-0.510501 181:0.21003 182:-1 183:0.21003 186:-0.970708 187:-0.680629 190:-0.661394 
-1 -1 0 1 174:-0.65627 178:-0.510112 181:0.247956 182:-1 183:0.247956 186:-0.988344 187:-0.67981 190:-0.776427 
-1 -1 1 1 174:-0.493073 178:-0.208224 181:0.956948 182:-1 183:0.956948 186:-0.846574 187:-0.677416 190:-0.149183 
-1 -1 1 1 174:-0.463327 178:-0.196804 181:0.87463 182:-1 183:0.87463 186:-0.808293 187:-0.682246 190:-0.0762744 
-1 -1 0 1 174:-0.490765 178:-0.500661 181:0.278088 182:-1 183:0.278088 186:-0.970064 187:-0.679953 190:-0.660935 
-1 -1 0 1 174:-0.491612 178:-0.443521 181:0.794229 182:-1 183:0.794229 186:-0.939091 187:-0.679368 190:-0.514939 
-1 -1 0.297443755589792 1 174:-0.410171 178:-0.379875 181:0.778521 182:-1 183:0.778521 186:-0.807512 187:-0.680394 190:-0.167432 
-1 -1 1 1 174:-0.465055 178:-0.375654 181:0.892937 182:-1 183:0.892937 186:-0.867901 187:-0.682515 190:-0.250671 
-1 -1 1 1 174:-0.308858 178:0.0406292 181:0.858231 182:-1 183:0.858231 186:-0.580581 187:-0.682448 190:0.296025 
-1 -1 1 1 174:-0.737099 178:-0.628442 181:0.032446 182:-1 183:0.032446 186:-0.978945 187:-0.680418 190:-0.728161 
-1 -1 0 1 174:-0.58059 178:-0.505383 181:0.652098 182:-1 183:0.652098 186:-0.955663 187:-0.6806 190:-0.562048 
-1 -1 0 1 174:-0.596387 178:-0.550437 181:0.277847 182:-1 183:0.277847 186:-0.966907 187:-0.681076 190:-0.648642 
-1 -1 1 1 174:-0.591932 178:-0.461772 181:0.236787 182:-1 183:0.236787 186:-0.956372 187:-0.68035 190:-0.592616 
-1 -1 0 1 174:-0.452243 178:-0.45203 181:0.626126 182:-1 183:0.626126 186:-0.89536 187:-0.678815 190:-0.374192 
-1 -1 0 1 174:-0.548196 178:-0.510563 181:0.267793 182:-1 183:0.267793 186:-0.987408 187:-0.680537 190:-0.765864 
-1 -1 0 1 174:-0.312126 178:-0.407757 181:0.9415 182:-1 183:0.9415 186:-0.806804 187:-0.680111 190:-0.152278 
-1 -1 1 1 174:-0.417412 178:-0.383273 181:0.898095 182:-1 183:0.898095 186:-0.811883 187:-0.680336 190:-0.159215 
-1 -1 0 1 174:-0.349822 178:-0.435079 181:0.858146 182:-1 183:0.858146 186:-0.868969 187:-0.680453 190:-0.28632 
-1 -1 0 1 174:-0.327605 178:-0.375727 181:0.751956 182:-1 183:0.751956 186:-0.844376 187:-0.680977 190:-0.16557 
-1 -1 1 1 174:-0.282194 178:-0.171342 181:0.905304 182:-1 183:0.905304 186:-0.64431 187:-0.678986 190:0.193069 
-1 -1 0 1 174:-0.677617 178:-0.721693 181:-1 182:-1 183:-1 186:-1 187:-0.680168 190:-1 
-1 -1 0 1 174:-0.767822 178:-0.604972 181:-1 182:-1 183:-1 186:-1 187:-0.680168 190:-1 
-0 -1 0.4655943898575668 1 174:-0.887854 178:-0.896929 181:-1 182:-1 183:-1 186:-1 187:-0.680168 190:-1 
-1 -1 1 1 174:-0.435651 178:-0.335223 181:0.787119 182:-1 183:0.787119 186:-0.869414 187:-0.681695 190:-0.219644 
-1 -1 1 1 174:-0.447073 178:-0.130202 181:0.905328 182:-1 183:0.905328 186:-0.783766 187:-0.675247 190:-0.0586418 
-1 -1 0 1 174:-0.571308 178:-0.508638 181:0.581514 182:-1 183:0.581514 186:-0.974365 187:-0.680585 190:-0.668291 
-1 -1 1 1 174:-0.474089 178:-0.492604 181:0.249076 182:-1 183:0.249076 186:-0.92209 187:-0.680099 190:-0.465979 
-1 -1 0 1 174:-0.478191 178:-0.420862 181:0.70995 182:-1 183:0.70995 186:-0.926668 187:-0.680547 190:-0.431123 
-1 -1 1 1 174:-0.411487 178:-0.143229 181:0.922368 182:-1 183:0.922368 186:-0.768654 187:-0.682352 190:0.0437243 
-0 -1 0 1 174:-0.667717 178:-0.534246 181:0.739102 182:-1 183:0.739102 186:-0.978172 187:-0.680161 190:-0.678674 
-1 -1 0 1 174:-0.470364 178:-0.393016 181:0.841228 182:-1 183:0.841228 186:-0.875823 187:-0.680162 190:-0.283833 
-1 -1 0 1 174:-0.6071 178:-0.692568 181:-1 182:-1 183:-1 186:-1 187:-0.680168 190:-1 
-1 -1 0 1 174:-0.600345 178:-0.655883 181:-1 182:-1 183:-1 186:-1 187:-0.680168 190:-1 
-1 -1 0 1 174:-0.56118 178:-0.705413 181:-1 182:-1 183:-1 186:-1 187:-0.680168 190:-1 
-0 -1 0 1 174:-0.522305 178:-0.725643 181:-1 182:-1 183:-1 186:-1 187:-0.680168 190:-1 
-0 -1 0 1 174:-0.519016 178:-0.747833 181:-1 182:-1 183:-1 186:-1 187:-0.680168 190:-1 
-0 -1 0 1 174:-0.546049 178:-0.776448 181:-1 182:-1 183:-1 186:-1 187:-0.680168 190:-1 
-0 -1 0 1 174:-0.524863 178:-0.738668 181:-1 182:-1 183:-1 186:-1 187:-0.680168 190:-1 
-0 -1 0 1 174:-0.561559 178:-0.731794 181:-1 182:-1 183:-1 186:-1 187:-0.680168 190:-1 
-0 -1 0 1 174:-0.59981 178:-0.703838 181:0.243124 182:-1 183:0.243124 186:-0.996859 187:-0.68016 190:-0.883746 
-0 -1 0 1 174:-0.540756 178:-0.740086 181:-1 182:-1 183:-1 186:-1 187:-0.680168 190:-1 
-1 -1 0 1 174:-0.450365 178:-0.653246 181:-0.0363829 182:-1 183:-0.0363829 186:-0.990631 187:-0.680107 190:-0.824613 
-0 -1 0 1 174:-0.558448 178:-0.773728 181:-1 182:-1 183:-1 186:-1 187:-0.680168 190:-1 
-0.4828366788614362 -1 0 1 174:-0.548347 178:-0.720097 181:-1 182:-1 183:-1 186:-1 187:-0.680168 190:-1 
-1 -1 0 1 174:-0.541673 178:-0.730173 181:-1 182:-1 183:-1 186:-1 187:-0.680168 190:-1 
-0 -1 0 1 174:-0.553219 178:-0.753428 181:-1 182:-1 183:-1 186:-1 187:-0.680168 190:-1 
-1 -1 0 1 174:-0.671696 178:-0.720389 181:-1 182:-1 183:-1 186:-1 187:-0.680168 190:-1 
-0 -1 0 1 174:-0.580633 178:-0.720436 181:0.0723044 182:-1 183:0.0723044 186:-0.994189 187:-0.680245 190:-0.853366 
-1 -1 1 1 174:-0.169801 178:0.0429233 181:0.925997 182:-1 183:0.925997 186:-0.483635 187:-0.684038 190:0.379974 
-1 -1 0 1 174:-0.672619 178:-0.686119 181:-1 182:-1 183:-1 186:-1 187:-0.680168 190:-1 
-0 -1 0 1 174:-0.565766 178:-0.732059 181:-1 182:-1 183:-1 186:-1 187:-0.680168 190:-1 
-0 -1 0 1 174:-0.644342 178:-0.847335 181:-1 182:-1 183:-1 186:-1 187:-0.680168 190:-1 
-1 -1 0 1 174:-0.57608 178:-0.708609 181:-1 182:-1 183:-1 186:-1 187:-0.680168 190:-1 
-1 -1 1 1 174:0.242553 178:0.191242 181:0.950194 182:-1 183:0.950194 186:0.240178 187:-0.677366 190:0.680925 
-1 -1 0 1 174:-0.436689 178:-0.57743 181:0.269133 182:-1 183:0.269133 186:-0.977008 187:-0.68028 190:-0.703812 
-0 -1 1 1 174:-0.757474 178:-0.375932 181:0.672047 182:-1 183:0.672047 186:-0.983001 187:-0.679777 190:-0.712088 
-1 -1 1 1 174:0.0127501 178:0.0885154 181:0.969898 182:-1 183:0.969898 186:-0.20243 187:-0.679273 190:0.515838 
-1 -1 1 1 174:-0.302204 178:-0.0655223 181:0.874613 182:-1 183:0.874613 186:-0.67222 187:-0.685726 190:0.212328 
-1 -1 1 1 174:-0.352918 178:-0.370341 181:0.817883 182:-1 183:0.817883 186:-0.798121 187:-0.676907 190:-0.045918 
-1 -1 0 1 174:-0.347274 178:-0.445073 181:0.924359 182:-1 183:0.924359 186:-0.904297 187:-0.679685 190:-0.327704 
-1 -1 0 1 174:-0.452606 178:-0.686739 181:-1 182:-1 183:-1 186:-1 187:-0.680168 190:-1 
-1 -1 0 1 174:-0.252861 178:-0.423245 181:0.852375 182:-1 183:0.852375 186:-0.791127 187:-0.680141 190:-0.0296669 
-1 -1 0 1 174:-0.299028 178:-0.526959 181:0.772023 182:-1 183:0.772023 186:-0.924912 187:-0.679336 190:-0.445731 
-1 -1 0 1 174:-0.496437 178:-0.687915 181:-1 182:-1 183:-1 186:-1 187:-0.680168 190:-1 
-1 -1 0.534405610142433 1 174:-0.248807 178:-0.448801 181:0.905701 182:-1 183:0.905701 186:-0.782265 187:-0.681094 190:-0.0264098 
-1 -1 0 1 174:-0.382715 178:-0.648177 181:0.164966 182:-1 183:0.164966 186:-0.981326 187:-0.679028 190:-0.727516 
-1 -1 -1 1 174:-0.274624 178:-0.566089 181:0.87619 182:-1 183:0.87619 186:-0.930302 187:-0.68019 190:-0.452755 
-1 -1 -1 1 174:0.464754 178:-0.0019894 181:0.944085 182:-1 183:0.944085 186:0.587581 187:-0.675664 190:0.439741 
-1 -1 -1 1 174:-0.215738 178:-0.17948 181:0.953618 182:-1 183:0.953618 186:-0.660324 187:-0.681212 190:0.154322 
-1 -1 -1 1 174:-0.492268 178:-0.174405 181:0.933014 182:-1 183:0.933014 186:-0.806139 187:-0.682543 190:-0.0454977 
-1 -1 -1 1 174:-0.88099 178:-0.740236 181:-1 182:-1 183:-1 186:-1 187:-0.680168 190:-1 
-1 -1 -1 1 174:-0.592252 178:-0.45249 181:0.773575 182:-1 183:0.773575 186:-0.943072 187:-0.680239 190:-0.505584 
-1 -1 -1 1 174:-0.441622 178:-0.254391 181:0.872956 182:-1 183:0.872956 186:-0.820014 187:-0.683505 190:-0.0713771 
-1 -1 -1 1 174:0.240464 178:0.382201 181:0.934038 182:-1 183:0.934038 186:0.189478 187:-0.683412 190:0.561587 
-1 -1 -1 1 174:-0.48066 178:-0.0601471 181:0.80375 182:-1 183:0.80375 186:-0.727034 187:-0.677128 190:0.161082 
-1 -1 -1 1 174:-0.451451 178:-0.144073 181:0.9375 182:-1 183:0.9375 186:-0.738123 187:-0.681784 190:0.0119952 
-1 -1 -1 1 174:-0.143154 178:0.152847 181:0.967314 182:-1 183:0.967314 186:-0.365485 187:-0.680527 190:0.528533 
-1 -1 -1 1 174:-0.490916 178:0.0662979 181:0.932398 182:-1 183:0.932398 186:-0.699955 187:-0.682549 190:0.166278 
-1 -1 -1 1 174:-0.499763 178:0.0475036 181:0.950766 182:-1 183:0.950766 186:-0.727516 187:-0.678428 190:0.140306 
-1 -1 -1 1 174:-0.688883 178:-0.336091 181:0.900849 182:-1 183:0.900849 186:-0.940601 187:-0.679979 190:-0.450415 
-1 -1 -1 1 174:-0.776127 178:-0.420609 181:0.769394 182:-1 183:0.769394 186:-0.94494 187:-0.679847 190:-0.517961 
-1 -1 -1 1 174:-0.470564 178:-0.299765 181:0.885292 182:-1 183:0.885292 186:-0.804049 187:-0.681514 190:-0.147787 
-1 -1 -1 1 174:-0.0092923 178:-0.0541209 181:0.957744 182:-1 183:0.957744 186:-0.202302 187:-0.681804 190:0.434222 
-1 -1 -1 1 174:-0.904901 178:-0.542381 181:0.3 182:-1 183:0.3 186:-0.984864 187:-0.680676 190:-0.740307 
-1 -1 -1 1 174:-0.21278 178:0.180549 181:0.976464 182:-1 183:0.976464 186:-0.451062 187:-0.680469 190:0.495284 
-1 -1 -1 1 174:-0.294626 178:-0.0500602 181:0.935728 182:-1 183:0.935728 186:-0.612436 187:-0.680259 190:0.219028 
-1 -1 -1 1 174:-0.561093 178:-0.0353568 181:0.979747 182:-1 183:0.979747 186:-0.788808 187:-0.67966 190:-0.0114853 
-1 -1 -1 1 174:-0.783823 178:-0.411889 181:0.880748 182:-1 183:0.880748 186:-0.959785 187:-0.679918 190:-0.579291 
-1 -1 -1 1 174:-0.936322 178:-0.740769 181:-1 182:-1 183:-1 186:-1 187:-0.680168 190:-1 
-1 -1 -1 1 174:-0.853707 178:-0.656235 181:0.204899 182:-1 183:0.204899 186:-0.992689 187:-0.680321 190:-0.825727 
-1 -1 -1 1 174:-0.437601 178:0.0973251 181:0.937624 182:-1 183:0.937624 186:-0.622855 187:-0.680507 190:0.181107 
-1 -1 -1 1 174:-0.28745 178:-0.124824 181:0.869689 182:-1 183:0.869689 186:-0.633376 187:-0.681234 190:0.136893 
-1 -1 -1 1 174:-0.845815 178:-0.521521 181:0.690902 182:-1 183:0.690902 186:-0.97421 187:-0.679704 190:-0.65933 
-1 -1 -1 1 174:-0.458966 178:0.0628687 181:0.956826 182:-1 183:0.956826 186:-0.632098 187:-0.685339 190:0.236754 
-1 -1 -1 1 174:-0.00538054 178:-0.0663497 181:0.966482 182:-1 183:0.966482 186:-0.197939 187:-0.681543 190:0.424247 
-1 -1 -1 1 174:0.0250308 178:-0.058629 181:0.912003 182:-1 183:0.912003 186:-0.171398 187:-0.681969 190:0.402647 
-1 -1 -1 1 174:0.0902248 178:0.259524 181:0.966681 182:-1 183:0.966681 186:-0.00971133 187:-0.681427 190:0.562763 
-1 -1 -1 1 174:0.0770083 178:-0.0395507 181:0.963526 182:-1 183:0.963526 186:-0.0914931 187:-0.68075 190:0.442937 
-1 -1 -1 1 174:-0.0115958 178:0.0363561 181:0.94779 182:-1 183:0.94779 186:-0.182406 187:-0.681958 190:0.543185 
-1 -1 -1 1 174:-0.458863 178:0.00906521 181:0.911845 182:-1 183:0.911845 186:-0.729788 187:-0.677303 190:0.146346 
-1 -1 -1 1 174:-0.652205 178:-0.332533 181:0.793157 182:-1 183:0.793157 186:-0.959729 187:-0.680839 190:-0.557364 
-1 -1 -1 1 174:-0.161351 178:0.449939 181:0.931068 182:-1 183:0.931068 186:-0.351236 187:-0.685743 190:0.663411 
-1 -1 -1 1 174:-0.0819752 178:0.47559 181:0.898875 182:-1 183:0.898875 186:-0.206665 187:-0.678755 190:0.633702 
-1 -1 -1 1 174:-0.765382 178:-0.540652 181:0.768762 182:-1 183:0.768762 186:-0.975596 187:-0.680342 190:-0.662426 
-1 -1 -1 1 174:-0.562388 178:-0.248987 181:0.905693 182:-1 183:0.905693 186:-0.872214 187:-0.680569 190:-0.210388 
-1 -1 -1 1 174:-0.51987 178:-0.150961 181:0.673177 182:-1 183:0.673177 186:-0.819658 187:-0.684513 190:-0.128834 
-1 -1 -1 1 174:-0.718862 178:-0.492139 181:-0.117713 182:-1 183:-0.117713 186:-0.978027 187:-0.680887 190:-0.746248 
-1 -1 -1 1 174:-0.593351 178:-0.252884 181:0.912278 182:-1 183:0.912278 186:-0.849836 187:-0.682148 190:-0.0896139 
-1 -1 -1 1 174:-0.566341 178:-0.421396 181:0.294418 182:-1 183:0.294418 186:-0.955286 187:-0.681132 190:-0.592326 
-1 -1 -1 1 174:-0.783251 178:-0.502145 181:0.243124 182:-1 183:0.243124 186:-0.975095 187:-0.680628 190:-0.679478 
-1 -1 -1 1 174:-0.201087 178:0.221412 181:0.914687 182:-1 183:0.914687 186:-0.309156 187:-0.678971 190:0.597933 
-1 -1 -1 1 174:-0.206913 178:0.0518809 181:0.930658 182:-1 183:0.930658 186:-0.446263 187:-0.68166 190:0.451056 
-1 -1 -1 1 174:-0.420344 178:-0.0550051 181:0.950957 182:-1 183:0.950957 186:-0.682302 187:-0.678336 190:0.236167 
-1 -1 -1 1 174:-0.737321 178:-0.388938 181:0.928516 182:-1 183:0.928516 186:-0.943734 187:-0.679052 190:-0.460849 
-1 -1 -1 1 174:-0.569237 178:-0.239307 181:0.776197 182:-1 183:0.776197 186:-0.85631 187:-0.682357 190:-0.2554 
-1 -1 -1 1 174:-0.599265 178:-0.229493 181:0.808831 182:-1 183:0.808831 186:-0.876516 187:-0.681462 190:-0.171557 
-1 -1 -1 1 174:-0.325267 178:0.0625692 181:0.936869 182:-1 183:0.936869 186:-0.584716 187:-0.680627 190:0.270181 
-1 -1 -1 1 174:-0.572889 178:-0.810845 181:-1 182:-1 183:-1 186:-1 187:-0.680168 190:-1 
-1 -1 -1 1 174:-0.5819 178:-0.850378 181:-1 182:-1 183:-1 186:-1 187:-0.680168 190:-1 
-1 -1 -1 1 174:-0.550995 178:-0.829202 181:-1 182:-1 183:-1 186:-1 187:-0.680168 190:-1 
-1 -1 -1 1 174:-0.5603 178:-0.818762 181:-1 182:-1 183:-1 186:-1 187:-0.680168 190:-1 
-0 -0 -0 -1 174:-0.56638 178:-0.829717 181:-1 182:-1 183:-1 186:-1 187:-0.680168 190:-1 
-0 -0 -0 -1 174:-0.564023 178:-0.826 181:-1 182:-1 183:-1 186:-1 187:-0.680168 190:-1 
-0 -0 -1 -0 174:-0.688801 178:-0.648586 181:-1 182:-1 183:-1 186:-1 187:-0.680168 190:-1 
-1 -0 -0 -0 174:-0.518821 178:-0.829551 181:-1 182:-1 183:-1 186:-1 187:-0.680168 190:-1 
-1 -0 -0 -0 174:-0.762496 178:-0.637033 181:-1 182:-1 183:-1 186:-1 187:-0.680168 190:-1 
-1 -0 -0 -0 174:-0.777859 178:-0.590404 181:-1 182:-1 183:-1 186:-1 187:-0.680168 190:-1 
-0 -0 -0 -1 174:-0.835574 178:-0.472576 181:0.290353 182:-1 183:0.290353 186:-0.97243 187:-0.68066 190:-0.667867 
-0 -0 -1 -0 174:-0.550882 178:-0.808879 181:-1 182:-1 183:-1 186:-1 187:-0.680168 190:-1 
-0 -0 -1 -0 174:-0.473965 178:-0.758537 181:-1 182:-1 183:-1 186:-1 187:-0.680168 190:-1 
-0 -0 -1 -0 174:-0.511493 178:-0.80206 181:-1 182:-1 183:-1 186:-1 187:-0.680168 190:-1 
-0 -0 -1 -0 174:-0.520786 178:-0.804141 181:-1 182:-1 183:-1 186:-1 187:-0.680168 190:-1 
-0 -0 -1 -0 174:-0.482129 178:-0.778358 181:-1 182:-1 183:-1 186:-1 187:-0.680168 190:-1 
-0 -1 -0 -0 174:-0.771552 178:-0.744955 181:-1 182:-1 183:-1 186:-1 187:-0.680168 190:-1 
-0 -1 -0 -0 174:-0.790607 178:-0.49575 181:-1 182:-1 183:-1 186:-1 187:-0.680168 190:-1 
-0 -1 -0 -0 174:-0.983873 178:-0.977738 181:-1 182:-1 183:-1 186:-1 187:-0.680168 190:-1 
-0 -0 -1 -0 174:-0.354396 178:0.06319 181:0.940731 182:-1 183:0.940731 186:-0.529752 187:-0.673039 190:0.362536 
-0 -1 -0 -0 174:-0.381459 178:-0.0968241 181:0.914307 182:-1 183:0.914307 186:-0.694009 187:-0.681122 190:0.259952 
-0 -1 -0 -0 174:-0.669975 178:-0.817481 181:-1 182:-1 183:-1 186:-1 187:-0.680168 190:-1 
-0 -0 -1 -0 174:-0.803547 178:-0.633952 181:-1 182:-1 183:-1 186:-1 187:-0.680168 190:-1 
-0 -0 -0 -1 174:-0.291086 178:-0.142781 181:0.867944 182:-1 183:0.867944 186:-0.667133 187:-0.680065 190:0.16016 
-0 -0 -1 -0 174:-0.579359 178:-0.454015 181:0.298636 182:-1 183:0.298636 186:-0.987641 187:-0.680169 190:-0.775776 
-0 -1 -0 -0 174:-0.291306 178:0.110472 181:0.948018 182:-1 183:0.948018 186:-0.564684 187:-0.663445 190:0.378851 
-0 -1 -0 -0 174:-0.674371 178:-0.584057 181:0.0657853 182:-1 183:0.0657853 186:-0.990794 187:-0.680441 190:-0.81633 
-0 -0 -0 -1 174:-0.411781 178:-0.50737 181:0.830563 182:-1 183:0.830563 186:-0.927027 187:-0.680125 190:-0.455175 
-0 -0 -1 -0 174:-0.47726 178:-0.34745 181:0.875147 182:-1 183:0.875147 186:-0.904567 187:-0.675788 190:-0.326011 
-0 -1 -0 -0 174:-0.635124 178:-0.300354 181:0.862326 182:-1 183:0.862326 186:-0.89831 187:-0.67657 190:-0.261329 
-0 -0 -1 -0 174:-0.500039 178:-0.743774 181:-1 182:-1 183:-1 186:-1 187:-0.680168 190:-1 
-0 -1 -1 -0 174:-0.551276 178:-0.780371 181:-1 182:-1 183:-1 186:-1 187:-0.680168 190:-1 
-0 -1 -1 -0 174:-0.580963 178:-0.76811 181:-1 182:-1 183:-1 186:-1 187:-0.680168 190:-1 
-0 -0 -1 -0 174:-0.643175 178:-0.431247 181:0.613973 182:-1 183:0.613973 186:-0.947178 187:-0.679422 190:-0.488117 
-1 -0 -1 -0 174:-0.504048 178:-0.563246 181:0.248094 182:-1 183:0.248094 186:-0.972924 187:-0.679996 190:-0.673152 
-0 -0 -1 -0 174:-0.678086 178:-0.571596 181:-0.00839028 182:-1 183:-0.00839028 186:-0.990319 187:-0.680448 190:-0.818383 
-1 -0 -0 -0 174:-0.893509 178:-0.854814 181:-1 182:-1 183:-1 186:-1 187:-0.680168 190:-1 
-0 -0 -1 -0 174:-0.552164 178:-0.762103 181:-1 182:-1 183:-1 186:-1 187:-0.680168 190:-1 
-0 -1 -0 -0 174:-0.614202 178:-0.811691 181:-1 182:-1 183:-1 186:-1 187:-0.680168 190:-1 
-1 -0 -0 -0 174:-0.774856 178:-0.665822 181:-1 182:-1 183:-1 186:-1 187:-0.680168 190:-1 
-0 -1 -1 -0 174:-0.591216 178:-0.768024 181:-1 182:-1 183:-1 186:-1 187:-0.680168 190:-1 
-0 -0 -1 -0 174:-0.582528 178:-0.699428 181:-1 182:-1 183:-1 186:-1 187:-0.680168 190:-1 
-0 -1 -0 -0 174:0.0707404 178:0.384632 181:0.969898 182:-1 183:0.969898 186:-0.0261018 187:-0.682509 190:0.64484 
-0 -1 -0 -0 174:-0.595547 178:-0.360206 181:0.6125 182:-1 183:0.6125 186:-0.902169 187:-0.681035 190:-0.374896 
-1 -0 -0 -0 174:-0.78441 178:-0.507723 181:0.66264 182:-1 183:0.66264 186:-0.970856 187:-0.680229 190:-0.651087 
-0 -0 -1 -0 174:-0.838383 178:-0.750364 181:-1 182:-1 183:-1 186:-1 187:-0.680168 190:-1 
-0 -0 -1 -0 174:-0.65767 178:-0.750121 181:-1 182:-1 183:-1 186:-1 187:-0.680168 190:-1 
-0 -1 -0 -0 174:-0.61076 178:-0.582029 181:0.723121 182:-1 183:0.723121 186:-0.974158 187:-0.681029 190:-0.669454 
-0 -1 -0 -0 174:-0.685739 178:-0.775068 181:-1 182:-1 183:-1 186:-1 187:-0.680168 190:-1 
-0 -0 -1 -0 174:-0.705982 178:-0.580356 181:0.718736 182:-1 183:0.718736 186:-0.977141 187:-0.680165 190:-0.677158 
-0 -0 -1 -0 174:-0.556925 178:-0.141112 181:0.786231 182:-1 183:0.786231 186:-0.858902 187:-0.679963 190:-0.152143 
-0 -1 -0 -1 174:-0.454647 178:-0.209997 181:0.919937 182:-1 183:0.919937 186:-0.808962 187:-0.682096 190:-0.0563815 
-0 -1 -0 -0 174:-0.70886 178:-0.611206 181:0.909344 182:-1 183:0.909344 186:-0.982156 187:-0.680185 190:-0.665888 
-0 -0 -1 -0 174:-0.63378 178:-0.653203 181:-1 182:-1 183:-1 186:-1 187:-0.680168 190:-1 
-1 -0 -0 -0 174:-0.713682 178:-0.736477 181:-1 182:-1 183:-1 186:-1 187:-0.680168 190:-1 
-0 -0 -1 -0 174:-0.751837 178:-0.755797 181:-1 182:-1 183:-1 186:-1 187:-0.680168 190:-1 
-0 -0 -0 -1 174:-0.0372561 178:0.0248517 181:0.950394 182:-1 183:0.950394 186:-0.282731 187:-0.685895 190:0.476198 
-0 -0 -1 -0 174:-0.369106 178:-0.330213 181:0.831922 182:-1 183:0.831922 186:-0.775162 187:-0.676526 190:-0.0627003 
-0 -1 -0 -0 174:-0.390783 178:-0.284188 181:0.880116 182:-1 183:0.880116 186:-0.814726 187:-0.67854 190:-0.158112 
-0 -0 -1 -0 174:-0.560518 178:-0.654517 181:0.821041 182:-1 183:0.821041 186:-0.973668 187:-0.679929 190:-0.600474 
-1 -0 -0 -0 174:-0.544552 178:-0.489574 181:0.943628 182:-1 183:0.943628 186:-0.928593 187:-0.681213 190:-0.353011 
-0 -0 -1 -0 174:-0.404924 178:-0.34146 181:0.79133 182:-1 183:0.79133 186:-0.788239 187:-0.682259 190:-0.153297 
-1 -0 -0 -0 174:-0.123118 178:-0.29738 181:0.973698 182:-1 183:0.973698 186:-0.655551 187:-0.680636 190:0.129989 
-1 -0 -0 -0 174:-0.853585 178:-0.768779 181:-1 182:-1 183:-1 186:-1 187:-0.680168 190:-1 
-0 -0 -1 -0 174:-0.469477 178:-0.580544 181:0.240754 182:-1 183:0.240754 186:-0.992627 187:-0.680038 190:-0.822341 
-1 -0 -0 -0 174:-0.298742 178:0.0992746 181:0.947431 182:-1 183:0.947431 186:-0.642183 187:-0.667206 190:0.278643 
-0 -1 -0 -0 174:0.0160255 178:0.0445005 181:0.950194 182:-1 183:0.950194 186:-0.186335 187:-0.69033 190:0.612793 
-0 -1 -0 -0 174:-0.461649 178:-0.285325 181:0.83435 182:-1 183:0.83435 186:-0.888808 187:-0.680184 190:-0.310999 
-0 -1 -1 -0 174:-0.58289 178:-0.662735 181:0.250804 182:-1 183:0.250804 186:-0.990749 187:-0.680246 190:-0.800339 
-0 -1 -0 -1 174:-0.244409 178:0.199063 181:0.979946 182:-1 183:0.979946 186:-0.467438 187:-0.680919 190:0.489544 
-1 -0 -0 -0 174:0.433705 178:0.380458 181:0.966414 182:-1 183:0.966414 186:0.389572 187:-0.679456 190:0.46209 
-1 -0 -0 -0 174:0.135008 178:-0.191503 181:0.895321 182:-1 183:0.895321 186:-0.161515 187:-0.69679 190:0.543169 
-0 -0 -0 -1 174:-0.466384 178:0.037222 181:0.950582 182:-1 183:0.950582 186:-0.703835 187:-0.680902 190:0.16375 
-0 -0 -1 -0 174:-0.256417 178:0.0183484 181:0.944148 182:-1 183:0.944148 186:-0.505816 187:-0.679061 190:0.340782 
-0 -1 -0 -0 174:-0.985122 178:-0.965539 181:-1 182:-1 183:-1 186:-1 187:-0.680168 190:-1 
-0 -1 -0 -0 174:-0.993611 178:-0.989261 181:-1 182:-1 183:-1 186:-1 187:-0.680168 190:-1 
-0 -1 -0 -0 174:-0.646068 178:-0.363372 181:0.848298 182:-1 183:0.848298 186:-0.962437 187:-0.679626 190:-0.573889 
-0 -0 -0 -1 174:-0.772675 178:-0.517243 181:-0.074074 182:-1 183:-0.074074 186:-0.989869 187:-0.680169 190:-0.820451 
-0 -1 -0 -0 174:-0.976725 178:-0.935732 181:-1 182:-1 183:-1 186:-1 187:-0.680168 190:-1 
-0 -0 -1 -0 174:-0.700522 178:-0.570512 181:-1 182:-1 183:-1 186:-1 187:-0.680168 190:-1 
-0 -1 -0 -0 174:-0.590101 178:-0.795837 181:-1 182:-1 183:-1 186:-1 187:-0.680168 190:-1 
-0 -0 -1 -0 174:-0.683669 178:-0.365519 181:0.70761 182:-1 183:0.70761 186:-0.979994 187:-0.679923 190:-0.673952 
-0 -0 -1 -0 174:-0.475719 178:-0.651657 181:0.275926 182:-1 183:0.275926 186:-0.980999 187:-0.680178 190:-0.722859 
-0 -0 -1 -0 174:-0.332281 178:-0.497717 181:0.889591 182:-1 183:0.889591 186:-0.889085 187:-0.680428 190:-0.31889 
-1 -0 -1 -0 174:-0.775963 178:-0.596968 181:-1 182:-1 183:-1 186:-1 187:-0.680168 190:-1 
-0 -0 -1 -0 174:-0.698017 178:-0.423 181:0.924771 182:-1 183:0.924771 186:-0.982714 187:-0.680038 190:-0.700964 
-0 -1 -0 -0 174:-0.624227 178:-0.849796 181:-1 182:-1 183:-1 186:-1 187:-0.680168 190:-1 
-0 -0 -1 -0 174:-0.530854 178:-0.699536 181:-1 182:-1 183:-1 186:-1 187:-0.680168 190:-1 
-0 -1 -1 -0 174:-0.557689 178:-0.70094 181:-1 182:-1 183:-1 186:-1 187:-0.680168 190:-1 
-0 -0 -1 -1 174:-0.452183 178:-0.0248941 181:0.935269 182:-1 183:0.935269 186:-0.680907 187:-0.676103 190:0.229174 
-0 -0 -1 -0 174:-0.712538 178:-0.540454 181:0.786975 182:-1 183:0.786975 186:-0.960527 187:-0.679423 190:-0.552519 
-0 -1 -0 -0 174:-0.56718 178:-0.227302 181:0.920875 182:-1 183:0.920875 186:-0.846072 187:-0.680691 190:-0.189589 
-1 -0 -0 -0 174:-0.469851 178:-0.100233 181:0.907076 182:-1 183:0.907076 186:-0.733107 187:-0.682227 190:0.0908533 
-0 -0 -1 -0 174:-0.429007 178:-0.379762 181:0.700798 182:-1 183:0.700798 186:-0.887214 187:-0.683574 190:-0.324329 
-1 -0 -0 -0 174:-0.532474 178:-0.340861 181:0.898622 182:-1 183:0.898622 186:-0.899665 187:-0.680758 190:-0.323536 
-1 -0 -0 -0 174:-0.456979 178:-0.126046 181:0.929422 182:-1 183:0.929422 186:-0.778027 187:-0.680531 190:0.0603316 
-0 -0 -1 -0 174:-0.567977 178:-0.379099 181:0.785746 182:-1 183:0.785746 186:-0.948894 187:-0.678585 190:-0.455448 
-1 -0 -0 -0 174:0.369877 178:0.34187 181:0.964768 182:-1 183:0.964768 186:0.329172 187:-0.680989 190:0.428909 
-0 -0 -1 -1 174:0.0274534 178:0.0400528 181:0.969898 182:-1 183:0.969898 186:-0.192297 187:-0.682177 190:0.535211 
-0 -0 -1 -1 174:-0.358693 178:0.0384151 181:0.921417 182:-1 183:0.921417 186:-0.60753 187:-0.676387 190:0.302691 
-0 -0 -1 -0 174:-0.737928 178:-0.429483 181:0.864726 182:-1 183:0.864726 186:-0.955947 187:-0.680565 190:-0.517344 
-0 -1 -0 -0 174:-0.330483 178:0.00652853 181:0.938136 182:-1 183:0.938136 186:-0.559584 187:-0.679416 190:0.338711 
-0 -1 -0 -0 174:-0.0293414 178:0.0536819 181:0.966681 182:-1 183:0.966681 186:-0.227833 187:-0.681021 190:0.588438 
-0 -1 -0 -0 174:-0.404809 178:0.214362 181:0.950197 182:-1 183:0.950197 186:-0.575456 187:-0.678838 190:0.381248 
-0 -0 -1 -0 174:-0.440451 178:-0.136312 181:0.897833 182:-1 183:0.897833 186:-0.784785 187:-0.680004 190:-0.029858 
-0 -0 -1 -0 174:-0.680494 178:-0.704507 181:-1 182:-1 183:-1 186:-1 187:-0.680168 190:-1 
-0 -0 -1 -0 174:-0.432124 178:-0.392056 181:0.881534 182:-1 183:0.881534 186:-0.844705 187:-0.680111 190:-0.16251 
-0 -0 -0 -1 174:-0.450268 178:-0.180268 181:0.94093 182:-1 183:0.94093 186:-0.743666 187:-0.680038 190:-0.0350982 
-0 -1 -0 -0 174:-0.479488 178:-0.539161 181:0.712972 182:-1 183:0.712972 186:-0.95372 187:-0.68178 190:-0.536874 
-0 -1 -1 -0 174:-0.623461 178:-0.575192 181:0.262501 182:-1 183:0.262501 186:-0.970601 187:-0.680826 190:-0.645532 
-0 -0 -1 -0 174:-0.545803 178:-0.564534 181:-1 182:-1 183:-1 186:-1 187:-0.680168 190:-1 
-0 -0 -1 -0 174:-0.545469 178:-0.323897 181:0.898403 182:-1 183:0.898403 186:-0.911304 187:-0.680836 190:-0.352089 
-0 -0 -0 -1 174:-0.887773 178:-0.735359 181:-1 182:-1 183:-1 186:-1 187:-0.680168 190:-1 
-0 -0 -1 -0 174:-0.542539 178:-0.771949 181:-1 182:-1 183:-1 186:-1 187:-0.680168 190:-1 
-0 -1 -0 -0 174:-0.584863 178:-0.804257 181:-1 182:-1 183:-1 186:-1 187:-0.680168 190:-1 
-0 -1 -1 -0 174:-0.516539 178:-0.798835 181:-1 182:-1 183:-1 186:-1 187:-0.680168 190:-1 
-0 -0 -1 -0 174:-0.586023 178:-0.742245 181:-1 182:-1 183:-1 186:-1 187:-0.680168 190:-1 
-1 -0 -0 -0 174:-0.849617 178:-0.777824 181:-1 182:-1 183:-1 186:-1 187:-0.680168 190:-1 
-1 -0 -0 -0 174:-0.503916 178:-0.388178 181:0.914175 182:-1 183:0.914175 186:-0.910143 187:-0.679837 190:-0.370528 
-1 -0 -0 -0 174:0.00106691 178:0.378329 181:0.971512 182:-1 183:0.971512 186:-0.0266885 187:-0.68077 190:0.712717 
-0 -0 -0 -1 174:-0.193681 178:0.4689 181:0.937693 182:-1 183:0.937693 186:-0.348264 187:-0.688155 190:0.642939 
-0 -1 -0 -0 174:-0.793552 178:-0.510988 181:0.498064 182:-1 183:0.498064 186:-0.981404 187:-0.680594 190:-0.720117 
-1 -0 -0 -0 174:-0.43681 178:-0.105805 181:0.851634 182:-1 183:0.851634 186:-0.73485 187:-0.689273 190:0.0531466 
-0 -0 -0 -1 174:0.0984801 178:0.242454 181:0.961055 182:-1 183:0.961055 186:-0.0146556 187:-0.678466 190:0.542215 
-0 -1 -0 -0 174:-0.0997096 178:0.245368 181:0.966742 182:-1 183:0.966742 186:-0.220218 187:-0.680239 190:0.610184 
-0 -1 -0 -0 174:-0.06261 178:0.348125 181:0.944735 182:-1 183:0.944735 186:-0.220651 187:-0.68188 190:0.626717 
-0 -0 -0 -1 174:-0.841912 178:-0.551578 181:0.632849 182:-1 183:0.632849 186:-0.973317 187:-0.679833 190:-0.667337 
-0 -0 -0 -1 174:-0.418296 178:-0.294828 181:0.876444 182:-1 183:0.876444 186:-0.822514 187:-0.679991 190:-0.153825 
-1 -0 -0 -0 174:-0.856575 178:-0.57334 181:-1 182:-1 183:-1 186:-1 187:-0.680168 190:-1 
-1 -0 -0 -0 174:-0.869755 178:-0.647629 181:-1 182:-1 183:-1 186:-1 187:-0.680168 190:-1 
-0 -0 -1 -0 174:-0.850015 178:-0.644664 181:-1 182:-1 183:-1 186:-1 187:-0.680168 190:-1 
-1 -0 -0 -0 174:-0.0675742 178:0.317444 181:0.960113 182:-1 183:0.960113 186:-0.277614 187:-0.679911 190:0.574437 
-0 -1 -0 -0 174:0.517415 178:0.252129 181:0.966549 182:-1 183:0.966549 186:0.476076 187:-0.679801 190:0.276217 
-1 -0 -0 -0 174:0.475982 178:0.362484 181:0.937255 182:-1 183:0.937255 186:0.469354 187:-0.6798 190:0.333807 
-1 -0 -0 -0 174:0.540811 178:0.185048 181:0.963266 182:-1 183:0.963266 186:0.487903 187:-0.678886 190:0.290564 
-0 -1 -0 -0 174:-0.189335 178:0.00377524 181:0.966681 182:-1 183:0.966681 186:-0.437475 187:-0.677153 190:0.410396 
-1 -0 -0 -0 174:-0.855673 178:-0.68503 181:-1 182:-1 183:-1 186:-1 187:-0.680168 190:-1 
-1 -0 -0 -0 174:-0.469656 178:0.330205 181:0.884626 182:-1 183:0.884626 186:-0.678236 187:-0.685725 190:0.300579 
-0 -0 -0 -1 174:0.043194 178:-0.102556 181:0.915977 182:-1 183:0.915977 186:-0.15506 187:-0.683836 190:0.450217 
-0 -0 -1 -0 174:-0.574086 178:-0.409019 181:0.682205 182:-1 183:0.682205 186:-0.960314 187:-0.679564 190:-0.569705 
-1 -0 -0 -0 174:-0.969376 178:-0.908926 181:-1 182:-1 183:-1 186:-1 187:-0.680168 190:-1 
-0 -1 -0 -0 174:-0.528198 178:-0.651364 181:-1 182:-1 183:-1 186:-1 187:-0.680168 190:-1 
-0 -0 -0 -1 174:-0.58477 178:-0.20192 181:0.820203 182:-1 183:0.820203 186:-0.837517 187:-0.680885 190:-0.163475 
-1 -0 -0 -0 174:-0.244367 178:0.154442 181:0.886725 182:-1 183:0.886725 186:-0.45878 187:-0.67754 190:0.374014 
-0 -1 -0 -0 174:0.150128 178:0.263449 181:0.963786 182:-1 183:0.963786 186:0.009737 187:-0.684369 190:0.551881 
-1 -0 -0 -0 174:0.532398 178:0.165245 181:0.944898 182:-1 183:0.944898 186:0.459394 187:-0.68159 190:0.300709 
-0 -0 -1 -0 174:-0.577465 178:-0.664278 181:0.00199956 182:-1 183:0.00199956 186:-0.992187 187:-0.680319 190:-0.83583 
-0 -0 -1 -0 174:-0.68421 178:-0.723964 181:-1 182:-1 183:-1 186:-1 187:-0.680168 190:-1 
-1 -0 -0 -0 174:-0.302195 178:-0.12629 181:0.911765 182:-1 183:0.911765 186:-0.67112 187:-0.681806 190:0.183178 
-1 -0 -0 -0 174:-0.792071 178:-0.61711 181:-1 182:-1 183:-1 186:-1 187:-0.680168 190:-1 
-1 -1 -0 -0 174:-0.891686 178:-0.797609 181:-1 182:-1 183:-1 186:-1 187:-0.680168 190:-1 
-0 -0 -1 -0 174:-0.650579 178:-0.847129 181:-1 182:-1 183:-1 186:-1 187:-0.680168 190:-1 
-0 -0 -1 -0 174:-0.590239 178:-0.50816 181:0.255173 182:-1 183:0.255173 186:-0.951683 187:-0.679153 190:-0.561865 
-0 -0 -1 -0 174:-0.842774 178:-0.680281 181:-1 182:-1 183:-1 186:-1 187:-0.680168 190:-1 
-0 -1 -0 -0 174:-0.914312 178:-0.864889 181:-1 182:-1 183:-1 186:-1 187:-0.680168 190:-1 
-0 -0 -1 -1 174:-0.85574 178:-0.655051 181:0.158147 182:-1 183:0.158147 186:-0.991985 187:-0.680325 190:-0.821189 
-0 -1 -0 -0 174:-0.202399 178:0.294805 181:0.940544 182:-1 183:0.940544 186:-0.42157 187:-0.673394 190:0.48037 
-1 -0 -0 -0 174:-0.345558 178:-0.0915466 181:0.943565 182:-1 183:0.943565 186:-0.655659 187:-0.681197 190:0.155259 
-0 -1 -0 -0 174:-0.763962 178:-0.698058 181:-1 182:-1 183:-1 186:-1 187:-0.680168 190:-1 
-1 -0 -0 -0 174:0.258508 178:0.258325 181:0.9538 182:-1 183:0.9538 186:0.189738 187:-0.677708 190:0.475909 
-1 -0 -0 -0 174:-0.00841667 178:0.783888 181:0.923958 182:-1 183:0.923958 186:0.0358685 187:-0.681867 190:0.499843 
-0 -1 -0 -0 174:-0.510615 178:-0.129811 181:0.973698 182:-1 183:0.973698 186:-0.836296 187:-0.677208 190:-0.084124 
-1 -0 -0 -0 174:-0.38313 178:-0.0662195 181:0.934008 182:-1 183:0.934008 186:-0.630401 187:-0.687967 190:0.282277 
-0 -1 -0 -0 174:-0.838848 178:-0.685048 181:-1 182:-1 183:-1 186:-1 187:-0.680168 190:-1 
-0 -0 -0 -1 174:-0.476689 178:-0.125925 181:0.700829 182:-1 183:0.700829 186:-0.824938 187:-0.678754 190:-0.178635 
-0.8713416114189155 -0 -0 -0 174:-0.960689 178:-0.945775 181:-1 182:-1 183:-1 186:-1 187:-0.680168 190:-1 
-0 -1 -0 -0 174:-0.160385 178:0.0686274 181:0.976531 182:-1 183:0.976531 186:-0.474105 187:-0.678467 190:0.480379 
-0 -0 -1 -0 174:-0.452154 178:-0.396298 181:0.852685 182:-1 183:0.852685 186:-0.891083 187:-0.680567 190:-0.273674 
-0 -1 -0 -0 174:0.0936089 178:0.228687 181:0.957153 182:-1 183:0.957153 186:-0.139515 187:-0.679194 190:0.60089 
-1 -0 -0 -0 174:0.108449 178:0.117074 181:0.946782 182:-1 183:0.946782 186:-0.0848963 187:-0.678279 190:0.583667 
-0 -1 -0.7707399755670581 -0 174:-0.988589 178:-0.974082 181:-1 182:-1 183:-1 186:-1 187:-0.680168 190:-1 
-1 -0 -0 -0 174:-0.709006 178:-0.344944 181:0.73602 182:-1 183:0.73602 186:-0.955201 187:-0.681244 190:-0.555399 
-0 -1 -0 -0 174:-0.904891 178:-0.754436 181:-1 182:-1 183:-1 186:-1 187:-0.680168 190:-1 
-0 -0 -1 -0 174:-0.316953 178:-0.0125912 181:0.852834 182:-1 183:0.852834 186:-0.593383 187:-0.679538 190:0.327967 
-0 -0 -0 -1 174:-0.767934 178:-0.415336 181:0.853068 182:-1 183:0.853068 186:-0.965982 187:-0.67916 190:-0.550445 
-0 -1 -0 -0 174:-0.359756 178:0.048073 181:0.947616 182:-1 183:0.947616 186:-0.636821 187:-0.68054 190:0.278224 
-1 -0 -0 -0 174:-0.399534 178:0.148869 181:0.851737 182:-1 183:0.851737 186:-0.616109 187:-0.689195 190:0.352393 
-0 -1 -1 -0 174:-0.0439121 178:0.0276641 181:0.906996 182:-1 183:0.906996 186:-0.256974 187:-0.683335 190:0.459149 
-1 -0 -0 -0 174:-0.227223 178:0.26104 181:0.925261 182:-1 183:0.925261 186:-0.381124 187:-0.679029 190:0.580953 
-0 -0 -1 -0 174:-0.163916 178:0.375891 181:0.976531 182:-1 183:0.976531 186:-0.393169 187:-0.675189 190:0.510979 
-0 -1 -0 -0 174:-0.199522 178:0.0650289 181:0.966414 182:-1 183:0.966414 186:-0.419838 187:-0.681802 190:0.432137 
-0 -0 -0 -1 174:-0.690134 178:-0.343443 181:0.925435 182:-1 183:0.925435 186:-0.941454 187:-0.680555 190:-0.453249 
-0 -1 -0 -0 174:-0.705396 178:-0.238077 181:0.757699 182:-1 183:0.757699 186:-0.943634 187:-0.68147 190:-0.481103 
-1 -0 -0 -0 174:-0.678134 178:-0.427814 181:-0.0333974 182:-1 183:-0.0333974 186:-0.973974 187:-0.678783 190:-0.708745 
-0 -1 -0 -0 174:-0.495992 178:0.0290864 181:0.970664 182:-1 183:0.970664 186:-0.712925 187:-0.679199 190:0.173379 
-0 -1 -0 -0 174:-0.117553 178:0.299683 181:0.961055 182:-1 183:0.961055 186:-0.28286 187:-0.675299 190:0.611855 
-0 -0 -0 -1 174:-0.94541 178:-0.735022 181:-1 182:-1 183:-1 186:-1 187:-0.680168 190:-1 
-0 -0 -0 -1 174:-0.595029 178:-0.0400715 181:0.934803 182:-1 183:0.934803 186:-0.82781 187:-0.678055 190:-0.0109797 
-0 -0 -1 -0 174:-0.37908 178:-0.16836 181:0.943569 182:-1 183:0.943569 186:-0.762392 187:-0.681294 190:0.0611783 
-1 -0 -0 -0 174:-0.217088 178:-0.107754 181:0.889546 182:-1 183:0.889546 186:-0.545327 187:-0.690009 190:0.407863 
-0 -1 -0 -0 174:-0.157314 178:0.156849 181:0.912672 182:-1 183:0.912672 186:-0.396125 187:-0.683336 190:0.472376 
-0 -1 -0 -0 174:-0.537239 178:0.115752 181:0.90925 182:-1 183:0.90925 186:-0.77384 187:-0.703822 190:0.107664 
-0 -1 -0 -0 174:-0.724677 178:-0.314501 181:0.7523 182:-1 183:0.7523 186:-0.925418 187:-0.676624 190:-0.382133 
-0 -0 -0 -1 174:0.00804249 178:-0.132101 181:0.954917 182:-1 183:0.954917 186:-0.194462 187:-0.682122 190:0.343223 
-0 -1 -0 -0 174:-0.109625 178:0.292704 181:0.947987 182:-1 183:0.947987 186:-0.262927 187:-0.679816 190:0.636399 
-0 -1 -0 -0 174:-0.638218 178:-0.835867 181:-1 182:-1 183:-1 186:-1 187:-0.680168 190:-1 
-0 -1 -0 -0 174:-0.611697 178:-0.794285 181:-1 182:-1 183:-1 186:-1 187:-0.680168 190:-1 
-0 -1 -0 -0 174:-0.418931 178:-0.0639841 181:0.915641 182:-1 183:0.915641 186:-0.743101 187:-0.681247 190:0.106784 
-1 -0 -0 -0 174:-0.978915 178:-0.915725 181:-1 182:-1 183:-1 186:-1 187:-0.680168 190:-1 
-0 -1 -0 -0 174:-0.995073 178:-0.970637 181:-1 182:-1 183:-1 186:-1 187:-0.680168 190:-1 
-0 -0 -0 -1 174:-0.576495 178:-0.812013 181:-1 182:-1 183:-1 186:-1 187:-0.680168 190:-1 
-0 -1 -0 -0 174:-0.539404 178:-0.25167 181:0.934717 182:-1 183:0.934717 186:-0.881956 187:-0.678561 190:-0.245063 
-0 -0 -1 -0 174:-0.39424 178:-0.444032 181:0.799212 182:-1 183:0.799212 186:-0.924747 187:-0.679904 190:-0.461118 
-0 -0 -1 -0 174:-0.701758 178:-0.66713 181:-1 182:-1 183:-1 186:-1 187:-0.680168 190:-1 
-0 -1 -0 -0 174:-0.539358 178:0.0878797 181:0.938327 182:-1 183:0.938327 186:-0.714759 187:-0.67951 190:0.216401 
-0 -0 -1 -0 174:-0.865133 178:-0.558158 181:0.822003 182:-1 183:0.822003 186:-0.978229 187:-0.680114 190:-0.644765 
-0.1286583885810845 -0 -0 -0 174:0.0644659 178:0.911371 181:0.937951 182:-1 183:0.937951 186:-0.0906805 187:-0.686749 190:0.805356 
-0 -1 -0 -0 174:-0.708 178:-0.347417 181:0.826394 182:-1 183:0.826394 186:-0.922411 187:-0.681671 190:-0.341215 
-0 -1 -0 -0 174:-0.782515 178:-0.783295 181:-1 182:-1 183:-1 186:-1 187:-0.680168 190:-1 
-0 -0 -0 -1 174:-0.709302 178:-0.328629 181:0.882981 182:-1 183:0.882981 186:-0.9442 187:-0.679687 190:-0.500077 
-0 -0 -0 -1 174:-0.165343 178:0.19861 181:0.93108 182:-1 183:0.93108 186:-0.301959 187:-0.684044 190:0.61853 
-0 -0 -1 -0 174:-0.890941 178:-0.904232 181:-1 182:-1 183:-1 186:-1 187:-0.680168 190:-1 
-0 -1 -0 -0 174:-0.380967 178:-0.212566 181:0.936628 182:-1 183:0.936628 186:-0.739919 187:-0.682682 190:0.129359 
-0 -0 -1 -0 174:-0.584995 178:-0.742569 181:-1 182:-1 183:-1 186:-1 187:-0.680168 190:-1 
-0 -0 -1 -0 174:-0.186798 178:0.0941539 181:0.91471 182:-1 183:0.91471 186:-0.49284 187:-0.673119 190:0.356219 
-0 -0 -1 -0 174:-0.304373 178:-0.372394 181:0.937446 182:-1 183:0.937446 186:-0.807169 187:-0.67988 190:-0.109762 
-0 -0 -0 -1 174:-0.565485 178:-0.401825 181:0.277641 182:-1 183:0.277641 186:-0.949633 187:-0.680728 190:-0.564851 
-1 -0 -0 -0 174:-0.71513 178:-0.634749 181:-1 182:-1 183:-1 186:-1 187:-0.680168 190:-1 
-0 -0 -1 -0 174:-0.429034 178:-0.389173 181:0.909931 182:-1 183:0.909931 186:-0.861839 187:-0.680243 190:-0.274074 
-0 -1 -0 -0 174:-0.7899 178:-0.46745 181:0.185037 182:-1 183:0.185037 186:-0.992116 187:-0.680186 190:-0.835278 
-1 -0 -0 -0 174:-0.835508 178:-0.488388 181:-1 182:-1 183:-1 186:-1 187:-0.680168 190:-1 
-1 -0 -0 -0 174:-0.756685 178:-0.440209 181:-1 182:-1 183:-1 186:-1 187:-0.680168 190:-1 
-0 -1 -0 -0 174:-0.983447 178:-0.968621 181:-1 182:-1 183:-1 186:-1 187:-0.680168 190:-1 
-0 -1 -0 -0 174:-0.956659 178:-0.92292 181:-1 182:-1 183:-1 186:-1 187:-0.680168 190:-1 
-0 -1 -0 -0 174:-0.106765 178:0.168245 181:0.937255 182:-1 183:0.937255 186:-0.295715 187:-0.677367 190:0.521881 
-0 -0 -0 -1 174:-0.44983 178:0.0127554 181:0.895349 182:-1 183:0.895349 186:-0.740124 187:-0.681773 190:0.152053 
-1 -0 -0 -0 174:-0.127717 178:-0.276901 181:0.91471 182:-1 183:0.91471 186:-0.546519 187:-0.681989 190:0.25156 
-1 -0 -0 -0 174:-0.187396 178:-0.258371 181:0.941681 182:-1 183:0.941681 186:-0.609606 187:-0.678928 190:0.150488 
-1 -0 -0 -0 174:-0.926391 178:-0.79304 181:-1 182:-1 183:-1 186:-1 187:-0.680168 190:-1 
-0 -1 -0 -0 174:-0.801945 178:-0.418401 181:0.791799 182:-1 183:0.791799 186:-0.952353 187:-0.678952 190:-0.505161 
-1 -0 -0 -0 174:0.0132218 178:-0.23659 181:0.907371 182:-1 183:0.907371 186:-0.357099 187:-0.681817 190:0.287158 
-0 -1 -0 -0 174:-0.587692 178:-0.547336 181:-0.0649123 182:-1 183:-0.0649123 186:-0.989186 187:-0.67969 190:-0.813723 
-0 -0 -1 -0 174:-0.266555 178:-0.170626 181:0.943821 182:-1 183:0.943821 186:-0.641289 187:-0.683986 190:0.231186 
-1 -0 -0 -0 174:-0.767544 178:-0.547242 181:-1 182:-1 183:-1 186:-1 187:-0.680168 190:-1 
-0 -1 -0 -0 174:-0.670242 178:-0.253551 181:0.843336 182:-1 183:0.843336 186:-0.891349 187:-0.681349 190:-0.264209 
-0 -0 -1 -0 174:-0.542123 178:-0.276111 181:0.8454 182:-1 183:0.8454 186:-0.861465 187:-0.679574 190:-0.163884 
-1 -0 -0 -0 174:-0.181833 178:0.536497 181:0.937515 182:-1 183:0.937515 186:-0.315819 187:-0.672547 190:0.647535 
-0 -1 -0 -0 174:-0.652644 178:-0.383965 181:0.720809 182:-1 183:0.720809 186:-0.939143 187:-0.679156 190:-0.421552 
-0 -1 -0 -0 174:-0.601766 178:-0.34912 181:0.894133 182:-1 183:0.894133 186:-0.926098 187:-0.681273 190:-0.346116 
-1 -0 -0 -0 174:-0.817445 178:-0.864224 181:-1 182:-1 183:-1 186:-1 187:-0.680168 190:-1 
-0 -0 -1 -0 174:-0.49312 178:-0.434089 181:0.773407 182:-1 183:0.773407 186:-0.909215 187:-0.680578 190:-0.396215 
-0 -0 -1 -0 174:-0.569254 178:-0.620387 181:0.253572 182:-1 183:0.253572 186:-0.981265 187:-0.679688 190:-0.720128 
-0 -0 -1 -0 174:-0.495405 178:-0.575621 181:0.169919 182:-1 183:0.169919 186:-0.976962 187:-0.680461 190:-0.720364 
-0 -0 -1 -0 174:-0.531988 178:-0.194205 181:0.933202 182:-1 183:0.933202 186:-0.836915 187:-0.680676 190:-0.112018 
-0 -0 -1 -0 174:-0.821519 178:-0.822081 181:-1 182:-1 183:-1 186:-1 187:-0.680168 190:-1 
-0 -1 -1 -0 174:-0.0676723 178:-0.030841 181:0.941681 182:-1 183:0.941681 186:-0.38964 187:-0.681866 190:0.420163 
-0 -0 -1 -0 174:-0.669108 178:-0.556353 181:0.241072 182:-1 183:0.241072 186:-0.98806 187:-0.68011 190:-0.777271 
-0 -1 -0 -0 174:-0.576692 178:-0.803992 181:-1 182:-1 183:-1 186:-1 187:-0.680168 190:-1 
-0 -1 -1 -0 174:-0.309516 178:-0.0308185 181:0.897676 182:-1 183:0.897676 186:-0.642184 187:-0.68715 190:0.254685 
-1 -1 -0 -0 174:-0.592401 178:-0.573241 181:0.772228 182:-1 183:0.772228 186:-0.965597 187:-0.679861 190:-0.600236 
-0 -0 -0 -1 174:-0.444656 178:0.0302872 181:0.90466 182:-1 183:0.90466 186:-0.674046 187:-0.681355 190:0.226428 
-0 -1 -0 -0 174:-0.600037 178:-0.144341 181:0.915289 182:-1 183:0.915289 186:-0.833432 187:-0.679433 190:-0.0604018 
-0 -1 -0 -1 174:-0.603491 178:-0.501844 181:0.764219 182:-1 183:0.764219 186:-0.945127 187:-0.678179 190:-0.451874 
-1 -0 -0 -0 174:-0.589179 178:-0.458246 181:0.819288 182:-1 183:0.819288 186:-0.939048 187:-0.680749 190:-0.489215 
-1 -0 -0 -0 174:-0.656209 178:-0.499584 181:0.812438 182:-1 183:0.812438 186:-0.971199 187:-0.680552 190:-0.611769 
-0 -0 -1 -0 174:-0.358931 178:-0.336502 181:0.792441 182:-1 183:0.792441 186:-0.847124 187:-0.67928 190:-0.225503 
-0 -0 -1 -0 174:-0.564941 178:-0.538933 181:0.57253 182:-1 183:0.57253 186:-0.980037 187:-0.680125 190:-0.720256 
-1 -0 -0 -0 174:0.18862 178:0.309093 181:0.956566 182:-1 183:0.956566 186:0.137596 187:-0.687671 190:0.645147 
-0 -0 -0 -1 174:-0.429946 178:-0.292501 181:0.873771 182:-1 183:0.873771 186:-0.813659 187:-0.682074 190:-0.116638 
-0 -0 -1 -0 174:-0.473351 178:-0.467651 181:0.218312 182:-1 183:0.218312 186:-0.940595 187:-0.680498 190:-0.525776 
-0 -0 -0 -1 174:-0.733328 178:-0.425404 181:0.764642 182:-1 183:0.764642 186:-0.951654 187:-0.679332 190:-0.551726 
-0 -1 -0 -0 174:-0.664776 178:-0.531687 181:0.212302 182:-1 183:0.212302 186:-0.986054 187:-0.679972 190:-0.769677 
-0 -0 -1 -0 174:-0.475626 178:-0.668413 181:-1 182:-1 183:-1 186:-1 187:-0.680168 190:-1 
-0 -0 -1 -0 174:-0.544948 178:-0.762252 181:-1 182:-1 183:-1 186:-1 187:-0.680168 190:-1 
-0 -0 -1 -0 174:-0.545756 178:-0.793809 181:-1 182:-1 183:-1 186:-1 187:-0.680168 190:-1 
-0 -0 -1 -0 174:-0.551373 178:-0.770168 181:-1 182:-1 183:-1 186:-1 187:-0.680168 190:-1 
-0 -1 -1 -0 174:-0.597149 178:-0.693987 181:-1 182:-1 183:-1 186:-1 187:-0.680168 190:-1 
-0 -0 -1 -0 174:-0.545756 178:-0.793809 181:-1 182:-1 183:-1 186:-1 187:-0.680168 190:-1 
-0 -0 -1 -0 174:-0.594149 178:-0.741635 181:-1 182:-1 183:-1 186:-1 187:-0.680168 190:-1 
-0 -0 -1 -0 174:-0.531318 178:-0.757516 181:-1 182:-1 183:-1 186:-1 187:-0.680168 190:-1 
-0 -0 -1 -0 174:-0.053828 178:0.225568 181:0.953936 182:-1 183:0.953936 186:-0.301144 187:-0.68052 190:0.513629 
-0 -0 -1 -0 174:-0.411149 178:-0.699091 181:-1 182:-1 183:-1 186:-1 187:-0.680168 190:-1 
-0 -0 -1 -0 174:-0.594409 178:-0.759518 181:-1 182:-1 183:-1 186:-1 187:-0.680168 190:-1 
-0 -1 -0 -0 174:-0.598608 178:-0.825104 181:-1 182:-1 183:-1 186:-1 187:-0.680168 190:-1 
-0 -0 -1 -0 174:-0.513444 178:-0.690302 181:-1 182:-1 183:-1 186:-1 187:-0.680168 190:-1 
-0 -0 -1 -0 174:-0.326549 178:-0.38592 181:0.736615 182:-1 183:0.736615 186:-0.830814 187:-0.673227 190:-0.207287 
-0 -0 -1 -0 174:-0.504393 178:-0.455392 181:0.79878 182:-1 183:0.79878 186:-0.937694 187:-0.680738 190:-0.492544 
-0 -0 -1 -0 174:-0.411891 178:-0.534474 181:0.494998 182:-1 183:0.494998 186:-0.916189 187:-0.680035 190:-0.438073 
-0 -0 -0 -1 174:-0.268946 178:-0.047997 181:0.929689 182:-1 183:0.929689 186:-0.646684 187:-0.684142 190:0.196586 
-0 -0 -1 -0 174:-0.37714 178:-0.676392 181:0.235665 182:-1 183:0.235665 186:-0.971465 187:-0.679507 190:-0.657916 
-0 -1 -0 -0 174:0.624553 178:0.123829 181:0.934604 182:-1 183:0.934604 186:0.587543 187:-0.680761 190:0.220992 
-0 -1 -0 -0 174:-0.967437 178:-0.949643 181:-1 182:-1 183:-1 186:-1 187:-0.680168 190:-1 
-0 -1 -0 -0 174:-0.655222 178:-0.813011 181:-1 182:-1 183:-1 186:-1 187:-0.680168 190:-1 
-0 -0 -1 -0 174:-0.624379 178:-0.669811 181:0.133041 182:-1 183:0.133041 186:-0.990213 187:-0.680387 190:-0.80474 
-0 -1 -0 -0 174:-0.986908 178:-0.969524 181:-1 182:-1 183:-1 186:-1 187:-0.680168 190:-1 
-0 -0 -1 -0 174:-0.098947 178:0.0703722 181:0.966742 182:-1 183:0.966742 186:-0.339206 187:-0.682151 190:0.479184 
-1 -0 -0 -0 174:0.433716 178:0.189559 181:0.954049 182:-1 183:0.954049 186:0.407515 187:-0.682192 190:0.304581 
-0 -1 -0 -1 174:-0.163612 178:0.204508 181:0.957229 182:-1 183:0.957229 186:-0.373071 187:-0.682507 190:0.543597 
-0 -1 -1 -0 174:-0.59689 178:-0.665974 181:-1 182:-1 183:-1 186:-1 187:-0.680168 190:-1 
-1 -1 -0 -0 174:-0.267511 178:-0.42178 181:0.918859 182:-1 183:0.918859 186:-0.811134 187:-0.681569 190:-0.0940429 
-1 -0 -0 -0 174:-0.546107 178:-0.198183 181:0.867635 182:-1 183:0.867635 186:-0.837315 187:-0.681342 190:-0.0892807 
-0 -0 -1 -0 174:-0.567687 178:-0.449525 181:0.926733 182:-1 183:0.926733 186:-0.936623 187:-0.680883 190:-0.433444 
-0 -0 -0 -1 174:-0.586205 178:-0.857345 181:-1 182:-1 183:-1 186:-1 187:-0.680168 190:-1 
-0 -1 -0 -0 174:-0.397577 178:-0.505204 181:0.241072 182:-1 183:0.241072 186:-0.946562 187:-0.681039 190:-0.549093 
-1 -0 -0 -0 174:-0.273528 178:-0.354971 181:0.888821 182:-1 183:0.888821 186:-0.792058 187:-0.681307 190:-0.0173723 
-0 -1 -0 -0 174:-0.38999 178:-0.555236 181:0.00360059 182:-1 183:0.00360059 186:-0.990627 187:-0.680274 190:-0.82006 
-0 -1 -0 -0 174:-0.464767 178:-0.148596 181:0.903719 182:-1 183:0.903719 186:-0.851434 187:-0.680147 190:-0.126348 
-0 -1 -0 -0 174:-0.497232 178:-0.208804 181:0.851581 182:-1 183:0.851581 186:-0.840029 187:-0.679361 190:-0.0952166 
-0 -0 -1 -0 174:-0.475984 178:-0.160241 181:0.876016 182:-1 183:0.876016 186:-0.833247 187:-0.677942 190:-0.106646 
-0 -0 -1 -0 174:-0.216098 178:0.140444 181:0.941677 182:-1 183:0.941677 186:-0.412215 187:-0.680911 190:0.506025 
-1 -0 -0 -0 174:-0.312335 178:-0.0104771 181:0.918568 182:-1 183:0.918568 186:-0.643838 187:-0.676225 190:0.258823 
-1 -1 -0 -0 174:-0.172611 178:0.187468 181:0.903572 182:-1 183:0.903572 186:-0.383626 187:-0.678273 190:0.494512 
-1 -0 -0 -0 174:-0.463073 178:0.306651 181:0.926733 182:-1 183:0.926733 186:-0.636941 187:-0.687271 190:0.341431 
-1 -0 -0 -0 174:0.323742 178:0.4144 181:0.958552 182:-1 183:0.958552 186:0.295853 187:-0.682638 190:0.581175 
-0 -0 -1 -0 174:0.122052 178:0.548063 181:0.957086 182:-1 183:0.957086 186:-0.010641 187:-0.673572 190:0.69283 
-0 -1 -0 -0 174:-0.64106 178:-0.769781 181:-1 182:-1 183:-1 186:-1 187:-0.680168 190:-1 
-0 -1 -1 -0 174:-0.0508641 178:0.291722 181:0.944148 182:-1 183:0.944148 186:-0.231443 187:-0.687175 190:0.623229 
-0 -1 -0 -0 174:-0.573961 178:-0.366199 181:0.884279 182:-1 183:0.884279 186:-0.903023 187:-0.678715 190:-0.285231 
-1 -0 -0 -0 174:0.0440368 178:-0.0236381 181:0.966482 182:-1 183:0.966482 186:-0.124647 187:-0.682698 190:0.596477 
-0 -1 -0 -0 174:-0.54973 178:-0.634034 181:-1 182:-1 183:-1 186:-1 187:-0.680168 190:-1 
-0 -1 -1 -0 174:-0.375754 178:-0.437164 181:0.837615 182:-1 183:0.837615 186:-0.904955 187:-0.680444 190:-0.355369 
-1 -0 -1 -0 174:-0.570025 178:-0.715081 181:-1 182:-1 183:-1 186:-1 187:-0.680168 190:-1 
-0 -1 -1 -0 174:-0.645419 178:-0.375387 181:0.867175 182:-1 183:0.867175 186:-0.94326 187:-0.680682 190:-0.454082 
-1 -0 -0 -0 174:0.276543 178:0.278519 181:0.979747 182:-1 183:0.979747 186:0.227116 187:-0.678567 190:0.572127 
-1 -0 -0 -0 174:-0.0757755 178:0.149425 181:0.896951 182:-1 183:0.896951 186:-0.218987 187:-0.680204 190:0.560819 
-0 -1 -0 -0 174:-0.809494 178:-0.699468 181:-1 182:-1 183:-1 186:-1 187:-0.680168 190:-1 
-1 -0 -1 -0 174:-0.769747 178:-0.600761 181:-1 182:-1 183:-1 186:-1 187:-0.680168 190:-1 
-0 -1 -0 -0 174:-0.402738 178:0.118683 181:0.960048 182:-1 183:0.960048 186:-0.621507 187:-0.690271 190:0.348003 
-1 -0 -0 -0 174:-0.625327 178:-0.081597 181:0.849036 182:-1 183:0.849036 186:-0.869123 187:-0.679107 190:-0.157075 
-0 -0 -1 -0 174:-0.630721 178:-0.535592 181:0.793973 182:-1 183:0.793973 186:-0.982194 187:-0.680241 190:-0.716689 
-0 -1 -0 -0 174:-0.788801 178:-0.581706 181:-1 182:-1 183:-1 186:-1 187:-0.680168 190:-1 
-0 -0 -0 -1 174:-0.790667 178:-0.586513 181:0.780789 182:-1 183:0.780789 186:-0.975216 187:-0.680449 190:-0.641656 
-0 -1 -0 -1 174:-0.656602 178:-0.42452 181:0.782305 182:-1 183:0.782305 186:-0.957758 187:-0.68015 190:-0.548348 
-0 -1 -0 -0 174:-0.430393 178:-0.264813 181:0.901692 182:-1 183:0.901692 186:-0.853495 187:-0.682748 190:-0.168868 
-1 -0 -0 -0 174:0.392455 178:0.184582 181:0.919839 182:-1 183:0.919839 186:0.299918 187:-0.681982 190:0.310585 
-0 -1 -0 -0 174:-0.735175 178:-0.351546 181:0.736055 182:-1 183:0.736055 186:-0.948631 187:-0.680336 190:-0.467011 
-0 -1 -0 -0 174:-0.235491 178:-0.0269146 181:0.93257 182:-1 183:0.93257 186:-0.56465 187:-0.679272 190:0.32578 
-1 -0 -0 -0 174:-0.344417 178:-0.323853 181:0.875001 182:-1 183:0.875001 186:-0.803366 187:-0.677468 190:-0.119811 
-0 -1 -0 -0 174:-0.149212 178:0.0763143 181:0.989797 182:-1 183:0.989797 186:-0.433866 187:-0.685993 190:0.476554 
-1 -0 -0 -0 174:-0.607151 178:-0.463152 181:-1 182:-1 183:-1 186:-1 187:-0.680168 190:-1 
-1 -0 -0 -0 174:-0.354663 178:-0.115768 181:0.953618 182:-1 183:0.953618 186:-0.737115 187:-0.680255 190:0.0761064 
-0 -1 -0 -0 174:0.312962 178:0.334033 181:0.95909 182:-1 183:0.95909 186:0.195894 187:-0.677199 190:0.572424 
-0 -1 -0 -0 174:0.0116245 178:0.293255 181:0.969898 182:-1 183:0.969898 186:-0.160701 187:-0.676659 190:0.618612 
-0 -1 -0 -0 174:-0.517754 178:0.165284 181:0.922676 182:-1 183:0.922676 186:-0.697067 187:-0.674083 190:0.243093 
-0 -0 -1 -0 174:-0.67129 178:-0.487132 181:0.211364 182:-1 183:0.211364 186:-0.971787 187:-0.679795 190:-0.668106 
-1 -1 -0 -0 174:0.696368 178:-0.0508911 181:0.934008 182:-1 183:0.934008 186:0.686041 187:-0.680428 190:0.0682417 
-1 -0 -0 -0 174:0.53711 178:0.20988 181:0.9375 182:-1 183:0.9375 186:0.458325 187:-0.6867 190:0.448068 
-0 -1 -0 -0 174:0.251615 178:0.207484 181:0.939957 182:-1 183:0.939957 186:0.150231 187:-0.682941 190:0.616679 
-0 -0 -0 -1 174:-0.172185 178:0.0448527 181:0.935974 182:-1 183:0.935974 186:-0.419865 187:-0.683691 190:0.419331 
-0 -1 -0 -0 174:0.226715 178:0.313889 181:0.935032 182:-1 183:0.935032 186:0.0777903 187:-0.681442 190:0.560371 
-1 -0 -0 -0 174:-0.375342 178:-0.216559 181:0.879911 182:-1 183:0.879911 186:-0.794634 187:-0.682461 190:0.00800868 
-1 -0 -0 -0 174:-0.404626 178:-0.249181 181:0.983097 182:-1 183:0.983097 186:-0.778006 187:-0.68096 190:0.0790153 
-1 -0 -0 -0 174:-0.240035 178:0.306677 181:0.934868 182:-1 183:0.934868 186:-0.400148 187:-0.69684 190:0.487323 
-1 -0 -0 -0 174:-0.250184 178:-0.282361 181:0.747698 182:-1 183:0.747698 186:-0.746905 187:-0.682288 190:0.0225139 
-0 -1 -0 -0 174:-0.00652493 178:0.0189663 181:0.976464 182:-1 183:0.976464 186:-0.311613 187:-0.657457 190:0.523834 
-0 -0 -1 -0 174:-0.285548 178:-0.410063 181:0.830888 182:-1 183:0.830888 186:-0.783468 187:-0.685796 190:0.0139899 
-0 -1 -0 -0 174:0.208014 178:-0.0612213 181:0.983164 182:-1 183:0.983164 186:0.0602293 187:-0.674439 190:0.580499 
-0 -1 -0 -0 174:0.128419 178:0.287284 181:0.944334 182:-1 183:0.944334 186:-0.00741937 187:-0.676411 190:0.60344 
-1 -0 -0 -0 174:-0.671147 178:-0.529001 181:-1 182:-1 183:-1 186:-1 187:-0.680168 190:-1 
-1 -0 -0 -0 174:0.559243 178:0.152641 181:0.976791 182:-1 183:0.976791 186:0.532812 187:-0.676263 190:0.206718 
-1 -0 -0 -0 174:0.393198 178:0.26279 181:0.934868 182:-1 183:0.934868 186:0.295089 187:-0.681687 190:0.353306 
-0 -0 -1 -0 174:-0.636223 178:-0.602113 181:0.0117191 182:-1 183:0.0117191 186:-0.978925 187:-0.680902 190:-0.744076 
-0 -0 -0 -1 174:-0.577041 178:-0.192565 181:0.909344 182:-1 183:0.909344 186:-0.849785 187:-0.683277 190:-0.0902793 
-1 -0 -0 -0 174:-0.4567 178:-0.0735744 181:0.750322 182:-1 183:0.750322 186:-0.752547 187:-0.676477 190:0.0892594 
-0 -1 -0 -0 174:-0.258171 178:0.122365 181:0.934036 182:-1 183:0.934036 186:-0.484967 187:-0.685691 190:0.535449 
-1 -0 -0 -0 174:-0.115291 178:-0.143394 181:0.888208 182:-1 183:0.888208 186:-0.523335 187:-0.684325 190:0.354228 
-0 -0 -0 -1 174:-0.595882 178:-0.238738 181:0.791783 182:-1 183:0.791783 186:-0.869819 187:-0.680727 190:-0.225977 
-0 -0 -1 -0 174:-0.687934 178:-0.735585 181:-1 182:-1 183:-1 186:-1 187:-0.680168 190:-1 
-0 -0 -1 -0 174:-0.246312 178:-0.183013 181:0.910137 182:-1 183:0.910137 186:-0.6645 187:-0.681713 190:0.214978 
-0 -1 -0 -0 174:-0.336363 178:0.0206655 181:0.863808 182:-1 183:0.863808 186:-0.673722 187:-0.68338 190:0.207171 
-0 -0 -0 -1 174:0.410003 178:-0.0619842 181:0.987751 182:-1 183:0.987751 186:0.550416 187:-0.677824 190:0.432598 
-0 -0 -0 -1 174:-0.574254 178:-0.264928 181:0.888444 182:-1 183:0.888444 186:-0.892333 187:-0.668294 190:-0.190551 
-0 -1 -0 -0 174:-0.651834 178:-0.430486 181:0.731699 182:-1 183:0.731699 186:-0.920406 187:-0.677777 190:-0.396222 
-1 -0 -0 -0 174:-0.697747 178:-0.216361 181:0.727334 182:-1 183:0.727334 186:-0.919018 187:-0.675987 190:-0.351688 
-1 -0 -0 -0 174:-0.540004 178:-0.344418 181:0.909303 182:-1 183:0.909303 186:-0.91335 187:-0.680096 190:-0.338285 
-0 -1 -0 -0 174:0.25245 178:0.116811 181:0.947041 182:-1 183:0.947041 186:0.0623728 187:-0.672414 190:0.643735 
-0 -1 -0 -0 174:0.290038 178:0.178173 181:0.934801 182:-1 183:0.934801 186:0.135295 187:-0.671307 190:0.555778 
-1 -0 -0 -0 174:0.156762 178:0.700552 181:0.91943 182:-1 183:0.91943 186:0.141017 187:-0.688727 190:0.484492 
-0 -1 -0 -0 174:-0.636738 178:-0.584691 181:-1 182:-1 183:-1 186:-1 187:-0.680168 190:-1 
-0 -1 -0 -0 174:-0.258133 178:-0.0950078 181:0.859354 182:-1 183:0.859354 186:-0.600179 187:-0.666782 190:0.296368 
-0 -0 -0 -1 174:-0.281701 178:-0.19037 181:0.932398 182:-1 183:0.932398 186:-0.694807 187:-0.683645 190:0.175302 
-1 -0 -0 -0 174:-0.156891 178:0.263814 181:0.938237 182:-1 183:0.938237 186:-0.334434 187:-0.680328 190:0.596782 
-0 -0 -1 -0 174:-0.412007 178:-0.136437 181:0.910635 182:-1 183:0.910635 186:-0.744474 187:-0.680636 190:0.1045 
-0 -0 -0 -1 174:0.279226 178:0.362972 181:0.943768 182:-1 183:0.943768 186:0.151443 187:-0.690713 190:0.547162 
-0 -1 -0 -0 174:-0.054726 178:-0.296405 181:0.95709 182:-1 183:0.95709 186:-0.366676 187:-0.684891 190:0.350415 
-0 -0 -1 -0 174:-0.443867 178:-0.600706 181:-0.0135501 182:-1 183:-0.0135501 186:-0.991281 187:-0.680168 190:-0.828917 
-0 -1 -0 -0 174:-0.707237 178:-0.746185 181:-1 182:-1 183:-1 186:-1 187:-0.680168 190:-1 
-0 -0 -1 -0 174:-0.243561 178:0.353765 181:0.930303 182:-1 183:0.930303 186:-0.420362 187:-0.678566 190:0.519343 
-0 -1 -0 -0 174:-0.545244 178:-0.694987 181:-0.142006 182:-1 183:-0.142006 186:-0.985361 187:-0.680471 190:-0.793107 
-0 -0 -1 -0 174:-0.530941 178:-0.6825 181:-1 182:-1 183:-1 186:-1 187:-0.680168 190:-1 
-0 -0 -1 -0 174:-0.437996 178:-0.461071 181:0.699401 182:-1 183:0.699401 186:-0.940635 187:-0.679387 190:-0.46812 
-0 -1 -0 -0 174:-0.695512 178:-0.690711 181:-1 182:-1 183:-1 186:-1 187:-0.680168 190:-1 
-0 -1 -0 -0 174:-0.268734 178:0.179973 181:0.921911 182:-1 183:0.921911 186:-0.57104 187:-0.677796 190:0.399928 
-0 -0 -0 -1 174:-0.471296 178:0.121442 181:0.945352 182:-1 183:0.945352 186:-0.660194 187:-0.680085 190:0.215477 
-0 -1 -0 -0 174:-0.515278 178:-0.52008 181:0.852696 182:-1 183:0.852696 186:-0.932937 187:-0.681349 190:-0.450431 
-0 -1 -1 -0 174:-0.601608 178:-0.791837 181:-1 182:-1 183:-1 186:-1 187:-0.680168 190:-1 
-0 -1 -1 -0 174:-0.258214 178:-0.412169 181:0.947349 182:-1 183:0.947349 186:-0.76706 187:-0.678291 190:0.0103587 
-1 -0 -0 -0 174:-0.342151 178:0.359617 181:0.957599 182:-1 183:0.957599 186:-0.612685 187:-0.676362 190:0.403578 
-0 -1 -0 -0 174:-0.152316 178:-0.208527 181:0.928476 182:-1 183:0.928476 186:-0.582911 187:-0.679143 190:0.189733 
-0 -1 -0 -0 174:-0.394577 178:-0.294596 181:0.926578 182:-1 183:0.926578 186:-0.854493 187:-0.680224 190:-0.221573 
-0 -1 -0 -0 174:0.0730754 178:0.16077 181:0.964768 182:-1 183:0.964768 186:-0.17256 187:-0.679987 190:0.601028 
-1 -1 -0 -0 174:-0.686756 178:-0.266676 181:0.908059 182:-1 183:0.908059 186:-0.923216 187:-0.682246 190:-0.389774 
-0 -0 -0 -1 174:-0.846647 178:-0.550103 181:0.309849 182:-1 183:0.309849 186:-0.980629 187:-0.679752 190:-0.717756 
-0 -0 -1 -0 174:-0.322995 178:-0.214268 181:0.903034 182:-1 183:0.903034 186:-0.708903 187:-0.681836 190:0.0347863 
-0 -0 -1 -0 174:-0.0964096 178:-0.48626 181:0.92451 182:-1 183:0.92451 186:-0.641526 187:-0.680142 190:0.0940926 
-1 -1 -0 -0 174:-0.722859 178:-0.651298 181:-1 182:-1 183:-1 186:-1 187:-0.680168 190:-1 
-0 -1 -0 -0 174:-0.249123 178:0.171324 181:0.919625 182:-1 183:0.919625 186:-0.436775 187:-0.673375 190:0.468997 
-1 -0 -0 -0 174:-0.740459 178:-0.715556 181:-1 182:-1 183:-1 186:-1 187:-0.680168 190:-1 
-0 -0 -1 -0 174:-0.275211 178:-0.374749 181:0.819366 182:-1 183:0.819366 186:-0.809435 187:-0.675 190:-0.0984408 
-0 -0 -0 -1 174:-0.462049 178:-0.0667575 181:0.845536 182:-1 183:0.845536 186:-0.729854 187:-0.734575 190:0.157847 
-0 -0 -1 -0 174:-0.557826 178:-0.532503 181:-1 182:-1 183:-1 186:-1 187:-0.680168 190:-1 
-0 -1 -0 -0 174:-0.857808 178:-0.827617 181:-1 182:-1 183:-1 186:-1 187:-0.680168 190:-1 
-1 -0 -0 -0 174:-0.842298 178:-0.950563 181:-1 182:-1 183:-1 186:-1 187:-0.680168 190:-1 
-0 -0 -1 -0 174:-0.655783 178:-0.705706 181:-1 182:-1 183:-1 186:-1 187:-0.680168 190:-1 
-0 -0 -1 -0 174:-0.792196 178:-0.82325 181:-1 182:-1 183:-1 186:-1 187:-0.680168 190:-1 
-0 -0 -1 -0 174:-0.6885 178:-0.714015 181:-1 182:-1 183:-1 186:-1 187:-0.680168 190:-1 
-0 -0 -0.2292600244329419 -0 174:-0.338611 178:-0.431184 181:-1 182:-1 183:-1 186:-1 187:-0.680168 190:-1 
-0 -0 -1 -0 174:-0.663465 178:-0.620692 181:-1 182:-1 183:-1 186:-1 187:-0.680168 190:-1 
-0 -1 -0 -0 174:-0.622619 178:-0.789826 181:-1 182:-1 183:-1 186:-1 187:-0.680168 190:-1 
-0 -0 -1 -0 174:-0.75634 178:-0.676596 181:-1 182:-1 183:-1 186:-1 187:-0.680168 190:-1 
-0 -0 -1 -0 174:-0.50534 178:-0.694276 181:-1 182:-1 183:-1 186:-1 187:-0.680168 190:-1 
-1 -1 -0 -0 174:-0.0944579 178:-0.313518 181:0.910465 182:-1 183:0.910465 186:-0.588486 187:-0.657456 190:0.30062 
-0 -0 -0 -1 174:-0.470488 178:0.0350919 181:0.948448 182:-1 183:0.948448 186:-0.724106 187:-0.680829 190:0.105915 
-0 -1 -0 -0 174:0.434967 178:0.371573 181:0.923767 182:-1 183:0.923767 186:0.362347 187:-0.68074 190:0.484322 
-0 -1 -0 -0 174:-0.660644 178:-0.803562 181:-1 182:-1 183:-1 186:-1 187:-0.680168 190:-1 
-0 -1 -0 -0 174:-0.624371 178:-0.844131 181:-1 182:-1 183:-1 186:-1 187:-0.680168 190:-1 
-1 -0 -0 -0 174:0.326478 178:0.441312 181:0.930883 182:-1 183:0.930883 186:0.126048 187:-0.690351 190:0.735773 
-1 -1 -0 -1 174:0.0725539 178:-0.0391677 181:0.969697 182:-1 183:0.969697 186:-0.157789 187:-0.673564 190:0.513842 
-0 -1 -0 -0 174:-0.0090332 178:-0.110309 181:0.966614 182:-1 183:0.966614 186:-0.288179 187:-0.661919 190:0.516834 
-0 -0 -1 -0 174:0.248774 178:0.167307 181:0.989797 182:-1 183:0.989797 186:0.249006 187:-0.682264 190:0.64096 
-0 -0 -1 -0 174:-0.569712 178:-0.692602 181:-1 182:-1 183:-1 186:-1 187:-0.680168 190:-1 
-1 -0 -0 -0 174:-0.0668876 178:0.195042 181:0.745967 182:-1 183:0.745967 186:-0.358557 187:-0.686824 190:0.397234 
-1 -0 -0 -0 174:-0.720769 178:-0.418523 181:-1 182:-1 183:-1 186:-1 187:-0.680168 190:-1 
-0 -0 -1 -0 174:-0.71239 178:-0.725105 181:-1 182:-1 183:-1 186:-1 187:-0.680168 190:-1 
-0 -1 -0 -0 174:-0.539829 178:-0.515847 181:-1 182:-1 183:-1 186:-1 187:-0.680168 190:-1 
-0 -0 -0 -1 174:-0.0821213 178:0.470351 181:0.918626 182:-1 183:0.918626 186:-0.215063 187:-0.684233 190:0.634619 
-1 -0 -0 -0 174:-0.369826 178:-0.339584 181:0.548166 182:-1 183:0.548166 186:-0.869673 187:-0.683356 190:-0.259371 
-0 -0 -1 -0 174:-0.65596 178:-0.789984 181:-1 182:-1 183:-1 186:-1 187:-0.680168 190:-1 
-0 -0 -1 -0 174:-0.521154 178:-0.691095 181:-1 182:-1 183:-1 186:-1 187:-0.680168 190:-1 
